  DATE: 2018-03-30 CONTRIBUTOR: Xiaowang Zhou xzhou@sandia.gov and Lucas Hale lucas.hale@nist.gov CITATION: X. W. Zhou, R. A. Johnson, H. N. G. Wadley, Phys. Rev. B, 69, 144113(2004)
  Generated from Zhou04_create_v2.f
  Fixes precision issues with older version
    1 Fe                      
 2000  0.6176374161372077E-01 2000  0.2776333992631701E-02  0.5549891651270771E+01
   26     55.847         3.5101    fcc     
  0.0000000000000000E+00 -0.2634830866689031E-01 -0.5251218335058372E-01 -0.7849227670645620E-01 -0.1042892413898806E+00
 -0.1299037300562307E+00 -0.1553363953608806E+00 -0.1805878899592037E+00 -0.2056588665065751E+00 -0.2305499776583688E+00
 -0.2552618760699570E+00 -0.2797952143967160E+00 -0.3041506452940181E+00 -0.3283288214172377E+00 -0.3523303954217498E+00
 -0.3761560199629272E+00 -0.3998063476961444E+00 -0.4232820312767742E+00 -0.4465837233601917E+00 -0.4697120766017717E+00
 -0.4926677436568860E+00 -0.5154513771809108E+00 -0.5380636298292185E+00 -0.5605051542571837E+00 -0.5827766031201800E+00
 -0.6048786290735824E+00 -0.6268118847727633E+00 -0.6485770228730980E+00 -0.6701746960299597E+00 -0.6916055568987229E+00
 -0.7128702581347615E+00 -0.7339694523934490E+00 -0.7549037923301598E+00 -0.7756739306002678E+00 -0.7962805198591467E+00
 -0.8167242127621706E+00 -0.8370056619647144E+00 -0.8571255201221510E+00 -0.8770844398898536E+00 -0.8968830739231981E+00
 -0.9165220748775578E+00 -0.9360020954083064E+00 -0.9553237881708174E+00 -0.9744878058204662E+00 -0.9934948010126250E+00
 -0.1012345426402669E+01 -0.1031040334645972E+01 -0.1049580178397907E+01 -0.1067965610313849E+01 -0.1086197283049173E+01
 -0.1104275849259250E+01 -0.1122201961599457E+01 -0.1139976272725166E+01 -0.1157599435291752E+01 -0.1175072101954589E+01
 -0.1192394925369050E+01 -0.1209568558190510E+01 -0.1226593653074343E+01 -0.1243470862675921E+01 -0.1260200839650621E+01
 -0.1276784236653814E+01 -0.1293221706340877E+01 -0.1309513901367182E+01 -0.1325661474388103E+01 -0.1341665078059014E+01
 -0.1357525365035290E+01 -0.1373242987972305E+01 -0.1388818599525431E+01 -0.1404252852350044E+01 -0.1419546399101517E+01
 -0.1434699892435224E+01 -0.1449713985006540E+01 -0.1464589329470838E+01 -0.1479326578483492E+01 -0.1493926384699876E+01
 -0.1508389400775363E+01 -0.1522716279365329E+01 -0.1536907673125148E+01 -0.1550964234710193E+01 -0.1564886616775837E+01
 -0.1578675471977455E+01 -0.1592331452970422E+01 -0.1605855212410110E+01 -0.1619247402951894E+01 -0.1632508677251148E+01
 -0.1645639687963245E+01 -0.1658641087743561E+01 -0.1671513529247469E+01 -0.1684257665130342E+01 -0.1696874148047555E+01
 -0.1709363630654481E+01 -0.1721726765606496E+01 -0.1733964205558972E+01 -0.1746076603167284E+01 -0.1758064611086806E+01
 -0.1769928881972910E+01 -0.1781670068480973E+01 -0.1793288823266367E+01 -0.1804785798984467E+01 -0.1816161648290647E+01
 -0.1827417023840279E+01 -0.1838552578288739E+01 -0.1849568964291401E+01 -0.1860466834503637E+01 -0.1871246841580824E+01
 -0.1881909638178334E+01 -0.1892455876951540E+01 -0.1902886210555819E+01 -0.1913201291646543E+01 -0.1923401772879086E+01
 -0.1933488306908822E+01 -0.1943461546391125E+01 -0.1953322143981369E+01 -0.1963070752334929E+01 -0.1972708024107178E+01
 -0.1982234611953490E+01 -0.1991651168529239E+01 -0.2000958346489799E+01 -0.2010156798490544E+01 -0.2019247177186848E+01
 -0.2028230135234085E+01 -0.2037106325287629E+01 -0.2045876400002854E+01 -0.2054541012035134E+01 -0.2063100814039843E+01
 -0.2071556458672354E+01 -0.2079908598588043E+01 -0.2088157886442282E+01 -0.2096304974890446E+01 -0.2104350516587909E+01
 -0.2112295164190044E+01 -0.2120139570352226E+01 -0.2127884387729829E+01 -0.2135530268978227E+01 -0.2143077866752793E+01
 -0.2150527833708902E+01 -0.2157880822501927E+01 -0.2165137485787243E+01 -0.2172298476220223E+01 -0.2179364446456242E+01
 -0.2186336049150674E+01 -0.2193213936958891E+01 -0.2199998762536270E+01 -0.2206691178538182E+01 -0.2213291837620003E+01
 -0.2219801392437107E+01 -0.2226220495644867E+01 -0.2232549799898656E+01 -0.2238789957853850E+01 -0.2244941622165823E+01
 -0.2251005445489948E+01 -0.2256982080481599E+01 -0.2262872179796150E+01 -0.2268676396088975E+01 -0.2274395382015449E+01
 -0.2280029790230944E+01 -0.2285580273390836E+01 -0.2291047484150498E+01 -0.2296432075165304E+01 -0.2301734699090627E+01
 -0.2306956008581843E+01 -0.2312096656294325E+01 -0.2317157294883446E+01 -0.2322138577004581E+01 -0.2327041155313105E+01
 -0.2331865682464390E+01 -0.2336612811113810E+01 -0.2341283193916742E+01 -0.2345877483528556E+01 -0.2350396332604628E+01
 -0.2354840393800333E+01 -0.2359210319771042E+01 -0.2363506763172131E+01 -0.2367730376658974E+01 -0.2371881812886945E+01
 -0.2375961724511417E+01 -0.2379970764187765E+01 -0.2383909584571363E+01 -0.2387778838317584E+01 -0.2391579178081802E+01
 -0.2395311256519392E+01 -0.2398975726285728E+01 -0.2402573240036182E+01 -0.2406104450426130E+01 -0.2409570010110946E+01
 -0.2412970571746003E+01 -0.2416306787986675E+01 -0.2419579311488337E+01 -0.2422788794906361E+01 -0.2425935890896123E+01
 -0.2429021252112996E+01 -0.2432045531212355E+01 -0.2435009380849573E+01 -0.2437913453680024E+01 -0.2440758402359081E+01
 -0.2443544879542121E+01 -0.2446273537884514E+01 -0.2448945030041638E+01 -0.2451560008668864E+01 -0.2454119126421567E+01
 -0.2456623035955121E+01 -0.2459072389924900E+01 -0.2461467840986278E+01 -0.2463810041794630E+01 -0.2466099645005326E+01
 -0.2468337303273745E+01 -0.2470523669255259E+01 -0.2472659395605241E+01 -0.2474745134979066E+01 -0.2476781540032108E+01
 -0.2478769263419740E+01 -0.2480708957797337E+01 -0.2482601275820274E+01 -0.2484446870143922E+01 -0.2486246393423657E+01
 -0.2488000498314852E+01 -0.2489709837472883E+01 -0.2491375063553122E+01 -0.2492996829210943E+01 -0.2494575787101720E+01
 -0.2496112589880829E+01 -0.2497607890203642E+01 -0.2499062340725533E+01 -0.2500476594101877E+01 -0.2501851302988046E+01
 -0.2503187120039416E+01 -0.2504484697911361E+01 -0.2505744689259254E+01 -0.2506967746738469E+01 -0.2508154523004381E+01
 -0.2509305670712362E+01 -0.2510421842517788E+01 -0.2511503691076032E+01 -0.2512551869042468E+01 -0.2513567029072471E+01
 -0.2514549823821413E+01 -0.2515500905944669E+01 -0.2516420928097614E+01 -0.2517310542935620E+01 -0.2518170403114063E+01
 -0.2519001161288315E+01 -0.2519803470113751E+01 -0.2520577982245745E+01 -0.2521325350339672E+01 -0.2522046227050904E+01
 -0.2522741265034816E+01 -0.2523411116946781E+01 -0.2524056435442175E+01 -0.2524677873176370E+01 -0.2525276082804741E+01
 -0.2525851716982662E+01 -0.2526405428365506E+01 -0.2526937869608648E+01 -0.2527449693367462E+01 -0.2527941552297322E+01
 -0.2528414099053601E+01 -0.2528867986291673E+01 -0.2529303866666913E+01 -0.2529722392834695E+01 -0.2530124217450392E+01
 -0.2530509993169378E+01 -0.2530880372647028E+01 -0.2531236008538715E+01 -0.2531577553499814E+01 -0.2531905660185699E+01
 -0.2532220981251742E+01 -0.2532524169353318E+01 -0.2532815877145802E+01 -0.2533096757284568E+01 -0.2533367462424989E+01
 -0.2533628645222438E+01 -0.2533880958332291E+01 -0.2534125054409922E+01 -0.2534361586110703E+01 -0.2534591206090009E+01
 -0.2534814567003215E+01 -0.2535032169081444E+01 -0.2535244793276240E+01 -0.2535452372735430E+01 -0.2535654933585391E+01
 -0.2535852501952495E+01 -0.2536045103963118E+01 -0.2536232765743632E+01 -0.2536415513420413E+01 -0.2536593373119835E+01
 -0.2536766370968271E+01 -0.2536934533092096E+01 -0.2537097885617684E+01 -0.2537256454671409E+01 -0.2537410266379645E+01
 -0.2537559346868767E+01 -0.2537703722265148E+01 -0.2537843418695163E+01 -0.2537978462285185E+01 -0.2538108879161590E+01
 -0.2538234695450750E+01 -0.2538355937279041E+01 -0.2538472630772837E+01 -0.2538584802058510E+01 -0.2538692477262437E+01
 -0.2538795682510990E+01 -0.2538894443930545E+01 -0.2538988787647475E+01 -0.2539078739788153E+01 -0.2539164326478955E+01
 -0.2539245573846255E+01 -0.2539322508016427E+01 -0.2539395155115844E+01 -0.2539463541270881E+01 -0.2539527692607913E+01
 -0.2539587635253313E+01 -0.2539643395333455E+01 -0.2539694998974714E+01 -0.2539742472303463E+01 -0.2539785841446078E+01
 -0.2539825132528931E+01 -0.2539860371678398E+01 -0.2539891585020852E+01 -0.2539918798682667E+01 -0.2539942038790218E+01
 -0.2539961331469879E+01 -0.2539976702848024E+01 -0.2539988179051027E+01 -0.2539995786205262E+01 -0.2539999550437103E+01
 -0.2539999497872925E+01 -0.2539995654639101E+01 -0.2539988046862007E+01 -0.2539976700668015E+01 -0.2539961642183500E+01
 -0.2539942897534837E+01 -0.2539920492848399E+01 -0.2539894454250560E+01 -0.2539864807867695E+01 -0.2539831579826178E+01
 -0.2539794796252382E+01 -0.2539754483272683E+01 -0.2539710667013455E+01 -0.2539663373601070E+01 -0.2539612629161904E+01
 -0.2539558459822331E+01 -0.2539500891708725E+01 -0.2539439950947459E+01 -0.2539375663664909E+01 -0.2539308055987448E+01
 -0.2539237154041450E+01 -0.2539162983953290E+01 -0.2539085571849342E+01 -0.2539004943855979E+01 -0.2538921126099577E+01
 -0.2538834144706509E+01 -0.2538744025803148E+01 -0.2538650795515871E+01 -0.2538554479971050E+01 -0.2538455105295059E+01
 -0.2538352697614274E+01 -0.2538247283055068E+01 -0.2538138887743814E+01 -0.2538027537806888E+01 -0.2537913259370664E+01
 -0.2537796078561515E+01 -0.2537676021505816E+01 -0.2537553114329941E+01 -0.2537427383160264E+01 -0.2537298854123159E+01
 -0.2537167553345000E+01 -0.2537033506952162E+01 -0.2536896741071018E+01 -0.2536757281827944E+01 -0.2536615155349312E+01
 -0.2536470387761497E+01 -0.2536323005190873E+01 -0.2536173033763816E+01 -0.2536020499606697E+01 -0.2535865397149578E+01
 -0.2535707572690700E+01 -0.2535547072822097E+01 -0.2535383913709603E+01 -0.2535218111387159E+01 -0.2535049681758210E+01
 -0.2534878640597078E+01 -0.2534705003550330E+01 -0.2534528786138114E+01 -0.2534350003755488E+01 -0.2534168671673729E+01
 -0.2533984805041620E+01 -0.2533798418886728E+01 -0.2533609528116661E+01 -0.2533418147520309E+01 -0.2533224291769073E+01
 -0.2533027975418072E+01 -0.2532829212907339E+01 -0.2532628018563003E+01 -0.2532424406598452E+01 -0.2532218391115483E+01
 -0.2532009986105436E+01 -0.2531799205450321E+01 -0.2531586062923920E+01 -0.2531370572192881E+01 -0.2531152746817803E+01
 -0.2530932600254294E+01 -0.2530710145854031E+01 -0.2530485396865797E+01 -0.2530258366436507E+01 -0.2530029067612228E+01
 -0.2529797513339175E+01 -0.2529563716464702E+01 -0.2529327689738284E+01 -0.2529089445812476E+01 -0.2528848997243871E+01
 -0.2528606356494045E+01 -0.2528361535930479E+01 -0.2528114547827490E+01 -0.2527865404367128E+01 -0.2527614117640082E+01
 -0.2527360699646565E+01 -0.2527105162297188E+01 -0.2526847517413827E+01 -0.2526587776730477E+01 -0.2526325951894099E+01
 -0.2526062054465458E+01 -0.2525796095919939E+01 -0.2525528087648372E+01 -0.2525258040957833E+01 -0.2524985967072442E+01
 -0.2524711877134148E+01 -0.2524435782203512E+01 -0.2524157693260467E+01 -0.2523877621205087E+01 -0.2523595576858331E+01
 -0.2523311570962791E+01 -0.2523025614183419E+01 -0.2522737717108257E+01 -0.2522447890249154E+01 -0.2522156144042472E+01
 -0.2521862488849787E+01 -0.2521566934958582E+01 -0.2521269492582930E+01 -0.2520970171864175E+01 -0.2520668982871596E+01
 -0.2520365935603070E+01 -0.2520061039985725E+01 -0.2519754305876590E+01 -0.2519445743063231E+01 -0.2519135361264383E+01
 -0.2518823170130576E+01 -0.2518509179244752E+01 -0.2518193398122879E+01 -0.2517875836214550E+01 -0.2517556502903585E+01
 -0.2517235407508620E+01 -0.2516912559283690E+01 -0.2516587967418809E+01 -0.2516261641040541E+01 -0.2515933589212564E+01
 -0.2515603820936230E+01 -0.2515272345151119E+01 -0.2514939170735583E+01 -0.2514604306507285E+01 -0.2514267761223743E+01
 -0.2513929543582850E+01 -0.2513589662223400E+01 -0.2513248125725607E+01 -0.2512904942611615E+01 -0.2512560121346008E+01
 -0.2512213670336306E+01 -0.2511865597933467E+01 -0.2511515912432372E+01 -0.2511164622072312E+01 -0.2510811735037470E+01
 -0.2510457259457391E+01 -0.2510101203407460E+01 -0.2509743574909357E+01 -0.2509384381931525E+01 -0.2509023632389621E+01
 -0.2508661334146966E+01 -0.2508297495014994E+01 -0.2507932122753690E+01 -0.2507565225072027E+01 -0.2507196809628397E+01
 -0.2506826884031038E+01 -0.2506455455838462E+01 -0.2506082532559865E+01 -0.2505708121655546E+01 -0.2505332230537317E+01
 -0.2504954866568907E+01 -0.2504576037066361E+01 -0.2504195749298444E+01 -0.2503814010487029E+01 -0.2503430827807485E+01
 -0.2503046208389065E+01 -0.2502660159315289E+01 -0.2502272687624317E+01 -0.2501883800309323E+01 -0.2501493504318867E+01
 -0.2501101806557261E+01 -0.2500708713884931E+01 -0.2500314233118769E+01 -0.2499918371032501E+01 -0.2499521134357027E+01
 -0.2499122529780774E+01 -0.2498722563950040E+01 -0.2498321243469333E+01 -0.2497918574901712E+01 -0.2497514564769117E+01
 -0.2497109219552704E+01 -0.2496702545693170E+01 -0.2496294549591079E+01 -0.2495885237607181E+01 -0.2495474616062732E+01
 -0.2495062691239808E+01 -0.2494649469381617E+01 -0.2494234956692808E+01 -0.2493819159339778E+01 -0.2493402083450969E+01
 -0.2492983735117176E+01 -0.2492564120391837E+01 -0.2492143245291333E+01 -0.2491721115795273E+01 -0.2491297737846787E+01
 -0.2490873117352809E+01 -0.2490447260184360E+01 -0.2490020172176831E+01 -0.2489591859130257E+01 -0.2489162326809591E+01
 -0.2488731580944979E+01 -0.2488299627232030E+01 -0.2487866471332079E+01 -0.2487432118872456E+01 -0.2486996575446742E+01
 -0.2486559846615037E+01 -0.2486121937904207E+01 -0.2485682854808145E+01 -0.2485242602788025E+01 -0.2484801187272544E+01
 -0.2484358613658173E+01 -0.2483914887309409E+01 -0.2483470013559004E+01 -0.2483023997708218E+01 -0.2482576845027052E+01
 -0.2482128560754482E+01 -0.2481679150098697E+01 -0.2481228618237330E+01 -0.2480776970317683E+01 -0.2480324211456963E+01
 -0.2479870346742499E+01 -0.2479415381231968E+01 -0.2478959319953620E+01 -0.2478502167906491E+01 -0.2478043930060626E+01
 -0.2477584611357287E+01 -0.2477124216709176E+01 -0.2476662751000636E+01 -0.2476200219087870E+01 -0.2475736625799139E+01
 -0.2475271975934974E+01 -0.2474806274268381E+01 -0.2474339525545035E+01 -0.2473871734483487E+01 -0.2473402905775362E+01
 -0.2472933044085551E+01 -0.2472462154052408E+01 -0.2471990240287947E+01 -0.2471517307378026E+01 -0.2471043359882542E+01
 -0.2470568402335615E+01 -0.2470092439245779E+01 -0.2469615475096162E+01 -0.2469137514344669E+01 -0.2468658561424169E+01
 -0.2468178620742665E+01 -0.2467697696683484E+01 -0.2467215793605442E+01 -0.2466732915843026E+01 -0.2466249067706565E+01
 -0.2465764253482404E+01 -0.2465278477433070E+01 -0.2464791743797447E+01 -0.2464304056790937E+01 -0.2463815420605633E+01
 -0.2463325839410475E+01 -0.2462835317351423E+01 -0.2462343858551609E+01 -0.2461851467111505E+01 -0.2461358147109078E+01
 -0.2460863902599948E+01 -0.2460368737617544E+01 -0.2459872656173263E+01 -0.2459375662256614E+01 -0.2458877759835381E+01
 -0.2458378952855770E+01 -0.2457879245242552E+01 -0.2457378640899222E+01 -0.2456877143708142E+01 -0.2456374757530683E+01
 -0.2455871486207372E+01 -0.2455367333558041E+01 -0.2454862303381960E+01 -0.2454356399457985E+01 -0.2453849625544691E+01
 -0.2453341985380521E+01 -0.2452833482683911E+01 -0.2452324121153437E+01 -0.2451813904467943E+01 -0.2451302836286679E+01
 -0.2450790920249432E+01 -0.2450278159976659E+01 -0.2449764559069616E+01 -0.2449250121110490E+01 -0.2448734849662526E+01
 -0.2448218748270153E+01 -0.2447701820459117E+01 -0.2447184069736596E+01 -0.2446665499591332E+01 -0.2446146113493755E+01
 -0.2445625914896100E+01 -0.2445104907232531E+01 -0.2444583093919263E+01 -0.2444060478354678E+01 -0.2443537063919444E+01
 -0.2443012853976638E+01 -0.2442487851871854E+01 -0.2441962060933323E+01 -0.2441435484472029E+01 -0.2440908125781819E+01
 -0.2440379988139517E+01 -0.2439851074805036E+01 -0.2439321389021492E+01 -0.2438790934015310E+01 -0.2438259712996330E+01
 -0.2437727729157927E+01 -0.2437194985677105E+01 -0.2436661485714612E+01 -0.2436127232415044E+01 -0.2435592228906948E+01
 -0.2435056478302925E+01 -0.2434519983699739E+01 -0.2433982748178414E+01 -0.2433444774804336E+01 -0.2432906066627358E+01
 -0.2432366626681893E+01 -0.2431826457987021E+01 -0.2431285563546580E+01 -0.2430743946349270E+01 -0.2430201609368744E+01
 -0.2429658555563710E+01 -0.2429114787878021E+01 -0.2428570309240774E+01 -0.2428025122566398E+01 -0.2427479230754757E+01
 -0.2426932636691232E+01 -0.2426385343246816E+01 -0.2425837353278209E+01 -0.2425288669627904E+01 -0.2424739295124278E+01
 -0.2424189232581680E+01 -0.2423638484800520E+01 -0.2423087054567358E+01 -0.2422534944654986E+01 -0.2421982157822521E+01
 -0.2421428696815483E+01 -0.2420874564365887E+01 -0.2420319763192322E+01 -0.2419764296000037E+01 -0.2419208165481023E+01
 -0.2418651374314097E+01 -0.2418093925164980E+01 -0.2417535820686384E+01 -0.2416977063518084E+01 -0.2416417656287007E+01
 -0.2415857601607303E+01 -0.2415296902080431E+01 -0.2414735560295232E+01 -0.2414173578828006E+01 -0.2413610960242596E+01
 -0.2413047707090453E+01 -0.2412483821910720E+01 -0.2411919307230308E+01 -0.2411354165563962E+01 -0.2410788399414345E+01
 -0.2410222011272105E+01 -0.2409655003615951E+01 -0.2409087378912722E+01 -0.2408519139617464E+01 -0.2407950288173496E+01
 -0.2407380827012486E+01 -0.2406810758554515E+01 -0.2406240085208153E+01 -0.2405668809370526E+01 -0.2405096933427380E+01
 -0.2404524459753159E+01 -0.2403951390711061E+01 -0.2403377728653118E+01 -0.2402803475920251E+01 -0.2402228634842344E+01
 -0.2401653207738305E+01 -0.2401077196916134E+01 -0.2400500604672990E+01 -0.2399923433295248E+01 -0.2399345685058570E+01
 -0.2398767362227965E+01 -0.2398188467057853E+01 -0.2397609001792127E+01 -0.2397028968664214E+01 -0.2396448369897141E+01
 -0.2395867207703590E+01 -0.2395285484285960E+01 -0.2394703201836435E+01 -0.2394120362537033E+01 -0.2393536968559670E+01
 -0.2392953022066222E+01 -0.2392368525208578E+01 -0.2391783480128701E+01 -0.2391197888958689E+01 -0.2390611753820825E+01
 -0.2390025076827638E+01 -0.2389437860081962E+01 -0.2388850105676987E+01 -0.2388261815696319E+01 -0.2387672992214031E+01
 -0.2387083637294723E+01 -0.2386493752993571E+01 -0.2385903341356387E+01 -0.2385312404419669E+01 -0.2384720944210654E+01
 -0.2384128962747373E+01 -0.2383536462038704E+01 -0.2382943444084421E+01 -0.2382349910875249E+01 -0.2381755864392917E+01
 -0.2381161306610204E+01 -0.2380566239490992E+01 -0.2379970664990321E+01 -0.2379374585054432E+01 -0.2378778001620821E+01
 -0.2378180916618289E+01 -0.2377583331966989E+01 -0.2376985249578473E+01 -0.2376386671355747E+01 -0.2375787599193312E+01
 -0.2375188034977215E+01 -0.2374587980585099E+01 -0.2373987437886244E+01 -0.2373386408741617E+01 -0.2372784895003923E+01
 -0.2372182898517642E+01 -0.2371580421119081E+01 -0.2370977464636419E+01 -0.2370374030889749E+01 -0.2369770121691130E+01
 -0.2369165738844621E+01 -0.2368560884146335E+01 -0.2367955559384479E+01 -0.2367349766339395E+01 -0.2366743506783609E+01
 -0.2366136782481870E+01 -0.2365529595191197E+01 -0.2364921946660913E+01 -0.2364313838632699E+01 -0.2363705272840626E+01
 -0.2363096251011203E+01 -0.2362486774863416E+01 -0.2361876846108766E+01 -0.2361266466451317E+01 -0.2360655637587732E+01
 -0.2360044361207311E+01 -0.2359432638992037E+01 -0.2358820472616613E+01 -0.2358207863748499E+01 -0.2357594814047955E+01
 -0.2356981325168078E+01 -0.2356367398754842E+01 -0.2355753036447135E+01 -0.2355138239876800E+01 -0.2354523010668668E+01
 -0.2353907350440600E+01 -0.2353291260803525E+01 -0.2352674743361473E+01 -0.2352057799711615E+01 -0.2351440431444300E+01
 -0.2350822640143089E+01 -0.2350204427384797E+01 -0.2349585794739519E+01 -0.2348966743770676E+01 -0.2348347276035046E+01
 -0.2347727393082799E+01 -0.2347107096457532E+01 -0.2346486387696306E+01 -0.2345865268329677E+01 -0.2345243739881739E+01
 -0.2344621803870143E+01 -0.2343999461806146E+01 -0.2343376715194638E+01 -0.2342753565534175E+01 -0.2342130014317014E+01
 -0.2341506063029146E+01 -0.2340881713150328E+01 -0.2340256966154116E+01 -0.2339631823507901E+01 -0.2339006286672934E+01
 -0.2338380357104364E+01 -0.2337754036251267E+01 -0.2337127325556682E+01 -0.2336500226457634E+01 -0.2335872740385175E+01
 -0.2335244868764408E+01 -0.2334616613014522E+01 -0.2333987974548818E+01 -0.2333358954774746E+01 -0.2332729555093931E+01
 -0.2332099776902202E+01 -0.2331469621589626E+01 -0.2330839090540535E+01 -0.2330208185133555E+01 -0.2329576906741638E+01
 -0.2328945256732088E+01 -0.2328313236466593E+01 -0.2327680847301252E+01 -0.2327048090586603E+01 -0.2326414967667654E+01
 -0.2325781479883907E+01 -0.2325147628569394E+01 -0.2324513415052694E+01 -0.2323878840656968E+01 -0.2323243906699989E+01
 -0.2322608614494160E+01 -0.2321972965346549E+01 -0.2321336960558914E+01 -0.2320700601427729E+01 -0.2320063889244213E+01
 -0.2319426825294350E+01 -0.2318789410858927E+01 -0.2318151647213548E+01 -0.2317513535628669E+01 -0.2316875077369620E+01
 -0.2316236273696627E+01 -0.2315597125864849E+01 -0.2314957635124391E+01 -0.2314317802720337E+01 -0.2313677629892772E+01
 -0.2313037117876808E+01 -0.2312396267902607E+01 -0.2311755081195409E+01 -0.2311113558975555E+01 -0.2310471702458509E+01
 -0.2309829512854887E+01 -0.2309186991370476E+01 -0.2308544139206263E+01 -0.2307900957558453E+01 -0.2307257447618497E+01
 -0.2306613610573117E+01 -0.2305969447604324E+01 -0.2305324959889443E+01 -0.2304680148601139E+01 -0.2304035014907438E+01
 -0.2303389559971748E+01 -0.2302743784952886E+01 -0.2302097691005096E+01 -0.2301451279278073E+01 -0.2300804550916988E+01
 -0.2300157507062506E+01 -0.2299510148850810E+01 -0.2298862477413623E+01 -0.2298214493878229E+01 -0.2297566199367496E+01
 -0.2296917594999895E+01 -0.2296268681889525E+01 -0.2295619461146130E+01 -0.2294969933875123E+01 -0.2294320101177608E+01
 -0.2293669964150396E+01 -0.2293019523886032E+01 -0.2292368781472808E+01 -0.2291717737994793E+01 -0.2291066394531844E+01
 -0.2290414752159635E+01 -0.2289762811949669E+01 -0.2289110574969304E+01 -0.2288458042281769E+01 -0.2287805214946186E+01
 -0.2287152094017590E+01 -0.2286498680546946E+01 -0.2285844975581171E+01 -0.2285190980163154E+01 -0.2284536695331771E+01
 -0.2283882122121907E+01 -0.2283227261564476E+01 -0.2282572114686441E+01 -0.2281916682510824E+01 -0.2281260966056736E+01
 -0.2280604966339391E+01 -0.2279948684370121E+01 -0.2279292121156399E+01 -0.2278635277701856E+01 -0.2277978155006299E+01
 -0.2277320754065728E+01 -0.2276663075872354E+01 -0.2276005121414622E+01 -0.2275346891677219E+01 -0.2274688387641099E+01
 -0.2274029610283500E+01 -0.2273370560577959E+01 -0.2272711239494327E+01 -0.2272051647998796E+01 -0.2271391787053904E+01
 -0.2270731657618560E+01 -0.2270071260648058E+01 -0.2269410597094097E+01 -0.2268749667904790E+01 -0.2268088474024690E+01
 -0.2267427016394801E+01 -0.2266765295952596E+01 -0.2266103313632033E+01 -0.2265441070363571E+01 -0.2264778567074189E+01
 -0.2264115804687396E+01 -0.2263452784123256E+01 -0.2262789506298391E+01 -0.2262125972126013E+01 -0.2261462182515926E+01
 -0.2260798138374548E+01 -0.2260133840604926E+01 -0.2259469290106750E+01 -0.2258804487776370E+01 -0.2258139434506812E+01
 -0.2257474131187789E+01 -0.2256808578705721E+01 -0.2256142777943747E+01 -0.2255476729781742E+01 -0.2254810435096331E+01
 -0.2254143894760902E+01 -0.2253477109645623E+01 -0.2252810080617458E+01 -0.2252142808540177E+01 -0.2251475294274375E+01
 -0.2250807538677483E+01 -0.2250139542603784E+01 -0.2249471306904430E+01 -0.2248802832427448E+01 -0.2248134120017763E+01
 -0.2247465170517208E+01 -0.2246795984764536E+01 -0.2246126563595439E+01 -0.2245456907842558E+01 -0.2244787018335495E+01
 -0.2244116895900832E+01 -0.2243446541362142E+01 -0.2242775955540000E+01 -0.2242105139252001E+01 -0.2241434093312768E+01
 -0.2240762818533972E+01 -0.2240091315724338E+01 -0.2239419585689665E+01 -0.2238747629232831E+01 -0.2238075447153815E+01
 -0.2237403040249703E+01 -0.2236730409314705E+01 -0.2236057555140164E+01 -0.2235384478514572E+01 -0.2234711180223581E+01
 -0.2234037661050018E+01 -0.2233363921773892E+01 -0.2232689963172411E+01 -0.2232015786019996E+01 -0.2231341391088289E+01
 -0.2230666779146165E+01 -0.2229991950959747E+01 -0.2229316907292418E+01 -0.2228641648904832E+01 -0.2227966176554925E+01
 -0.2227290490997929E+01 -0.2226614592986382E+01 -0.2225938483270142E+01 -0.2225262162596396E+01 -0.2224585631709675E+01
 -0.2223908891351860E+01 -0.2223231942262200E+01 -0.2222554785177320E+01 -0.2221877420831234E+01 -0.2221199849955352E+01
 -0.2220522073278500E+01 -0.2219844091526921E+01 -0.2219165905424294E+01 -0.2218487515691741E+01 -0.2217808923047839E+01
 -0.2217130128208633E+01 -0.2216451131887644E+01 -0.2215771934795881E+01 -0.2215092537641852E+01 -0.2214412941131575E+01
 -0.2213733145968589E+01 -0.2213053152853963E+01 -0.2212372962486307E+01 -0.2211692575561786E+01 -0.2211011992774127E+01
 -0.2210331214814628E+01 -0.2209650242372173E+01 -0.2208969076133237E+01 -0.2208287716781902E+01 -0.2207606164999865E+01
 -0.2206924421466444E+01 -0.2206242486858596E+01 -0.2205560361850918E+01 -0.2204878047115667E+01 -0.2204195543322761E+01
 -0.2203512851139795E+01 -0.2202829971232045E+01 -0.2202146904262487E+01 -0.2201463650891796E+01 -0.2200780211778364E+01
 -0.2200096587578304E+01 -0.2199412778945466E+01 -0.2198728786531436E+01 -0.2198044610985561E+01 -0.2197360252954943E+01
 -0.2196675713084456E+01 -0.2195990992016758E+01 -0.2195306090392293E+01 -0.2194621008849305E+01 -0.2193935748023849E+01
 -0.2193250308549793E+01 -0.2192564691058835E+01 -0.2191878896180507E+01 -0.2191192924542187E+01 -0.2190506776769106E+01
 -0.2189820453484358E+01 -0.2189133955308907E+01 -0.2188447282861600E+01 -0.2187760436759174E+01 -0.2187073417616259E+01
 -0.2186386226045396E+01 -0.2185698862657041E+01 -0.2185011328059574E+01 -0.2184323622859308E+01 -0.2183635747660494E+01
 -0.2182947703065339E+01 -0.2182259489674001E+01 -0.2181571108084611E+01 -0.2180882558893272E+01 -0.2180193842694071E+01
 -0.2179504960079085E+01 -0.2178815911638394E+01 -0.2178126697960086E+01 -0.2177437319630262E+01 -0.2176747777233051E+01
 -0.2176058071350614E+01 -0.2175368202563150E+01 -0.2174678171448911E+01 -0.2173987978584202E+01 -0.2173297624543395E+01
 -0.2172607109898934E+01 -0.2171916435221342E+01 -0.2171225601079231E+01 -0.2170534608039310E+01 -0.2169843456666392E+01
 -0.2169152147523398E+01 -0.2168460681171373E+01 -0.2167769058169485E+01 -0.2167077279075038E+01 -0.2166385344443478E+01
 -0.2165693254828400E+01 -0.2165001010781555E+01 -0.2164308612852861E+01 -0.2163616061590405E+01 -0.2162923357540454E+01
 -0.2162230501247463E+01 -0.2161537493254078E+01 -0.2160844334101149E+01 -0.2160151024327733E+01 -0.2159457564471102E+01
 -0.2158763955066751E+01 -0.2158070196648405E+01 -0.2157376289748026E+01 -0.2156682234895820E+01 -0.2155988032620243E+01
 -0.2155293683448010E+01 -0.2154599187904102E+01 -0.2153904546511768E+01 -0.2153209759792541E+01 -0.2152514828266234E+01
 -0.2151819752450958E+01 -0.2151124532863118E+01 -0.2150429170017429E+01 -0.2149733664426917E+01 -0.2149038016602928E+01
 -0.2148342227055132E+01 -0.2147646296291536E+01 -0.2146950224818481E+01 -0.2146254013140657E+01 -0.2145557661761107E+01
 -0.2144861171181232E+01 -0.2144164541900797E+01 -0.2143467774417940E+01 -0.2142770869229178E+01 -0.2142073826829412E+01
 -0.2141376647711934E+01 -0.2140679332368433E+01 -0.2139981881289001E+01 -0.2139284294962140E+01 -0.2138586573874772E+01
 -0.2137888718512234E+01 -0.2137190729358299E+01 -0.2136492606895168E+01 -0.2135794351603488E+01 -0.2135095963962350E+01
 -0.2134397444449299E+01 -0.2133698793540337E+01 -0.2133000011709933E+01 -0.2132301099431027E+01 -0.2131602057175034E+01
 -0.2130902885411854E+01 -0.2130203584609873E+01 -0.2129504155235975E+01 -0.2128804597755540E+01 -0.2128104912632457E+01
 -0.2127405100329128E+01 -0.2126705161306468E+01 -0.2126005096023922E+01 -0.2125304904939458E+01 -0.2124604588509583E+01
 -0.2123904147189341E+01 -0.2123203581432325E+01 -0.2122502891690679E+01 -0.2121802078415103E+01 -0.2121101142054860E+01
 -0.2120400083057784E+01 -0.2119698901870277E+01 -0.2118997598937327E+01 -0.2118296174702502E+01 -0.2117594629607962E+01
 -0.2116892964094462E+01 -0.2116191178601357E+01 -0.2115489273566611E+01 -0.2114787249426797E+01 -0.2114085106617105E+01
 -0.2113382845571348E+01 -0.2112680466721967E+01 -0.2111977970500032E+01 -0.2111275357335257E+01 -0.2110572627655991E+01
 -0.2109869781889238E+01 -0.2109166820460651E+01 -0.2108463743794544E+01 -0.2107760552313893E+01 -0.2107057246440343E+01
 -0.2106353826594211E+01 -0.2105650293194494E+01 -0.2104946646658873E+01 -0.2104242887403715E+01 -0.2103539015844083E+01
 -0.2102835032393737E+01 -0.2102130937465141E+01 -0.2101426731469466E+01 -0.2100722414816597E+01 -0.2100017987915134E+01
 -0.2099313451172405E+01 -0.2098608804994461E+01 -0.2097904049786087E+01 -0.2097199185950802E+01 -0.2096494213890870E+01
 -0.2095789134007301E+01 -0.2095083946699855E+01 -0.2094378652367046E+01 -0.2093673251406153E+01 -0.2092967744213215E+01
 -0.2092262131183043E+01 -0.2091556412709221E+01 -0.2090850589184114E+01 -0.2090144660998867E+01 -0.2089438628543414E+01
 -0.2088732492206482E+01 -0.2088026252375595E+01 -0.2087319909437075E+01 -0.2086613463776053E+01 -0.2085906915776469E+01
 -0.2085200265821076E+01 -0.2084493514291448E+01 -0.2083786661567981E+01 -0.2083079708029896E+01 -0.2082372654055253E+01
 -0.2081665500020939E+01 -0.2080958246302687E+01 -0.2080250893275075E+01 -0.2079543441311526E+01 -0.2078835890784319E+01
 -0.2078128242064589E+01 -0.2077420495522335E+01 -0.2076712651526418E+01 -0.2076004710444571E+01 -0.2075296672643402E+01
 -0.2074588538488393E+01 -0.2073880308343913E+01 -0.2073171982573214E+01 -0.2072463561538439E+01 -0.2071755045600626E+01
 -0.2071046435119712E+01 -0.2070337730454534E+01 -0.2069628931962837E+01 -0.2068920040001276E+01 -0.2068211054925423E+01
 -0.2067501977089762E+01 -0.2066792806847705E+01 -0.2066083544551587E+01 -0.2065374190552675E+01 -0.2064664745201168E+01
 -0.2063955208846203E+01 -0.2063245581835860E+01 -0.2062535864517162E+01 -0.2061826057236084E+01 -0.2061116160337550E+01
 -0.2060406174165446E+01 -0.2059696099062612E+01 -0.2058985935370859E+01 -0.2058275683430960E+01 -0.2057565343582665E+01
 -0.2056854916164694E+01 -0.2056144401514750E+01 -0.2055433799969517E+01 -0.2054723111864666E+01 -0.2054012337534856E+01
 -0.2053301477313742E+01 -0.2052590531533974E+01 -0.2051879500527205E+01 -0.2051168384624091E+01 -0.2050457184154296E+01
 -0.2049745899446495E+01 -0.2049034530828379E+01 -0.2048323078626655E+01 -0.2047611543167055E+01 -0.2046899924774334E+01
 -0.2046188223772277E+01 -0.2045476440483701E+01 -0.2044764575230458E+01 -0.2044052628333440E+01 -0.2043340600112582E+01
 -0.2042628490886863E+01 -0.2041916300974314E+01 -0.2041204030692015E+01 -0.2040491680356106E+01 -0.2039779250281783E+01
 -0.2039066740783306E+01 -0.2038354152174003E+01 -0.2037641484766267E+01 -0.2036928738871566E+01 -0.2036215914800445E+01
 -0.2035503012862524E+01 -0.2034790033366510E+01 -0.2034076976620192E+01 -0.2033363842930449E+01 -0.2032650632603251E+01
 -0.2031937345943665E+01 -0.2031223983255854E+01 -0.2030510544843084E+01 -0.2029797031007724E+01 -0.2029083442051252E+01
 -0.2028369778274256E+01 -0.2027656039976438E+01 -0.2026942227456616E+01 -0.2026228341012732E+01 -0.2025514380941844E+01
 -0.2024800347540143E+01 -0.2024086241102946E+01 -0.2023372061924701E+01 -0.2022657810298994E+01 -0.2021943486518547E+01
 -0.2021229090875225E+01 -0.2020514623660035E+01 -0.2019800085163133E+01 -0.2019085475673826E+01 -0.2018370795480570E+01
 -0.2017656044870980E+01 -0.2016941224131829E+01 -0.2016226333549052E+01 -0.2015511373407750E+01 -0.2014796343992188E+01
 -0.2014081245585805E+01 -0.2013366078471209E+01 -0.2012650842930190E+01 -0.2011935539243712E+01 -0.2011220167691922E+01
 -0.2010504728554154E+01 -0.2009789222108923E+01 -0.2009073648633943E+01 -0.2008358008406113E+01 -0.2007642301701533E+01
 -0.2006926528795498E+01 -0.2006210689962505E+01 -0.2005494785476256E+01 -0.2004778815609658E+01 -0.2004062780634829E+01
 -0.2003346680823097E+01 -0.2002630516445008E+01 -0.2001914287770320E+01 -0.2001197995068016E+01 -0.2000481638606298E+01
 -0.1999765218652597E+01 -0.1999048735473569E+01 -0.1998332189335101E+01 -0.1997615580502314E+01 -0.1996898909239564E+01
 -0.1996182175810446E+01 -0.1995465380477795E+01 -0.1994748523503691E+01 -0.1994031605149458E+01 -0.1993314625675671E+01
 -0.1992597585342152E+01 -0.1991880484407983E+01 -0.1991163323131495E+01 -0.1990446101770283E+01 -0.1989728820581201E+01
 -0.1989011479820367E+01 -0.1988294079743165E+01 -0.1987576620604248E+01 -0.1986859102657539E+01 -0.1986141526156234E+01
 -0.1985423891352808E+01 -0.1984706198499012E+01 -0.1983988447845878E+01 -0.1983270639643720E+01 -0.1982552774142140E+01
 -0.1981834851590027E+01 -0.1981116872235560E+01 -0.1980398836326209E+01 -0.1979680744108744E+01 -0.1978962595829225E+01
 -0.1978244391733019E+01 -0.1977526132064792E+01 -0.1976807817068513E+01 -0.1976089446987460E+01 -0.1975371022064219E+01
 -0.1974652542540686E+01 -0.1973934008658074E+01 -0.1973215420656909E+01 -0.1972496778777036E+01 -0.1971778083257619E+01
 -0.1971059334337148E+01 -0.1970340532253435E+01 -0.1969621677243619E+01 -0.1968902769544170E+01 -0.1968183809390889E+01
 -0.1967464797018911E+01 -0.1966745732662705E+01 -0.1966026616556081E+01 -0.1965307448932187E+01 -0.1964588230023516E+01
 -0.1963868960061901E+01 -0.1963149639278526E+01 -0.1962430267903925E+01 -0.1961710846167978E+01 -0.1960991374299922E+01
 -0.1960271852528349E+01 -0.1959552281081207E+01 -0.1958832660185805E+01 -0.1958112990068811E+01 -0.1957393270956261E+01
 -0.1956673503073554E+01 -0.1955953686645457E+01 -0.1955233821896107E+01 -0.1954513909049014E+01 -0.1953793948327060E+01
 -0.1953073939952507E+01 -0.1952353884146989E+01 -0.1951633781131526E+01 -0.1950913631126517E+01 -0.1950193434351746E+01
 -0.1949473191026384E+01 -0.1948752901368989E+01 -0.1948032565597507E+01 -0.1947312183929281E+01 -0.1946591756581045E+01
 -0.1945871283768929E+01 -0.1945150765708462E+01 -0.1944430202614572E+01 -0.1943709594701591E+01 -0.1942988942183251E+01
 -0.1942268245272693E+01 -0.1941547504182465E+01 -0.1940826719124523E+01 -0.1940105890310237E+01 -0.1939385017950388E+01
 -0.1938664102255173E+01 -0.1937943143434207E+01 -0.1937222141696523E+01 -0.1936501097250575E+01 -0.1935780010304240E+01
 -0.1935058881064820E+01 -0.1934337709739042E+01 -0.1933616496533062E+01 -0.1932895241652468E+01 -0.1932173945302276E+01
 -0.1931452607686939E+01 -0.1930731229010345E+01 -0.1930009809475816E+01 -0.1929288349286120E+01 -0.1928566848643458E+01
 -0.1927845307749480E+01 -0.1927123726805277E+01 -0.1926402106011387E+01 -0.1925680445567797E+01 -0.1924958745673941E+01
 -0.1924237006528710E+01 -0.1923515228330442E+01 -0.1922793411276933E+01 -0.1922071555565437E+01 -0.1921349661392664E+01
 -0.1920627728954786E+01 -0.1919905758447435E+01 -0.1919183750065707E+01 -0.1918461704004165E+01 -0.1917739620456838E+01
 -0.1917017499617223E+01 -0.1916295341678288E+01 -0.1915573146832472E+01 -0.1914850915271690E+01 -0.1914128647187328E+01
 -0.1913406342770255E+01 -0.1912684002210814E+01 -0.1911961625698830E+01 -0.1911239213423608E+01 -0.1910516765573941E+01
 -0.1909794282338101E+01 -0.1909071763903852E+01 -0.1908349210458445E+01 -0.1907626622188618E+01 -0.1906903999280604E+01
 -0.1906181341920128E+01 -0.1905458650292410E+01 -0.1904735924582167E+01 -0.1904013164973612E+01 -0.1903290371650459E+01
 -0.1902567544795923E+01 -0.1901844684592719E+01 -0.1901121791223072E+01 -0.1900398864868706E+01 -0.1899675905710858E+01
 -0.1898952913930268E+01 -0.1898229889707191E+01 -0.1897506833221393E+01 -0.1896783744652151E+01 -0.1896060624178259E+01
 -0.1895337471978027E+01 -0.1894614288229283E+01 -0.1893891073109373E+01 -0.1893167826795165E+01 -0.1892444549463049E+01
 -0.1891721241288939E+01 -0.1890997902448276E+01 -0.1890274533116024E+01 -0.1889551133466676E+01 -0.1888827703674259E+01
 -0.1888104243912326E+01 -0.1887380754353965E+01 -0.1886657235171797E+01 -0.1885933686537980E+01 -0.1885210108624206E+01
 -0.1884486501601710E+01 -0.1883762865641261E+01 -0.1883039200913175E+01 -0.1882315507587305E+01 -0.1881591785833051E+01
 -0.1880868035819358E+01 -0.1880144257714718E+01 -0.1879420451687171E+01 -0.1878696617904304E+01 -0.1877972756533260E+01
 -0.1877248867740731E+01 -0.1876524951692960E+01 -0.1875801008555753E+01 -0.1875077038494462E+01 -0.1874353041674006E+01
 -0.1873629018258858E+01 -0.1872904968413053E+01 -0.1872180892300186E+01 -0.1871456790083418E+01 -0.1870732661925472E+01
 -0.1870008507988637E+01 -0.1869284328434772E+01 -0.1868560123425299E+01 -0.1867835893121215E+01 -0.1867111637683085E+01
 -0.1866387357271047E+01 -0.1865663052044813E+01 -0.1864938722163669E+01 -0.1864214367786478E+01 -0.1863489989071680E+01
 -0.1862765586177294E+01 -0.1862041159260919E+01 -0.1861316708479735E+01 -0.1860592233990506E+01 -0.1859867735949576E+01
 -0.1859143214512879E+01 -0.1858418669835932E+01 -0.1857694102073841E+01 -0.1856969511381299E+01 -0.1856244897912591E+01
 -0.1855520261821594E+01 -0.1854795603261775E+01 -0.1854070922386195E+01 -0.1853346219347512E+01 -0.1852621494297980E+01
 -0.1851896747389447E+01 -0.1851171978773364E+01 -0.1850447188600779E+01 -0.1849722377022341E+01 -0.1848997544188303E+01
 -0.1848272690248520E+01 -0.1847547815352452E+01 -0.1846822919649165E+01 -0.1846098003287330E+01 -0.1845373066415229E+01
 -0.1844648109180753E+01 -0.1843923131731400E+01 -0.1843198134214283E+01 -0.1842473116776128E+01 -0.1841748079563271E+01
 -0.1841023022721669E+01 -0.1840297946396888E+01 -0.1839572850734118E+01 -0.1838847735878164E+01 -0.1838122601973451E+01
 -0.1837397449164025E+01 -0.1836672277593555E+01 -0.1835947087405331E+01 -0.1835221878742268E+01 -0.1834496651746907E+01
 -0.1833771406561413E+01 -0.1833046143327582E+01 -0.1832320862186835E+01 -0.1831595563280225E+01 -0.1830870246748434E+01
 -0.1830144912731778E+01 -0.1829419561370204E+01 -0.1828694192803294E+01 -0.1827968807170263E+01 -0.1827243404609967E+01
 -0.1826517985260893E+01 -0.1825792549261171E+01 -0.1825067096748568E+01 -0.1824341627860492E+01 -0.1823616142733994E+01
 -0.1822890641505764E+01 -0.1822165124312140E+01 -0.1821439591289100E+01 -0.1820714042572272E+01 -0.1819988478296926E+01
 -0.1819262898597984E+01 -0.1818537303610015E+01 -0.1817811693467239E+01 -0.1817086068303523E+01 -0.1816360428252391E+01
 -0.1815634773447015E+01 -0.1814909104020226E+01 -0.1814183420104506E+01 -0.1813457721831992E+01 -0.1812732009334483E+01
 -0.1812006282743432E+01 -0.1811280542189950E+01 -0.1810554787804811E+01 -0.1809829019718448E+01 -0.1809103238060956E+01
 -0.1808377442962094E+01 -0.1807651634551283E+01 -0.1806925812957610E+01 -0.1806199978309827E+01 -0.1805474130736354E+01
 -0.1804748270365277E+01 -0.1804022397324352E+01 -0.1803296511741005E+01 -0.1802570613742330E+01 -0.1801844703455095E+01
 -0.1801118781005741E+01 -0.1800392846520378E+01 -0.1799666900124796E+01 -0.1798940941944458E+01 -0.1798214972104502E+01
 -0.1797488990729746E+01 -0.1796762997944682E+01 -0.1796036993873484E+01 -0.1795310978640007E+01 -0.1794584952367783E+01
 -0.1793858915180030E+01 -0.1793132867199645E+01 -0.1792406808549212E+01 -0.1791680739350997E+01 -0.1790954659726953E+01
 -0.1790228569798719E+01 -0.1789502469687619E+01 -0.1788776359514669E+01 -0.1788050239400572E+01 -0.1787324109465720E+01
 -0.1786597969830198E+01 -0.1785871820613780E+01 -0.1785145661935937E+01 -0.1784419493915828E+01 -0.1783693316672310E+01
 -0.1782967130323934E+01 -0.1782240934988947E+01 -0.1781514730785293E+01 -0.1780788517830616E+01 -0.1780062296242253E+01
 -0.1779336066137247E+01 -0.1778609827632338E+01 -0.1777883580843968E+01 -0.1777157325888279E+01 -0.1776431062881120E+01
 -0.1775704791938041E+01 -0.1774978513174297E+01 -0.1774252226704848E+01 -0.1773525932644361E+01 -0.1772799631107212E+01
 -0.1772073322207480E+01 -0.1771347006058958E+01 -0.1770620682775145E+01 -0.1769894352469253E+01 -0.1769168015254203E+01
 -0.1768441671242629E+01 -0.1767715320546880E+01 -0.1766988963279014E+01 -0.1766262599550808E+01 -0.1765536229473751E+01
 -0.1764809853159051E+01 -0.1764083470717630E+01 -0.1763357082260130E+01 -0.1762630687896911E+01 -0.1761904287738051E+01
 -0.1761177881893348E+01 -0.1760451470472324E+01 -0.1759725053584220E+01 -0.1758998631337999E+01 -0.1758272203842350E+01
 -0.1757545771205681E+01 -0.1756819333536130E+01 -0.1756092890941559E+01 -0.1755366443529553E+01 -0.1754639991407430E+01
 -0.1753913534682229E+01 -0.1753187073460725E+01 -0.1752460607849415E+01 -0.1751734137954532E+01 -0.1751007663882037E+01
 -0.1750281185737621E+01 -0.1749554703626713E+01 -0.1748828217654470E+01 -0.1748101727925783E+01 -0.1747375234545280E+01
 -0.1746648737617324E+01 -0.1745922237246011E+01 -0.1745195733535180E+01 -0.1744469226588400E+01 -0.1743742716508984E+01
 -0.1743016203399982E+01 -0.1742289687364184E+01 -0.1741563168504118E+01 -0.1740836646922057E+01 -0.1740110122720014E+01
 -0.1739383595999744E+01 -0.1738657066862746E+01 -0.1737930535410265E+01 -0.1737204001743286E+01 -0.1736477465962544E+01
 -0.1735750928168518E+01 -0.1735024388461434E+01 -0.1734297846941266E+01 -0.1733571303707736E+01 -0.1732844758860315E+01
 -0.1732118212498222E+01 -0.1731391664720429E+01 -0.1730665115625659E+01 -0.1729938565312384E+01 -0.1729212013878830E+01
 -0.1728485461422975E+01 -0.1727758908042554E+01 -0.1727032353835052E+01 -0.1726305798897713E+01 -0.1725579243327532E+01
 -0.1724852687221267E+01 -0.1724126130675426E+01 -0.1723399573786281E+01 -0.1722673016649857E+01 -0.1721946459361942E+01
 -0.1721219902018084E+01 -0.1720493344713587E+01 -0.1719766787543520E+01 -0.1719040230602714E+01 -0.1718313673985759E+01
 -0.1717587117787010E+01 -0.1716860562100588E+01 -0.1716134007020373E+01 -0.1715407452640015E+01 -0.1714680899052926E+01
 -0.1713954346352287E+01 -0.1713227794631045E+01 -0.1712501243981912E+01 -0.1711774694497372E+01 -0.1711048146269675E+01
 -0.1710321599390842E+01 -0.1709595053952664E+01 -0.1708868510046701E+01 -0.1708141967764286E+01 -0.1707415427196523E+01
 -0.1706688888434289E+01 -0.1705962351568234E+01 -0.1705235816688780E+01 -0.1704509283886128E+01 -0.1703782753250249E+01
 -0.1703056224870891E+01 -0.1702329698837581E+01 -0.1701603175239618E+01 -0.1700876654166082E+01 -0.1700150135705831E+01
 -0.1699423619947499E+01 -0.1698697106979502E+01 -0.1697970596890032E+01 -0.1697244089767068E+01 -0.1696517585698362E+01
 -0.1695791084771454E+01 -0.1695064587073661E+01 -0.1694338092692088E+01 -0.1693611601713619E+01 -0.1692885114224925E+01
 -0.1692158630312459E+01 -0.1691432150062460E+01 -0.1690705673560953E+01 -0.1689979200893750E+01 -0.1689252732146448E+01
 -0.1688526267404431E+01 -0.1687799806752874E+01 -0.1687073350276738E+01 -0.1686346898060774E+01 -0.1685620450189522E+01
 -0.1684894006747312E+01 -0.1684167567818266E+01 -0.1683441133486297E+01 -0.1682714703835109E+01 -0.1681988278948199E+01
 -0.1681261858908857E+01 -0.1680535443800167E+01 -0.1679809033705006E+01 -0.1679082628706047E+01 -0.1678356228885757E+01
 -0.1677629834326398E+01 -0.1676903445110032E+01 -0.1676177061318514E+01 -0.1675450683033497E+01 -0.1674724310336433E+01
 -0.1673997943308573E+01 -0.1673271582030966E+01 -0.1672545226584459E+01 -0.1671818877049702E+01 -0.1671092533507144E+01
 -0.1670366196037035E+01 -0.1669639864719426E+01 -0.1668913539634174E+01 -0.1668187220860932E+01 -0.1667460908479163E+01
 -0.1666734602568129E+01 -0.1666008303206898E+01 -0.1665282010474345E+01 -0.1664555724449144E+01 -0.1663829445209783E+01
 -0.1663103172834549E+01 -0.1662376907401541E+01 -0.1661650648988663E+01 -0.1660924397673625E+01 -0.1660198153533951E+01
 -0.1659471916646967E+01 -0.1658745687089813E+01 -0.1658019464939439E+01 -0.1657293250272602E+01 -0.1656567043165871E+01
 -0.1655840843695631E+01 -0.1655114651938071E+01 -0.1654388467969198E+01 -0.1653662291864831E+01 -0.1652936123700600E+01
 -0.1652209963551951E+01 -0.1651483811494143E+01 -0.1650757667602252E+01 -0.1650031531951166E+01 -0.1649305404615592E+01
 -0.1648579285670050E+01 -0.1647853175188881E+01 -0.1647127073246238E+01 -0.1646400979916095E+01 -0.1645674895272246E+01
 -0.1644948819388298E+01 -0.1644222752337682E+01 -0.1643496694193647E+01 -0.1642770645029262E+01 -0.1642044604917415E+01
 -0.1641318573930818E+01 -0.1640592552142002E+01 -0.1639866539623323E+01 -0.1639140536446954E+01 -0.1638414542684897E+01
 -0.1637688558408973E+01 -0.1636962583690828E+01 -0.1636236618601934E+01 -0.1635510663213584E+01 -0.1634784717596900E+01
 -0.1634058781822828E+01 -0.1633332855962139E+01 -0.1632606940085431E+01 -0.1631881034263131E+01 -0.1631155138565490E+01
 -0.1630429253062591E+01 -0.1629703377824342E+01 -0.1628977512920480E+01 -0.1628251658420572E+01 -0.1627525814394015E+01
 -0.1626799980910036E+01 -0.1626074158037691E+01 -0.1625348345845869E+01 -0.1624622544403289E+01 -0.1623896753778502E+01
 -0.1623170974039893E+01 -0.1622445205255677E+01 -0.1621719447493903E+01 -0.1620993700822454E+01 -0.1620267965309047E+01
 -0.1619542241021235E+01 -0.1618816528026401E+01 -0.1618090826391768E+01 -0.1617365136184393E+01 -0.1616639457471170E+01
 -0.1615913790318827E+01 -0.1615188134793931E+01 -0.1614462490962885E+01 -0.1613736858891934E+01 -0.1613011238647154E+01
 -0.1612285630294466E+01 -0.1611560033899628E+01 -0.1610834449528234E+01 -0.1610108877245723E+01 -0.1609383317117373E+01
 -0.1608657769208300E+01 -0.1607932233583464E+01 -0.1607206710307664E+01 -0.1606481199445543E+01 -0.1605755701061587E+01
 -0.1605030215220120E+01 -0.1604304741985314E+01 -0.1603579281421184E+01 -0.1602853833591585E+01 -0.1602128398560221E+01
 -0.1601402976390639E+01 -0.1600677567146230E+01 -0.1599952170890231E+01 -0.1599226787685724E+01 -0.1598501417595641E+01
 -0.1597776060682757E+01 -0.1597050717009694E+01 -0.1596325386638923E+01 -0.1595600069632764E+01 -0.1594874766053383E+01
 -0.1594149475962793E+01 -0.1593424199422860E+01 -0.1592698936495298E+01 -0.1591973687241669E+01 -0.1591248451723387E+01
 -0.1590523230001716E+01 -0.1589798022137770E+01 -0.1589072828192517E+01 -0.1588347648226772E+01 -0.1587622482301207E+01
 -0.1586897330476343E+01 -0.1586172192812555E+01 -0.1585447069370072E+01 -0.1584721960208973E+01 -0.1583996865389197E+01
 -0.1583271784970531E+01 -0.1582546719012619E+01 -0.1581821667574962E+01 -0.1581096630716915E+01 -0.1580371608497686E+01
 -0.1579646600976342E+01 -0.1578921608211807E+01 -0.1578196630262860E+01 -0.1577471667188138E+01 -0.1576746719046134E+01
 -0.1576021785895202E+01 -0.1575296867793551E+01 -0.1574571964799251E+01 -0.1573847076970229E+01 -0.1573122204364274E+01
 -0.1572397347039030E+01 -0.1571672505052007E+01 -0.1570947678460569E+01 -0.1570222867321947E+01 -0.1569498071693229E+01
 -0.1568773291631364E+01 -0.1568048527193166E+01 -0.1567323778435308E+01 -0.1566599045414328E+01 -0.1565874328186625E+01
 -0.1565149626808460E+01 -0.1564424941335961E+01 -0.1563700271825118E+01 -0.1562975618331784E+01 -0.1562250980911678E+01
 -0.1561526359620382E+01 -0.1560801754513348E+01 -0.1560077165645886E+01 -0.1559352593073178E+01 -0.1558628036850270E+01
 -0.1557903497032075E+01 -0.1557178973673371E+01 -0.1556454466828805E+01 -0.1555729976552891E+01 -0.1555005502900012E+01
 -0.1554281045924417E+01 -0.1553556605680224E+01 -0.1552832182221422E+01 -0.1552107775601866E+01 -0.1551383385875282E+01
 -0.1550659013095266E+01 -0.1549934657315284E+01 -0.1549210318588672E+01 -0.1548485996968638E+01 -0.1547761692508258E+01
 -0.1547037405260484E+01 -0.1546313135278135E+01 -0.1545588882613905E+01 -0.1544864647320360E+01 -0.1544140429449938E+01
 -0.1543416229054950E+01 -0.1542692046187579E+01 -0.1541967880899886E+01 -0.1541243733243801E+01 -0.1540519603271130E+01
 -0.1539795491033555E+01 -0.1539071396582631E+01 -0.1538347319969788E+01 -0.1537623261246334E+01 -0.1536899220463449E+01
 -0.1536175197672192E+01 -0.1535451192923497E+01 -0.1534727206268176E+01 -0.1534003237756915E+01 -0.1533279287440282E+01
 -0.1532555355368718E+01 -0.1531831441592544E+01 -0.1531107546161960E+01 -0.1530383669127043E+01 -0.1529659810537749E+01
 -0.1528935970443914E+01 -0.1528212148895252E+01 -0.1527488345941359E+01 -0.1526764561631707E+01 -0.1526040796015652E+01
 -0.1525317049142430E+01 -0.1524593321061155E+01 -0.1523869611820826E+01 -0.1523145921470320E+01 -0.1522422250058400E+01
 -0.1521698597633706E+01 -0.1520974964244764E+01 -0.1520251349939980E+01 -0.1519527754767646E+01 -0.1518804178775935E+01
 -0.1518080622012901E+01 -0.1517357084526487E+01 -0.1516633566364517E+01 -0.1515910067574700E+01 -0.1515186588204629E+01
 -0.1514463128301782E+01 -0.1513739687913523E+01 -0.1513016267087101E+01 -0.1512292865869650E+01 -0.1511569484308189E+01
 -0.1510846122449628E+01 -0.1510122780340758E+01 -0.1509399458028259E+01 -0.1508676155558698E+01 -0.1507952872978531E+01
 -0.1507229610334100E+01 -0.1506506367671632E+01 -0.1505783145037249E+01 -0.1505059942476956E+01 -0.1504336760036647E+01
 -0.1503613597762108E+01 -0.1502890455699013E+01 -0.1502167333892923E+01 -0.1501444232389293E+01 -0.1500721151233465E+01
 -0.1499998090470672E+01 -0.1499275050146038E+01 -0.1498552030304578E+01 -0.1497829030991197E+01 -0.1497106052250694E+01
 -0.1496383094127756E+01 -0.1495660156666965E+01 -0.1494937239912791E+01 -0.1494214343909603E+01 -0.1493491468701656E+01
 -0.1492768614333104E+01 -0.1492045780847988E+01 -0.1491322968290247E+01 -0.1490600176703713E+01 -0.1489877406132110E+01
  0.1234657194858278E+03  0.1234657194858278E+03  0.1234657194858278E+03  0.1234657194858278E+03  0.1234657194858278E+03
  0.1234657194858278E+03  0.1234657194858278E+03  0.1234657194858278E+03  0.1234657194858278E+03  0.1234657194858278E+03
  0.1234657194858278E+03  0.1234657194858278E+03  0.1234657194858278E+03  0.1234657194858278E+03  0.1234657194858278E+03
  0.1234657194858278E+03  0.1234657194858278E+03  0.1234657194858278E+03  0.1234657194858278E+03  0.1234657194858278E+03
  0.1234657194858278E+03  0.1234657194858278E+03  0.1234657194858278E+03  0.1234657194858278E+03  0.1234657194858278E+03
  0.1234657194858278E+03  0.1234657194858278E+03  0.1234657194858278E+03  0.1234657194858278E+03  0.1234657194858278E+03
  0.1234657194858278E+03  0.1234657194858278E+03  0.1234657194858278E+03  0.1234657194858278E+03  0.1234657194858278E+03
  0.1234657194858278E+03  0.1234657194858278E+03  0.1234657194858278E+03  0.1234657194858278E+03  0.1234657194858278E+03
  0.1234657194858278E+03  0.1234657194858278E+03  0.1234657194858278E+03  0.1234657194858278E+03  0.1234657194858278E+03
  0.1234657194858278E+03  0.1234657194858278E+03  0.1234657194858278E+03  0.1234657194858278E+03  0.1234657194858278E+03
  0.1234657194858278E+03  0.1234657194858278E+03  0.1234657194858278E+03  0.1234657194858278E+03  0.1234657194858278E+03
  0.1234657194858278E+03  0.1234657194858278E+03  0.1234657194858278E+03  0.1234657194858278E+03  0.1234657194858278E+03
  0.1234657194858278E+03  0.1234657194858278E+03  0.1234657194858278E+03  0.1234657194858278E+03  0.1234657194858278E+03
  0.1234657194858278E+03  0.1234657194858278E+03  0.1234657194858278E+03  0.1234657194858278E+03  0.1234657194858278E+03
  0.1234657194858278E+03  0.1234657194858278E+03  0.1234657194858278E+03  0.1234657194858278E+03  0.1234657194858278E+03
  0.1234657194858278E+03  0.1234657194858278E+03  0.1234657194858278E+03  0.1234657194858278E+03  0.1234657194858278E+03
  0.1234657194858278E+03  0.1234657194858278E+03  0.1234657194858278E+03  0.1234657194858278E+03  0.1234657194858278E+03
  0.1234657194858278E+03  0.1234657194858278E+03  0.1234657194858278E+03  0.1234657194858278E+03  0.1234657194858278E+03
  0.1234657194858278E+03  0.1234657194858278E+03  0.1234657194858278E+03  0.1234657194858278E+03  0.1234657194858278E+03
  0.1234657194858278E+03  0.1234657194858278E+03  0.1234657194858278E+03  0.1234657194858278E+03  0.1234657194858278E+03
  0.1234657194858278E+03  0.1234657194858278E+03  0.1234657194858278E+03  0.1234657194858278E+03  0.1234657194858278E+03
  0.1234657194858278E+03  0.1234657194858278E+03  0.1234657194858278E+03  0.1234657194858278E+03  0.1234657194858278E+03
  0.1234657194858278E+03  0.1234657194858278E+03  0.1234657194858278E+03  0.1234657194858278E+03  0.1234657194858278E+03
  0.1234657194858278E+03  0.1234657194858278E+03  0.1234657194858278E+03  0.1234657194858278E+03  0.1234657194858278E+03
  0.1234657194858278E+03  0.1234657194858278E+03  0.1234657194858278E+03  0.1234657194858278E+03  0.1234657194858278E+03
  0.1234657194858278E+03  0.1234657194858278E+03  0.1234657194858278E+03  0.1234657194858278E+03  0.1234657194858278E+03
  0.1234657194858278E+03  0.1234657194858278E+03  0.1234657194858278E+03  0.1234657194858278E+03  0.1234657194858278E+03
  0.1234657194858278E+03  0.1234657194858278E+03  0.1234657194858278E+03  0.1234657194858278E+03  0.1234657194858278E+03
  0.1234657194858278E+03  0.1234657194858278E+03  0.1234657194858278E+03  0.1234657194858278E+03  0.1234657194858278E+03
  0.1234657194858278E+03  0.1234657194858278E+03  0.1234657194858278E+03  0.1234657194858278E+03  0.1234657194858278E+03
  0.1234657194858278E+03  0.1234657194858278E+03  0.1234657194858278E+03  0.1234657194858278E+03  0.1234657194858278E+03
  0.1234657194858278E+03  0.1234657194858278E+03  0.1234657194858278E+03  0.1234657194858278E+03  0.1234657194858278E+03
  0.1234657194858278E+03  0.1234657194858278E+03  0.1234657194858278E+03  0.1234657194858278E+03  0.1234657194858278E+03
  0.1234657194858278E+03  0.1234657194858278E+03  0.1234657194858278E+03  0.1234657194858278E+03  0.1234657194858278E+03
  0.1234657194858278E+03  0.1234657194858278E+03  0.1234657194858278E+03  0.1234657194858278E+03  0.1234657194858278E+03
  0.1234657194858278E+03  0.1234657194858278E+03  0.1234657194858278E+03  0.1234657194858278E+03  0.1234657194858278E+03
  0.1234657194858278E+03  0.1228119614658790E+03  0.1220947036296333E+03  0.1213816347892926E+03  0.1206727304798934E+03
  0.1199679663793549E+03  0.1192673183076445E+03  0.1185707622259478E+03  0.1178782742358442E+03  0.1171898305784872E+03
  0.1165054076337882E+03  0.1158249819196078E+03  0.1151485300909483E+03  0.1144760289391541E+03  0.1138074553911151E+03
  0.1131427865084742E+03  0.1124819994868418E+03  0.1118250716550122E+03  0.1111719804741863E+03  0.1105227035371984E+03
  0.1098772185677466E+03  0.1092355034196297E+03  0.1085975360759868E+03  0.1079632946485415E+03  0.1073327573768518E+03
  0.1067059026275627E+03  0.1060827088936645E+03  0.1054631547937547E+03  0.1048472190713045E+03  0.1042348805939295E+03
  0.1036261183526645E+03  0.1030209114612427E+03  0.1024192391553796E+03  0.1018210807920599E+03  0.1012264158488297E+03
  0.1006352239230919E+03  0.1000474847314072E+03  0.9946317810879698E+02  0.9888228400805214E+02  0.9830478249904525E+02
  0.9773065376804655E+02  0.9715987811704439E+02  0.9659243596306918E+02  0.9602830783752155E+02  0.9546747438550470E+02
  0.9490991636515983E+02  0.9435561464700642E+02  0.9380455021328562E+02  0.9325670415730777E+02  0.9271205768280409E+02
  0.9217059210328134E+02  0.9163228884138088E+02  0.9109712942824129E+02  0.9056509550286468E+02  0.9003616881148683E+02
  0.8951033120695094E+02  0.8898756464808474E+02  0.8846785119908176E+02  0.8795117302888585E+02  0.8743751241057964E+02
  0.8692685172077590E+02  0.8641917343901333E+02  0.8591446014715513E+02  0.8541269452879162E+02  0.8491385936864600E+02
  0.8441793755198370E+02  0.8392491206402515E+02  0.8343476598936229E+02  0.8294748251137777E+02  0.8246304491166839E+02
  0.8198143656947120E+02  0.8150264096109339E+02  0.8102664165934532E+02  0.8055342233297719E+02  0.8008296674611823E+02
  0.7961525875771999E+02  0.7915028232100239E+02  0.7868802148290345E+02  0.7822846038353151E+02  0.7777158325562156E+02
  0.7731737442399387E+02  0.7686581830501633E+02  0.7641689940606996E+02  0.7597060232501711E+02  0.7552691174967309E+02
  0.7508581245728099E+02  0.7464728931398912E+02  0.7421132727433201E+02  0.7377791138071410E+02  0.7334702676289653E+02
  0.7291865863748694E+02  0.7249279230743254E+02  0.7206941316151539E+02  0.7164850667385146E+02  0.7123005840339212E+02
  0.7081405399342864E+02  0.7040047917109975E+02  0.6998931974690191E+02  0.6958056161420234E+02  0.6917419074875512E+02
  0.6877019320822011E+02  0.6836855513168443E+02  0.6796926273918719E+02  0.6757230233124626E+02  0.6717766028838864E+02
  0.6678532307068302E+02  0.6639527721727519E+02  0.6600750934592644E+02  0.6562200615255402E+02  0.6523875441077516E+02
  0.6485774097145281E+02  0.6447895276224497E+02  0.6410237678715576E+02  0.6372800012608982E+02  0.6335580993440880E+02
  0.6298579344249102E+02  0.6261793795529301E+02  0.6225223085191405E+02  0.6188865958516320E+02  0.6152721168112876E+02
  0.6116787473875040E+02  0.6081063642939363E+02  0.6045548449642671E+02  0.6010240675480023E+02  0.5975139109062913E+02
  0.5940242546077683E+02  0.5905549789244240E+02  0.5871059648274943E+02  0.5836770939833779E+02  0.5802682487495773E+02
  0.5768793121706612E+02  0.5735101679742520E+02  0.5701607005670370E+02  0.5668307950308026E+02  0.5635203371184912E+02
  0.5602292132502815E+02  0.5569573105096912E+02  0.5537045166397031E+02  0.5504707200389156E+02  0.5472558097577097E+02
  0.5440596754944465E+02  0.5408822075916800E+02  0.5377232970323956E+02  0.5345828354362706E+02  0.5314607150559558E+02
  0.5283568287733766E+02  0.5252710700960601E+02  0.5222033331534804E+02  0.5191535126934267E+02  0.5161215040783925E+02
  0.5131072032819839E+02  0.5101105068853519E+02  0.5071313120736447E+02  0.5041695166324781E+02  0.5012250189444310E+02
  0.4982977179855571E+02  0.4953875133219193E+02  0.4924943051061453E+02  0.4896179940739999E+02  0.4867584815409800E+02
  0.4839156693989292E+02  0.4810894601126708E+02  0.4782797567166634E+02  0.4754864628116719E+02  0.4727094825614613E+02
  0.4699487206895076E+02  0.4672040824757308E+02  0.4644754737532422E+02  0.4617628009051177E+02  0.4590659708611815E+02
  0.4563848910948155E+02  0.4537194696197837E+02  0.4510696149870784E+02  0.4484352362817788E+02  0.4458162431199351E+02
  0.4432125456454654E+02  0.4406240545270746E+02  0.4380506809551877E+02  0.4354923366389044E+02  0.4329489338029685E+02
  0.4304203851847569E+02  0.4279066040312865E+02  0.4254075040962370E+02  0.4229229996369911E+02  0.4204530054116936E+02
  0.4179974366763277E+02  0.4155562091818057E+02  0.4131292391710793E+02  0.4107164433762660E+02  0.4083177390157921E+02
  0.4059330437915521E+02  0.4035622758860869E+02  0.4012053539597741E+02  0.3988621971480389E+02  0.3965327250585789E+02
  0.3942168577686072E+02  0.3919145158221083E+02  0.3896256202271144E+02  0.3873500924529929E+02  0.3850878544277531E+02
  0.3828388285353682E+02  0.3806029376131116E+02  0.3783801049489093E+02  0.3761702542787082E+02  0.3739733097838604E+02
  0.3717891960885204E+02  0.3696178382570600E+02  0.3674591617914966E+02  0.3653130926289385E+02  0.3631795571390420E+02
  0.3610584821214871E+02  0.3589497948034645E+02  0.3568534228371795E+02  0.3547692942973695E+02  0.3526973376788375E+02
  0.3506374818939970E+02  0.3485896562704336E+02  0.3465537905484811E+02  0.3445298148788099E+02  0.3425176598200311E+02
  0.3405172563363143E+02  0.3385285357950181E+02  0.3365514299643355E+02  0.3345858710109542E+02  0.3326317914977272E+02
  0.3306891243813613E+02  0.3287578030101147E+02  0.3268377611215124E+02  0.3249289328400707E+02  0.3230312526750388E+02
  0.3211446555181504E+02  0.3192690766413908E+02  0.3174044516947761E+02  0.3155507167041451E+02  0.3137078080689643E+02
  0.3118756625601458E+02  0.3100542173178779E+02  0.3082434098494700E+02  0.3064431780272054E+02  0.3046534600862124E+02
  0.3028741946223440E+02  0.3011053205900714E+02  0.2993467773003894E+02  0.2975985044187349E+02  0.2958604419629161E+02
  0.2941325303010544E+02  0.2924147101495392E+02  0.2907069225709936E+02  0.2890091089722520E+02  0.2873212111023502E+02
  0.2856431710505266E+02  0.2839749312442357E+02  0.2823164344471721E+02  0.2806676237573078E+02  0.2790284426049384E+02
  0.2773988347507440E+02  0.2757787442838584E+02  0.2741681156199515E+02  0.2725668934993217E+02  0.2709750229850003E+02
  0.2693924494608662E+02  0.2678191186297737E+02  0.2662549765116872E+02  0.2646999694418306E+02  0.2631540440688459E+02
  0.2616171473529624E+02  0.2600892265641776E+02  0.2585702292804475E+02  0.2570601033858883E+02  0.2555587970689879E+02
  0.2540662588208291E+02  0.2525824374333212E+02  0.2511072819974446E+02  0.2496407419015023E+02  0.2481827668293855E+02
  0.2467333067588454E+02  0.2452923119597780E+02  0.2438597329925180E+02  0.2424355207061420E+02  0.2410196262367820E+02
  0.2396120010059501E+02  0.2382125967188705E+02  0.2368213653628229E+02  0.2354382592054957E+02  0.2340632307933480E+02
  0.2326962329499811E+02  0.2313372187745207E+02  0.2299861416400073E+02  0.2286429551917961E+02  0.2273076133459674E+02
  0.2259800702877451E+02  0.2246602804699246E+02  0.2233481986113102E+02  0.2220437796951624E+02  0.2207469789676518E+02
  0.2194577519363246E+02  0.2181760543685763E+02  0.2169018422901339E+02  0.2156350719835466E+02  0.2143756999866864E+02
  0.2131236830912568E+02  0.2118789783413108E+02  0.2106415430317765E+02  0.2094113347069920E+02  0.2081883111592489E+02
  0.2069724304273445E+02  0.2057636507951414E+02  0.2045619307901371E+02  0.2033672291820402E+02  0.2021795049813567E+02
  0.2009987174379830E+02  0.1998248260398082E+02  0.1986577905113237E+02  0.1974975708122421E+02  0.1963441271361227E+02
  0.1951974199090062E+02  0.1940574097880566E+02  0.1929240576602120E+02  0.1917973246408419E+02  0.1906771720724136E+02
  0.1895635615231655E+02  0.1884564547857892E+02  0.1873558138761177E+02  0.1862616010318229E+02  0.1851737787111195E+02
  0.1840923095914777E+02  0.1830171565683418E+02  0.1819482827538578E+02  0.1808856514756072E+02  0.1798292262753498E+02
  0.1787789709077717E+02  0.1777348493392425E+02  0.1766968257465784E+02  0.1756648645158141E+02  0.1746389302409797E+02
  0.1736189877228869E+02  0.1726050019679207E+02  0.1715969381868393E+02  0.1705947617935802E+02  0.1695984384040736E+02
  0.1686079338350625E+02  0.1676232141029307E+02  0.1666442454225358E+02  0.1656709942060508E+02  0.1647034270618110E+02
  0.1637415107931694E+02  0.1627852123973569E+02  0.1618344990643499E+02  0.1608893381757455E+02  0.1599496973036416E+02
  0.1590155442095244E+02  0.1580868468431624E+02  0.1571635733415073E+02  0.1562456920275999E+02  0.1553331714094839E+02
  0.1544259801791252E+02  0.1535240872113376E+02  0.1526274615627155E+02  0.1517360724705716E+02  0.1508498893518816E+02
  0.1499688818022352E+02  0.1490930195947928E+02  0.1482222726792481E+02  0.1473566111807976E+02  0.1464960053991153E+02
  0.1456404258073341E+02  0.1447898430510319E+02  0.1439442279472253E+02  0.1431035514833682E+02  0.1422677848163561E+02
  0.1414368992715364E+02  0.1406108663417255E+02  0.1397896576862293E+02  0.1389732451298723E+02  0.1381616006620300E+02
  0.1373546964356679E+02  0.1365525047663867E+02  0.1357549981314719E+02  0.1349621491689497E+02  0.1341739306766481E+02
  0.1333903156112640E+02  0.1326112770874347E+02  0.1318367883768162E+02  0.1310668229071656E+02  0.1303013542614299E+02
  0.1295403561768392E+02  0.1287838025440057E+02  0.1280316674060281E+02  0.1272839249576011E+02  0.1265405495441301E+02
  0.1258015156608501E+02  0.1250667979519520E+02  0.1243363712097116E+02  0.1236102103736254E+02  0.1228882905295503E+02
  0.1221705869088490E+02  0.1214570748875406E+02  0.1207477299854550E+02  0.1200425278653933E+02  0.1193414443322932E+02
  0.1186444553323986E+02  0.1179515369524338E+02  0.1172626654187840E+02  0.1165778170966790E+02  0.1158969684893824E+02
  0.1152200962373856E+02  0.1145471771176063E+02  0.1138781880425915E+02  0.1132131060597256E+02  0.1125519083504430E+02
  0.1118945722294449E+02  0.1112410751439209E+02  0.1105913946727761E+02  0.1099455085258606E+02  0.1093033945432055E+02
  0.1086650306942623E+02  0.1080303950771474E+02  0.1073994659178902E+02  0.1067722215696864E+02  0.1061486405121547E+02
  0.1055287013505995E+02  0.1049123828152759E+02  0.1042996637606601E+02  0.1036905231647243E+02  0.1030849401282153E+02
  0.1024828938739369E+02  0.1018843637460379E+02  0.1012893292093027E+02  0.1006977698484473E+02  0.1001096653674182E+02
  0.9952499558869658E+01  0.9894374045260575E+01  0.9836588001662314E+01  0.9779139445469564E+01  0.9722026405655971E+01
  0.9665246922706499E+01  0.9608799048550217E+01  0.9552680846493420E+01  0.9496890391153206E+01  0.9441425768391436E+01
  0.9386285075248999E+01  0.9331466419880586E+01  0.9276967921489732E+01  0.9222787710264313E+01  0.9168923927312372E+01
  0.9115374724598345E+01  0.9062138264879657E+01  0.9009212721643676E+01  0.8956596279045069E+01  0.8904287131843454E+01
  0.8852283485341491E+01  0.8800583555323298E+01  0.8749185567993226E+01  0.8698087759915008E+01  0.8647288377951234E+01
  0.8596785679203226E+01  0.8546577930951193E+01  0.8496663410594822E+01  0.8447040405594143E+01  0.8397707213410801E+01
  0.8348662141449580E+01  0.8299903507000385E+01  0.8251429637180465E+01  0.8203238868877039E+01  0.8155329548690208E+01
  0.8107700032876236E+01  0.8060348687291127E+01  0.8013273887334590E+01  0.7966474017894250E+01  0.7919947473290253E+01
  0.7873692657220161E+01  0.7827707982704192E+01  0.7781991872030730E+01  0.7736542756702214E+01  0.7691359077381307E+01
  0.7646439283837392E+01  0.7601781834893366E+01  0.7557385198372761E+01  0.7513247851047159E+01  0.7469368278583929E+01
  0.7425744975494261E+01  0.7382376445081489E+01  0.7339261199389748E+01  0.7296397759152904E+01  0.7253784653743780E+01
  0.7211420421123699E+01  0.7169303607792298E+01  0.7127432768737665E+01  0.7085806467386739E+01  0.7044423275555988E+01
  0.7003281773402419E+01  0.6962380549374850E+01  0.6921718200165441E+01  0.6881293330661558E+01  0.6841104553897869E+01
  0.6801150491008764E+01  0.6761429771181001E+01  0.6721941031606672E+01  0.6682682917436433E+01  0.6643654081732995E+01
  0.6604853185424877E+01  0.6566278897260457E+01  0.6527929893762273E+01  0.6489804859181597E+01  0.6451902485453259E+01
  0.6414221472150754E+01  0.6376760526441591E+01  0.6339518363042925E+01  0.6302493704177420E+01  0.6265685279529385E+01
  0.6229091826201168E+01  0.6192712088669803E+01  0.6156544818743883E+01  0.6120588775520721E+01  0.6084842725343748E+01
  0.6049305441760138E+01  0.6013975705478710E+01  0.5978852304328058E+01  0.5943934033214911E+01  0.5909219694082786E+01
  0.5874708095870798E+01  0.5840398054472795E+01  0.5806288392696674E+01  0.5772377940223963E+01  0.5738665533569611E+01
  0.5705150016042026E+01  0.5671830237703368E+01  0.5638705055330012E+01  0.5605773332373316E+01  0.5573033938920543E+01
  0.5540485751656072E+01  0.5508127653822783E+01  0.5475958535183701E+01  0.5443977291983844E+01  0.5412182826912303E+01
  0.5380574049064530E+01  0.5349149873904850E+01  0.5317909223229190E+01  0.5286851025128025E+01  0.5255974213949528E+01
  0.5225277730262959E+01  0.5194760520822221E+01  0.5164421538529681E+01  0.5134259742400147E+01  0.5104274097525089E+01
  0.5074463575037053E+01  0.5044827152074291E+01  0.5015363811745564E+01  0.4986072543095181E+01  0.4956952341068244E+01
  0.4928002206476040E+01  0.4899221145961705E+01  0.4870608171966023E+01  0.4842162302693453E+01  0.4813882562078364E+01
  0.4785767979751418E+01  0.4757817591006188E+01  0.4730030436765951E+01  0.4702405563550679E+01  0.4674942023444187E+01
  0.4647638874061538E+01  0.4620495178516549E+01  0.4593510005389552E+01  0.4566682428695297E+01  0.4540011527851065E+01
  0.4513496387644938E+01  0.4487136098204288E+01  0.4460929754964388E+01  0.4434876458637254E+01  0.4408975315180649E+01
  0.4383225435767246E+01  0.4357625936753980E+01  0.4332175939651593E+01  0.4306874571094300E+01  0.4281720962809684E+01
  0.4256714251588724E+01  0.4231853579256004E+01  0.4207138092640095E+01  0.4182566943544106E+01  0.4158139288716376E+01
  0.4133854289821368E+01  0.4109711113410701E+01  0.4085708930894351E+01  0.4061846918512018E+01  0.4038124257304655E+01
  0.4014540133086137E+01  0.3991093736415129E+01  0.3967784262567057E+01  0.3944610911506280E+01  0.3921572887858410E+01
  0.3898669400882754E+01  0.3875899664444954E+01  0.3853262896989741E+01  0.3830758321513873E+01  0.3808385165539188E+01
  0.3786142661085844E+01  0.3764030044645667E+01  0.3742046557155676E+01  0.3720191443971748E+01  0.3698463954842405E+01
  0.3676863343882783E+01  0.3655388869548711E+01  0.3634039794610941E+01  0.3612815386129530E+01  0.3591714915428344E+01
  0.3570737658069714E+01  0.3549882893829215E+01  0.3529149906670611E+01  0.3508537984720884E+01  0.3488046420245449E+01
  0.3467674509623480E+01  0.3447421553323359E+01  0.3427286855878272E+01  0.3407269725861937E+01  0.3387369475864437E+01
  0.3367585422468214E+01  0.3347916886224162E+01  0.3328363191627872E+01  0.3308923667095970E+01  0.3289597644942621E+01
  0.3270384461356107E+01  0.3251283456375576E+01  0.3232293973867873E+01  0.3213415361504512E+01  0.3194646970738763E+01
  0.3175988156782863E+01  0.3157438278585325E+01  0.3138996698808381E+01  0.3120662783805540E+01  0.3102435903599243E+01
  0.3084315431858663E+01  0.3066300745877572E+01  0.3048391226552359E+01  0.3030586258360149E+01  0.3012885229337010E+01
  0.2995287531056293E+01  0.2977792558607069E+01  0.2960399710572676E+01  0.2943108389009361E+01  0.2925917999425035E+01
  0.2908827950758138E+01  0.2891837655356584E+01  0.2874946528956841E+01  0.2858153990663063E+01  0.2841459462926372E+01
  0.2824862371524210E+01  0.2808362145539791E+01  0.2791958217341648E+01  0.2775650022563286E+01  0.2759437000082924E+01
  0.2743318592003322E+01  0.2727294243631704E+01  0.2711363403459784E+01  0.2695525523143873E+01  0.2679780057485063E+01
  0.2664126464409521E+01  0.2648564204948858E+01  0.2633092743220592E+01  0.2617711546408679E+01  0.2602420084744149E+01
  0.2587217831485817E+01  0.2572104262901067E+01  0.2557078858246729E+01  0.2542141099750037E+01  0.2527290472589654E+01
  0.2512526464876792E+01  0.2497848567636384E+01  0.2483256274788362E+01  0.2468749083128987E+01  0.2454326492312265E+01
  0.2439988004831432E+01  0.2425733126000504E+01  0.2411561363935923E+01  0.2397472229538228E+01  0.2383465236473845E+01
  0.2369539901156908E+01  0.2355695742731166E+01  0.2341932283051949E+01  0.2328249046668195E+01  0.2314645560804546E+01
  0.2301121355343506E+01  0.2287675962807666E+01  0.2274308918341970E+01  0.2261019759696064E+01  0.2247808027206691E+01
  0.2234673263780140E+01  0.2221615014874761E+01  0.2208632828483525E+01  0.2195726255116656E+01  0.2182894847784289E+01
  0.2170138161979198E+01  0.2157455755659573E+01  0.2144847189231849E+01  0.2132312025533573E+01  0.2119849829816325E+01
  0.2107460169728692E+01  0.2095142615299276E+01  0.2082896738919756E+01  0.2070722115327979E+01  0.2058618321591117E+01
  0.2046584937088845E+01  0.2034621543496563E+01  0.2022727724768661E+01  0.2010903067121821E+01  0.1999147159018358E+01
  0.1987459591149587E+01  0.1975839956419238E+01  0.1964287849926894E+01  0.1952802868951468E+01  0.1941384612934706E+01
  0.1930032683464723E+01  0.1918746684259575E+01  0.1907526221150843E+01  0.1896370902067261E+01  0.1885280337018355E+01
  0.1874254138078120E+01  0.1863291919368714E+01  0.1852393297044171E+01  0.1841557889274151E+01  0.1830785316227687E+01
  0.1820075200056971E+01  0.1809427164881152E+01  0.1798840836770148E+01  0.1788315843728484E+01  0.1777851815679129E+01
  0.1767448384447360E+01  0.1757105183744647E+01  0.1746821849152521E+01  0.1736598018106482E+01  0.1726433329879906E+01
  0.1716327425567959E+01  0.1706279948071523E+01  0.1696290542081124E+01  0.1686358854060879E+01  0.1676484532232425E+01
  0.1666667226558882E+01  0.1656906588728788E+01  0.1647202272140062E+01  0.1637553931883954E+01  0.1627961224729000E+01
  0.1618423809104977E+01  0.1608941345086860E+01  0.1599513494378763E+01  0.1590139920297897E+01  0.1580820287758508E+01
  0.1571554263255822E+01  0.1562341514849974E+01  0.1553181712149945E+01  0.1544074526297478E+01  0.1535019629950989E+01
  0.1526016697269490E+01  0.1517065403896468E+01  0.1508165426943785E+01  0.1499316444975559E+01  0.1490518137992027E+01
  0.1481770187413407E+01  0.1473072276063745E+01  0.1464424088154756E+01  0.1455825309269643E+01  0.1447275626346905E+01
  0.1438774727664150E+01  0.1430322302821868E+01  0.1421918042727219E+01  0.1413561639577785E+01  0.1405252786845323E+01
  0.1396991179259508E+01  0.1388776512791645E+01  0.1380608484638389E+01  0.1372486793205443E+01  0.1364411138091242E+01
  0.1356381220070642E+01  0.1348396741078566E+01  0.1340457404193675E+01  0.1332562913622010E+01  0.1324712974680624E+01
  0.1316907293781215E+01  0.1309145578413749E+01  0.1301427537130071E+01  0.1293752879527522E+01  0.1286121316232540E+01
  0.1278532558884278E+01  0.1270986320118191E+01  0.1263482313549661E+01  0.1256020253757596E+01  0.1248599856268046E+01
  0.1241220837537828E+01  0.1233882914938159E+01  0.1226585806738294E+01  0.1219329232089187E+01  0.1212112911007173E+01
  0.1204936564357650E+01  0.1197799913838814E+01  0.1190702681965392E+01  0.1183644592052432E+01  0.1176625368199102E+01
  0.1169644735272548E+01  0.1162702418891782E+01  0.1155798145411628E+01  0.1148931641906702E+01  0.1142102636155469E+01
  0.1135310856624351E+01  0.1128556032451902E+01  0.1121837893433062E+01  0.1115156170003485E+01  0.1108510593223960E+01
  0.1101900894764919E+01  0.1095326806891042E+01  0.1088788062445977E+01  0.1082284394837173E+01  0.1075815538020833E+01
  0.1069381226487004E+01  0.1062981195244798E+01  0.1056615179807779E+01  0.1050282916179491E+01  0.1043984140839172E+01
  0.1037718590727637E+01  0.1031486003233363E+01  0.1025286116178767E+01  0.1019118667806709E+01  0.1012983396767212E+01
  0.1006880042104432E+01  0.1000808343243885E+01  0.9947680399799259E+00  0.9887588724635290E+00  0.9827805811903595E+00
  0.9768329069891577E+00  0.9709155910104592E+00  0.9650283747156571E+00  0.9591709998664369E+00  0.9533432085145918E+00
  0.9475447429922375E+00  0.9417753459024586E+00  0.9360347601103933E+00  0.9303227287347839E+00  0.9246389951400139E+00
  0.9189833029286543E+00  0.9133553959345473E+00  0.9077550182164368E+00  0.9021819140521922E+00  0.8966358279336329E+00
  0.8911165045619954E+00  0.8856236888440499E+00  0.8801571258889208E+00  0.8747165610056183E+00  0.8693017397013280E+00
  0.8639124076804694E+00  0.8585483108445801E+00  0.8532091952930364E+00  0.8478948073246590E+00  0.8426048934402282E+00
  0.8373392003459513E+00  0.8320974749579169E+00  0.8268794644075641E+00  0.8216849160482282E+00  0.8165135774627680E+00
  0.8113651964723506E+00  0.8062395211464075E+00  0.8011362998138180E+00  0.7960552810753574E+00  0.7909962138174541E+00
  0.7859588472273058E+00  0.7809429308093853E+00  0.7759482144033998E+00  0.7709744482037426E+00  0.7660213827804757E+00
  0.7610887691019096E+00  0.7561763585588144E+00  0.7512839029903181E+00  0.7464111547115448E+00  0.7415578665430285E+00
  0.7367237918419778E+00  0.7319086845354190E+00  0.7271122991552857E+00  0.7223343908754954E+00  0.7175747155510740E+00
  0.7128330297593750E+00  0.7081090908434450E+00  0.7034026569575875E+00  0.6987134871151824E+00  0.6940413412388021E+00
  0.6893859802126832E+00  0.6847471659375979E+00  0.6801246613881775E+00  0.6755182306727378E+00  0.6709276390956412E+00
  0.6663526532222614E+00  0.6617930409465786E+00  0.6572485715614492E+00  0.6527190158315986E+00  0.6482041460693704E+00
  0.6437037362132653E+00  0.6392175619093087E+00  0.6347454005952773E+00  0.6302870315878032E+00  0.6258422361723952E+00
  0.6214107976963857E+00  0.6169925016648257E+00  0.6125871358393377E+00  0.6081944903399429E+00  0.6038143577498489E+00
  0.5994465332232219E+00  0.5950908145959091E+00  0.5907470024991219E+00  0.5864149004760463E+00  0.5820943151013641E+00
  0.5777850561036475E+00  0.5734869364905913E+00  0.5691997726770397E+00  0.5649233846157409E+00  0.5606575959307885E+00
  0.5564022340536531E+00  0.5521571303617493E+00  0.5479221203194303E+00  0.5436970436213225E+00  0.5394817443378848E+00
  0.5352760710630818E+00  0.5310798770640274E+00  0.5268930204324759E+00  0.5227153642379960E+00  0.5185467766826671E+00
  0.5143871312571265E+00  0.5102363068977785E+00  0.5060941881449588E+00  0.5019606653018547E+00  0.4978356345939507E+00
  0.4937189983287530E+00  0.4896106650555594E+00  0.4855105497249973E+00  0.4814185738480593E+00  0.4773346656543470E+00
  0.4732587602492165E+00  0.4691907997695186E+00  0.4651307335375910E+00  0.4610785182131834E+00  0.4570341179429394E+00
  0.4529975045070906E+00  0.4489686574629764E+00  0.4449475642850050E+00  0.4409342205006596E+00  0.4369286298221457E+00
  0.4329308042732531E+00  0.4289407643110248E+00  0.4249585389417864E+00  0.4209841658311065E+00  0.4170176914072430E+00
  0.4130591709576208E+00  0.4091086687178998E+00  0.4051662579531747E+00  0.4012320210308466E+00  0.3973060494847238E+00
  0.3933884440698920E+00  0.3894793148079085E+00  0.3855787810218783E+00  0.3816869713609735E+00  0.3778040238139743E+00
  0.3739300857114031E+00  0.3700653137158646E+00  0.3662098738001798E+00  0.3623639412129583E+00  0.3585277004312385E+00
  0.3547013450998652E+00  0.3508850779572869E+00  0.3470791107474785E+00  0.3432836641177326E+00  0.3394989675020630E+00
  0.3357252589900318E+00  0.3319627851808079E+00  0.3282118010223167E+00  0.3244725696353751E+00  0.3207453621227265E+00
  0.3170304573629550E+00  0.3133281417892772E+00  0.3096387091532476E+00  0.3059624602734826E+00  0.3022997027695178E+00
  0.2986507507809814E+00  0.2950159246723016E+00  0.2913955507232099E+00  0.2877899608053580E+00  0.2841994920453967E+00
  0.2806244864749267E+00  0.2770652906677681E+00  0.2735222553650464E+00  0.2699957350886299E+00  0.2664860877435081E+00
  0.2629936742097361E+00  0.2595188579246194E+00  0.2560620044558385E+00  0.2526234810662772E+00  0.2492036562713307E+00
  0.2458028993895164E+00  0.2424215800872465E+00  0.2390600679186348E+00  0.2357187318612617E+00  0.2323979398488230E+00
  0.2290980583016274E+00  0.2258194516559053E+00  0.2225624818929347E+00  0.2193275080689734E+00  0.2161148858470116E+00
  0.2129249670313579E+00  0.2097580991060744E+00  0.2066146247782653E+00  0.2034948815272360E+00  0.2003992011604993E+00
  0.1973279093776256E+00  0.1942813253428848E+00  0.1912597612676262E+00  0.1882635220033099E+00  0.1852929046460730E+00
  0.1823481981536910E+00  0.1794296829757420E+00  0.1765376306977672E+00  0.1736723037001576E+00  0.1708339548324718E+00
  0.1680228271038228E+00  0.1652391533899499E+00  0.1624831561575175E+00  0.1597550472061467E+00  0.1570550274286179E+00
  0.1543832865896464E+00  0.1517400031235600E+00  0.1491253439511595E+00  0.1465394643159853E+00  0.1439825076401564E+00
  0.1414546053998900E+00  0.1389558770207533E+00  0.1364864297926418E+00  0.1340463588044303E+00  0.1316357468981783E+00
  0.1292546646427251E+00  0.1269031703264561E+00  0.1245813099689749E+00  0.1222891173513657E+00  0.1200266140646803E+00
  0.1177938095762533E+00  0.1155907013133934E+00  0.1134172747639686E+00  0.1112735035933665E+00  0.1091593497772702E+00
  0.1070747637496714E+00  0.1050196845655058E+00  0.1029940400772719E+00  0.1009977471249724E+00  0.9903071173870472E-01
  0.9709282935319839E-01  0.9518398503359483E-01  0.9330405371174794E-01  0.9145290043231756E-01  0.8963038060792446E-01
  0.8783634028262990E-01  0.8607061640300283E-01  0.8433303709604620E-01  0.8262342195324913E-01  0.8094158232004617E-01
  0.7928732158997012E-01  0.7766043550279815E-01  0.7606071244600411E-01  0.7448793375883993E-01  0.7294187403839424E-01
  0.7142230144698590E-01  0.6992897802027510E-01  0.6846165997548859E-01  0.6702009801918729E-01  0.6560403765401578E-01
  0.6421321948390561E-01  0.6284737951722016E-01  0.6150624946736229E-01  0.6018955705038261E-01  0.5889702627915708E-01
  0.5762837775372492E-01  0.5638332894740529E-01  0.5516159448833679E-01  0.5396288643610524E-01  0.5278691455316007E-01
  0.5163338657073022E-01  0.5050200844899141E-01  0.4939248463124618E-01  0.4830451829191332E-01  0.4723781157813715E-01
  0.4619206584485779E-01  0.4516698188320000E-01  0.4416226014205991E-01  0.4317760094279340E-01  0.4221270468692581E-01
  0.4126727205682013E-01  0.4034100420926606E-01  0.3943360296196149E-01  0.3854477097287878E-01  0.3767421191252431E-01
  0.3682163062911047E-01  0.3598673330667903E-01  0.3516922761622220E-01  0.3436882285986417E-01  0.3358523010817412E-01
  0.3281816233069496E-01  0.3206733451978001E-01  0.3133246380783929E-01  0.3061326957810522E-01  0.2990947356903632E-01
  0.2922079997248206E-01  0.2854697552573894E-01  0.2788772959763483E-01  0.2724279426878007E-01  0.2661190440613214E-01
  0.2599479773201896E-01  0.2539121488777493E-01  0.2480089949214119E-01  0.2422359819458524E-01  0.2365906072369794E-01
  0.2310703993082447E-01  0.2256729182908767E-01  0.2203957562796233E-01  0.2152365376355847E-01  0.2101929192476988E-01
  0.2052625907544643E-01  0.2004432747274378E-01  0.1957327268180490E-01  0.1911287358692486E-01  0.1866291239934992E-01
  0.1822317466185656E-01  0.1779344925025852E-01  0.1737352837198159E-01  0.1696320756184862E-01  0.1656228567521015E-01
  0.1617056487855534E-01  0.1578785063773433E-01  0.1541395170391906E-01  0.1504868009742819E-01  0.1469185108953576E-01
  0.1434328318238261E-01  0.1400279808710494E-01  0.1367022070028927E-01  0.1334537907886372E-01  0.1302810441352756E-01
  0.1271823100082083E-01  0.1241559621393063E-01  0.1212004047232767E-01  0.1183140721032394E-01  0.1154954284463791E-01
  0.1127429674105131E-01  0.1100552118023747E-01  0.1074307132283888E-01  0.1048680517386727E-01  0.1023658354649780E-01
  0.9992270025324846E-02  0.9753730929143981E-02  0.9520835273322620E-02  0.9293454731817993E-02  0.9071463598898880E-02
  0.8854738750624647E-02  0.8643159606132588E-02  0.8436608088782169E-02  0.8234968587201231E-02  0.8038127916279100E-02
  0.7845975278146095E-02  0.7658402223179731E-02  0.7475302611073446E-02  0.7296572572002740E-02  0.7122110467921275E-02
  0.6951816854017511E-02  0.6785594440360268E-02  0.6623348053760608E-02  0.6464984599874566E-02  0.6310413025570455E-02
  0.6159544281582488E-02  0.6012291285470638E-02  0.5868568884905919E-02  0.5728293821298090E-02  0.5591384693781620E-02
  0.5457761923574779E-02  0.5327347718725142E-02  0.5200066039253474E-02  0.5075842562707326E-02  0.4954604650134009E-02
  0.4836281312482185E-02  0.4720803177439450E-02  0.4608102456713678E-02  0.4498112913763393E-02  0.4390769831983109E-02
  0.4286009983347733E-02  0.4183771597519774E-02  0.4083994331422542E-02  0.3986619239281337E-02  0.3891588743134737E-02
  0.3798846603816510E-02  0.3708337892409238E-02  0.3620008962169215E-02  0.3533807420922317E-02  0.3449682103929799E-02
  0.3367583047222485E-02  0.3287461461401749E-02  0.3209269705904909E-02  0.3132961263732371E-02  0.3058490716633877E-02
  0.2985813720750402E-02  0.2914886982708356E-02  0.2845668236162158E-02  0.2778116218781392E-02  0.2712190649678138E-02
  0.2647852207270088E-02  0.2585062507574835E-02  0.2523784082930586E-02  0.2463980361138274E-02  0.2405615645020007E-02
  0.2348655092388699E-02  0.2293064696423459E-02  0.2238811266445452E-02  0.2185862409088559E-02  0.2134186509859445E-02
  0.2083752715081281E-02  0.2034530914215424E-02  0.1986491722555422E-02  0.1939606464287407E-02  0.1893847155911296E-02
  0.1849186490016768E-02  0.1805597819408444E-02  0.1763055141574162E-02  0.1721533083490808E-02  0.1681006886761720E-02
  0.1641452393079956E-02  0.1602846030011620E-02  0.1565164797093535E-02  0.1528386252239577E-02  0.1492488498449914E-02
  0.1457450170817609E-02  0.1423250423826975E-02  0.1389868918938121E-02  0.1357285812452223E-02  0.1325481743652081E-02
  0.1294437823212562E-02  0.1264135621875662E-02  0.1234557159384828E-02  0.1205684893673474E-02  0.1177501710302425E-02
  0.1149990912141353E-02  0.1123136209289049E-02  0.1096921709227741E-02  0.1071331907206514E-02  0.1046351676849087E-02
  0.1021966260981143E-02  0.9981612626726651E-03  0.9749226364906321E-03  0.9522366799575845E-03  0.9300900252116319E-03
  0.9084696308635271E-03  0.8873627740465594E-03  0.8667570426549643E-03  0.8466403277668370E-03  0.8270008162473442E-03
  0.8078269835283395E-03  0.7891075865604067E-03  0.7708316569334863E-03  0.7529884941623163E-03  0.7355676591329567E-03
  0.7185589677067743E-03  0.7019524844782921E-03  0.6857385166834365E-03  0.6699076082547102E-03  0.6544505340199657E-03
  0.6393582940414131E-03  0.6246221080917170E-03  0.6102334102639358E-03  0.5961838437122542E-03  0.5824652555204174E-03
  0.5690696916949445E-03  0.5559893922801659E-03  0.5432167865922423E-03  0.5307444885693776E-03  0.5185652922354761E-03
  0.5066721672745931E-03  0.4950582547135116E-03  0.4837168627099506E-03  0.4726414624438293E-03  0.4618256841091886E-03
  0.4512633130043288E-03  0.4409482857178715E-03  0.4308746864083679E-03  0.4210367431753051E-03  0.4114288245192564E-03
  0.4020454358890523E-03  0.3928812163138682E-03  0.3839309351181944E-03  0.3751894887176767E-03  0.3666518974938738E-03
  0.3583133027460221E-03  0.3501689637179336E-03  0.3422142546982255E-03  0.3344446621920544E-03  0.3268557821626686E-03
  0.3194433173410343E-03  0.3122030746018988E-03  0.3051309624046600E-03  0.2982229882974564E-03  0.2914752564829417E-03
  0.2848839654442116E-03  0.2784454056294343E-03  0.2721559571937258E-03  0.2660120877968686E-03  0.2600103504555161E-03
  0.2541473814485041E-03  0.2484198982740112E-03  0.2428246976572547E-03  0.2373586536074986E-03  0.2320187155231324E-03
  0.2268019063436635E-03  0.2217053207474442E-03  0.2167261233940096E-03  0.2118615472099235E-03  0.2071088917170556E-03
  0.2024655214022425E-03  0.1979288641272970E-03  0.1934964095783827E-03  0.1891657077537649E-03  0.1849343674889916E-03
  0.1808000550185747E-03  0.1767604925732672E-03  0.1728134570120533E-03  0.1689567784879815E-03  0.1651883391470134E-03
  0.1615060718590578E-03  0.1579079589803928E-03  0.1543920311466949E-03  0.1509563660959222E-03  0.1475990875202871E-03
  0.1443183639466250E-03  0.1411124076444282E-03  0.1379794735608694E-03  0.1349178582821355E-03  0.1319258990204224E-03
  0.1290019726259494E-03  0.1261444946233709E-03  0.1233519182719761E-03  0.1206227336490857E-03  0.1179554667560706E-03
  0.1153486786464211E-03  0.1128009645753268E-03  0.1103109531702260E-03  0.1078773056218019E-03  0.1054987148949192E-03
  0.1031739049590022E-03  0.1009016300373725E-03  0.9868067387506749E-04  0.9650984902469024E-04  0.9438799614983180E-04
  0.9231398334563182E-04  0.9028670547605614E-04  0.8830508352746045E-04  0.8636806397805306E-04  0.8447461818284643E-04
  0.8262374177372087E-04  0.8081445407421664E-04  0.7904579752869585E-04  0.7731683714551002E-04  0.7562665995382929E-04
  0.7397437447379089E-04  0.7235911019963590E-04  0.7078001709551411E-04  0.6923626510363571E-04  0.6772704366447126E-04
  0.6625156124869318E-04  0.6480904490057178E-04  0.6339873979253830E-04  0.6201990879063943E-04  0.6067183203061288E-04
  0.5935380650431780E-04  0.5806514565626710E-04  0.5680517899000771E-04  0.5557325168410539E-04  0.5436872421749867E-04
  0.5319097200398266E-04  0.5203938503560482E-04  0.5091336753474657E-04  0.4981233761467639E-04  0.4873572694836706E-04
  0.4768298044536752E-04  0.4665355593653626E-04  0.4564692386643613E-04  0.4466256699320491E-04  0.4369998009571467E-04
  0.4275866968784027E-04  0.4183815373966258E-04  0.4093796140543195E-04  0.4005763275812927E-04  0.3919671853045828E-04
  0.3835477986211165E-04  0.3753138805315718E-04  0.3672612432339049E-04  0.3593857957751082E-04  0.3516835417597214E-04
  0.3441505771137373E-04  0.3367830879025147E-04  0.3295773482013838E-04  0.3225297180176210E-04  0.3156366412625670E-04
  0.3088946437726292E-04  0.3023003313779773E-04  0.2958503880177522E-04  0.2895415739006629E-04  0.2833707237098282E-04
  0.2773347448508126E-04  0.2714306157417749E-04  0.2656553841446944E-04  0.2600061655366874E-04  0.2544801415204091E-04
  0.2490745582726101E-04  0.2437867250298755E-04  0.2386140126106862E-04  0.2335538519728683E-04  0.2286037328055958E-04
  0.2237612021550883E-04  0.2190238630831840E-04  0.2143893733579906E-04  0.2098554441758181E-04  0.2054198389136473E-04
  0.2010803719113756E-04  0.1968349072831322E-04  0.1926813577569190E-04  0.1886176835419377E-04  0.1846418912228867E-04
  0.1807520326805929E-04  0.1769462040383375E-04  0.1732225446332380E-04  0.1695792360120941E-04  0.1660145009510981E-04
  0.1625266024988204E-04  0.1591138430419248E-04  0.1557745633930433E-04  0.1525071419002904E-04  0.1493099935778742E-04
  0.1461815692573139E-04  0.1431203547587502E-04  0.1401248700818654E-04  0.1371936686159480E-04  0.1343253363686239E-04
  0.1315184912128201E-04  0.1287717821515059E-04  0.1260838885997917E-04  0.1234535196839662E-04  0.1208794135570618E-04
  0.1183603367305439E-04  0.1158950834217505E-04  0.1134824749166904E-04  0.1111213589478331E-04  0.1088106090865355E-04
  0.1065491241497466E-04  0.1043358276206514E-04  0.1021696670829165E-04  0.1000496136682157E-04  0.9797466151671152E-05
  0.9594382725018514E-05  0.9395614945751141E-05  0.9201068819218399E-05  0.9010652448159778E-05  0.8824275984781468E-05
  0.8641851583953154E-05  0.8463293357498666E-05  0.8288517329554093E-05  0.8117441392968009E-05  0.7949985266719063E-05
  0.7786070454326229E-05  0.7625620203228463E-05  0.7468559465110998E-05  0.7314814857154347E-05  0.7164314624185820E-05
  0.7016988601710902E-05  0.6872768179803960E-05  0.6731586267837813E-05  0.6593377260032237E-05  0.6458077001802055E-05
  0.6325622756885573E-05  0.6195953175235150E-05  0.6069008261651794E-05  0.5944729345145858E-05  0.5823059049007064E-05
  0.5703941261566737E-05  0.5587321107636178E-05  0.5473144920604739E-05  0.5361360215182495E-05  0.5251915660772076E-05
  0.5144761055454703E-05  0.5039847300576136E-05  0.4937126375918218E-05  0.4836551315442459E-05  0.4738076183591675E-05
  0.4641656052137386E-05  0.4547246977559070E-05  0.4454805978943781E-05  0.4364291016393188E-05  0.4275660969926435E-05
  0.4188875618867146E-05  0.4103895621703068E-05  0.4020682496407565E-05  0.3939198601211649E-05  0.3859407115816610E-05
  0.3781272023036328E-05  0.3704758090859648E-05  0.3629830854922752E-05  0.3556456601382006E-05  0.3484602350177993E-05
  0.3414235838681403E-05  0.3345325505712114E-05  0.3277840475922548E-05  0.3211750544536962E-05  0.3147026162438209E-05
  0.3083638421594050E-05  0.3021559040815036E-05  0.2960760351836118E-05  0.2901215285714701E-05  0.2842897359537687E-05
  0.2785780663430060E-05  0.2729839847858566E-05  0.2675050111223070E-05  0.2621387187729310E-05  0.2568827335536316E-05
  0.2517347325172188E-05  0.2466924428212102E-05  0.2417536406212246E-05  0.2369161499894052E-05  0.2321778418572725E-05
  0.2275366329824496E-05  0.2229904849387095E-05  0.2185374031288016E-05  0.2141754358195425E-05  0.2099026731986354E-05
  0.2057172464527457E-05  0.2016173268663200E-05  0.1976011249406838E-05  0.1936668895329424E-05  0.1898129070142402E-05
  0.1860375004469241E-05  0.1823390287801729E-05  0.1787158860636910E-05  0.1751665006790190E-05  0.1716893345880836E-05
  0.1682828825985812E-05  0.1649456716458065E-05  0.1616762600905560E-05  0.1584732370327345E-05  0.1553352216403040E-05
  0.1522608624932316E-05  0.1492488369420804E-05  0.1462978504809227E-05  0.1434066361342398E-05  0.1405739538574930E-05
  0.1377985899510501E-05  0.1350793564871682E-05  0.1324150907497332E-05  0.1298046546864589E-05  0.1272469343732766E-05
  0.1247408394906222E-05  0.1222853028113604E-05  0.1198792797000795E-05  0.1175217476234942E-05  0.1152117056717110E-05
  0.1129481740901035E-05  0.1107301938215609E-05  0.1085568260588728E-05  0.1064271518070220E-05  0.1043402714551595E-05
  0.1022953043580437E-05  0.1002913884267277E-05  0.9832767972828967E-06  0.9640335209439840E-06  0.9451759673851326E-06
  0.9266962188152991E-06  0.9085865238567356E-06  0.8908392939646071E-06  0.8734470999254153E-06  0.8564026684324929E-06
  0.8396988787368419E-06  0.8233287593715484E-06  0.8072854849482217E-06  0.7915623730237710E-06  0.7761528810359419E-06
  0.7610506033061050E-06  0.7462492681077494E-06  0.7317427347992397E-06  0.7175249910193520E-06  0.7035901499442412E-06
  0.6899324476044067E-06  0.6765462402603513E-06  0.6634260018356020E-06  0.6505663214058171E-06  0.6379619007427279E-06
  0.6256075519116755E-06  0.6134981949215636E-06  0.6016288554260593E-06  0.5899946624748689E-06  0.5785908463140106E-06
  0.5674127362339737E-06  0.5564557584646896E-06  0.5457154341162975E-06  0.5351873771646514E-06  0.5248672924806211E-06
  0.5147509739021545E-06  0.5048343023482016E-06  0.4951132439735551E-06  0.4855838483636823E-06  0.4762422467686849E-06
  0.4670846503755103E-06  0.4581073486175634E-06  0.4493067075208986E-06  0.4406791680861636E-06  0.4322212447055423E-06
  0.4239295236138765E-06  0.4158006613732425E-06  0.4078313833902393E-06  0.4000184824652505E-06  0.3923588173729954E-06
  0.3848493114736650E-06  0.3774869513539632E-06  0.3702687854974307E-06  0.3631919229833426E-06  0.3562535322136245E-06
  0.3494508396671157E-06  0.3427811286805841E-06  0.3362417382559584E-06  0.3298300618931109E-06  0.3235435464477278E-06
  0.3173796910136243E-06  0.3113360458290551E-06  0.3054102112064211E-06  0.2995998364848975E-06  0.2939026190054908E-06
  0.2883163031079977E-06  0.2828386791494174E-06  0.2774675825433280E-06  0.2722008928197989E-06  0.2670365327053379E-06
  0.2619724672225033E-06  0.2570067028086892E-06  0.2521372864537004E-06  0.2473623048557133E-06  0.2426798835951833E-06
  0.2380881863263617E-06  0.2335854139859815E-06  0.2291698040187963E-06  0.2248396296195564E-06  0.2205931989910866E-06
  0.2164288546181318E-06  0.2123449725565872E-06  0.2083399617378275E-06  0.2044122632877570E-06  0.2005603498603143E-06
  0.1967827249850723E-06  0.1930779224286503E-06  0.1894445055696484E-06  0.1858810667867865E-06  0.1823862268599829E-06
  0.1789586343840770E-06  0.1755969651949472E-06  0.1722999218077202E-06  0.1690662328668502E-06  0.1658946526077800E-06
  0.1627839603299480E-06  0.1597329598809065E-06  0.1567404791512834E-06  0.1538053695803920E-06  0.1509265056722175E-06
  0.1481027845215991E-06  0.1453331253503552E-06  0.1426164690531500E-06  0.1399517777529085E-06  0.1373380343655375E-06
  0.1347742421737973E-06  0.1322594244100862E-06  0.1297926238479827E-06  0.1273729024023314E-06  0.1249993407376974E-06
  0.1226710378850267E-06  0.1203871108663018E-06  0.1181466943270655E-06  0.1159489401765978E-06  0.1137930172356269E-06
  0.1116781108913772E-06  0.1096034227598267E-06  0.1075681703549922E-06  0.1055715867651205E-06  0.1036129203356170E-06
  0.1016914343585739E-06  0.9980640676876991E-07  0.9795712984598034E-07  0.9614290992348804E-07  0.9436306710264210E-07
  0.9261693497335441E-07  0.9090386034039210E-07  0.8922320295535115E-07  0.8757433525419406E-07  0.8595664210022064E-07
  0.8436952053237377E-07  0.8281237951874998E-07  0.8128463971521903E-07  0.7978573322903557E-07  0.7831510338733674E-07
  0.7687220451043622E-07  0.7545650168978635E-07  0.7406747057054238E-07  0.7270459713860242E-07  0.7136737751205186E-07
  0.7005531773689931E-07  0.6876793358703247E-07  0.6750475036828911E-07  0.6626530272656438E-07  0.6504913445987273E-07
  0.6385579833426895E-07  0.6268485590356369E-07  0.6153587733273652E-07  0.6040844122498420E-07  0.5930213445231646E-07
  0.5821655198962926E-07  0.5715129675218698E-07  0.5610597943643027E-07  0.5508021836405491E-07  0.5407363932927792E-07
  0.5308587544923784E-07  0.5211656701745352E-07  0.5116536136028057E-07  0.5023191269630910E-07  0.4931588199862599E-07
  0.4841693685990174E-07  0.4753475136022398E-07  0.4666900593763515E-07  0.4581938726130666E-07  0.4498558810730386E-07
  0.4416730723688040E-07  0.4336424927725271E-07  0.4257612460480506E-07  0.4180264923066811E-07  0.4104354468863002E-07
  0.4029853792532266E-07  0.3956736119264405E-07  0.3884975194236439E-07  0.3814545272287208E-07  0.3745421107801890E-07
  0.3677577944801323E-07  0.3610991507232793E-07  0.3545637989457210E-07  0.3481494046929431E-07  0.3418536787067088E-07
  0.3356743760304252E-07  0.3296092951326380E-07  0.3236562770482273E-07  0.3178132045369803E-07  0.3120780012591540E-07
  0.3064486309677136E-07  0.3009230967168467E-07  0.2954994400864824E-07  0.2901757404224217E-07  0.2849501140918133E-07
  0.2798207137536205E-07  0.2747857276437754E-07  0.2698433788747511E-07  0.2649919247491988E-07  0.2602296560874212E-07
  0.2555548965683395E-07  0.2509660020837336E-07  0.2464613601054333E-07  0.2420393890652202E-07  0.2376985377471898E-07
  0.2334372846922782E-07  0.2292541376147581E-07  0.2251476328304010E-07  0.2211163346961233E-07  0.2171588350608326E-07
  0.2132737527272758E-07  0.2094597329246562E-07  0.2057154467917838E-07  0.2020395908705814E-07  0.1984308866096818E-07
  0.1948880798779651E-07  0.1914099404877859E-07  0.1879952617277305E-07  0.1846428599046840E-07  0.1813515738950226E-07
  0.1781202647047670E-07  0.1749478150384728E-07  0.1718331288767275E-07  0.1687751310620339E-07  0.1657727668929498E-07
  0.1628250017262860E-07  0.1599308205872088E-07  0.1570892277871014E-07  0.1542992465489934E-07  0.1515599186404456E-07
  0.1488703040136978E-07  0.1462294804529707E-07  0.1436365432287453E-07  0.1410906047588984E-07  0.1385907942765488E-07
  0.1361362575044724E-07  0.1337261563359716E-07  0.1313596685220419E-07  0.1290359873647369E-07  0.1267543214165780E-07
  0.1245138941859169E-07  0.1223139438481025E-07  0.1201537229623513E-07  0.1180324981942095E-07  0.1159495500434750E-07
  0.1139041725774947E-07  0.1118956731697038E-07  0.1099233722433249E-07  0.1079866030201026E-07  0.1060847112739846E-07
  0.1042170550896520E-07  0.1023830046257852E-07  0.1005819418829945E-07  0.9881326047629484E-08  0.9707636541205999E-08
  0.9537067286934465E-08  0.9369560998549912E-08  0.9205061464598586E-08  0.9043513527831873E-08  0.8884863065003448E-08
  0.8729056967062037E-08  0.8576043119732316E-08  0.8425770384475008E-08  0.8278188579820041E-08  0.8133248463063918E-08
  0.4779388212383640E+03  0.4779388212383640E+03  0.4779388212383640E+03  0.4779388212383640E+03  0.4779388212383640E+03
  0.4779388212383640E+03  0.4779388212383640E+03  0.4779388212383640E+03  0.4779388212383640E+03  0.4779388212383640E+03
  0.4779388212383640E+03  0.4779388212383640E+03  0.4779388212383640E+03  0.4779388212383640E+03  0.4779388212383640E+03
  0.4779388212383640E+03  0.4779388212383640E+03  0.4779388212383640E+03  0.4779388212383640E+03  0.4779388212383640E+03
  0.4779388212383640E+03  0.4779388212383640E+03  0.4779388212383640E+03  0.4779388212383640E+03  0.4779388212383640E+03
  0.4779388212383640E+03  0.4779388212383640E+03  0.4779388212383640E+03  0.4779388212383640E+03  0.4779388212383640E+03
  0.4779388212383640E+03  0.4779388212383640E+03  0.4779388212383640E+03  0.4779388212383640E+03  0.4779388212383640E+03
  0.4779388212383640E+03  0.4779388212383640E+03  0.4779388212383640E+03  0.4779388212383640E+03  0.4779388212383640E+03
  0.4779388212383640E+03  0.4779388212383640E+03  0.4779388212383640E+03  0.4779388212383640E+03  0.4779388212383640E+03
  0.4779388212383640E+03  0.4779388212383640E+03  0.4779388212383640E+03  0.4779388212383640E+03  0.4779388212383640E+03
  0.4779388212383640E+03  0.4779388212383640E+03  0.4779388212383640E+03  0.4779388212383640E+03  0.4779388212383640E+03
  0.4779388212383640E+03  0.4779388212383640E+03  0.4779388212383640E+03  0.4779388212383640E+03  0.4779388212383640E+03
  0.4779388212383640E+03  0.4779388212383640E+03  0.4779388212383640E+03  0.4779388212383640E+03  0.4779388212383640E+03
  0.4779388212383640E+03  0.4779388212383640E+03  0.4779388212383640E+03  0.4779388212383640E+03  0.4779388212383640E+03
  0.4779388212383640E+03  0.4779388212383640E+03  0.4779388212383640E+03  0.4779388212383640E+03  0.4779388212383640E+03
  0.4779388212383640E+03  0.4779388212383640E+03  0.4779388212383640E+03  0.4779388212383640E+03  0.4779388212383640E+03
  0.4779388212383640E+03  0.4779388212383640E+03  0.4779388212383640E+03  0.4779388212383640E+03  0.4779388212383640E+03
  0.4779388212383640E+03  0.4779388212383640E+03  0.4779388212383640E+03  0.4779388212383640E+03  0.4779388212383640E+03
  0.4779388212383640E+03  0.4779388212383640E+03  0.4779388212383640E+03  0.4779388212383640E+03  0.4779388212383640E+03
  0.4779388212383640E+03  0.4779388212383640E+03  0.4779388212383640E+03  0.4779388212383640E+03  0.4779388212383640E+03
  0.4779388212383640E+03  0.4779388212383640E+03  0.4779388212383640E+03  0.4779388212383640E+03  0.4779388212383640E+03
  0.4779388212383640E+03  0.4779388212383640E+03  0.4779388212383640E+03  0.4779388212383640E+03  0.4779388212383640E+03
