  DATE: 2018-03-30 CONTRIBUTOR: Xiaowang Zhou xzhou@sandia.gov and Lucas Hale lucas.hale@nist.gov CITATION: X. W. Zhou, R. A. Johnson, H. N. G. Wadley, Phys. Rev. B, 69, 144113(2004)
  Generated from Zhou04_create_v2.f
  Fixes precision issues with older version
    2 Ta Cu                   
 2000  0.6475076726954990E-01 2000  0.3199268520872213E-02  0.6395337773223553E+01
   73     180.95         4.0448    fcc     
  0.0000000000000000E+00 -0.3012247550063307E-01 -0.6012552971915852E-01 -0.9000840920408804E-01 -0.1197713605039330E+00
 -0.1494146301672052E+00 -0.1789384647424197E+00 -0.2083431107780847E+00 -0.2376288148227146E+00 -0.2667958234248204E+00
 -0.2958443831329154E+00 -0.3247747404955104E+00 -0.3535871420611176E+00 -0.3822818343782477E+00 -0.4108590639954151E+00
 -0.4393190774611320E+00 -0.4676621213239094E+00 -0.4958884421322587E+00 -0.5239982864346935E+00 -0.5519919007797252E+00
 -0.5798695317158646E+00 -0.6076314257916260E+00 -0.6352778295555184E+00 -0.6628089895560558E+00 -0.6902251523417524E+00
 -0.7175265644611173E+00 -0.7447134724626623E+00 -0.7717861228949010E+00 -0.7987447623063457E+00 -0.8255896372455065E+00
 -0.8523209942608960E+00 -0.8789390799010279E+00 -0.9054441407144131E+00 -0.9318364232495635E+00 -0.9581161740549922E+00
 -0.9842836396792096E+00 -0.1010339066670729E+01 -0.1036282701578062E+01 -0.1062114790949721E+01 -0.1087835581334215E+01
 -0.1113445319280061E+01 -0.1138944251335769E+01 -0.1164332624049849E+01 -0.1189610683970818E+01 -0.1214778677647184E+01
 -0.1239836851627459E+01 -0.1264785452460155E+01 -0.1289624726693787E+01 -0.1314354920876864E+01 -0.1338976281557900E+01
 -0.1363489055285407E+01 -0.1387893488607895E+01 -0.1412189828073878E+01 -0.1436378320231868E+01 -0.1460459211630375E+01
 -0.1484432748817914E+01 -0.1508299178342995E+01 -0.1532058746754129E+01 -0.1555711700599831E+01 -0.1579258286428612E+01
 -0.1602698750788984E+01 -0.1626033340229458E+01 -0.1649262301298548E+01 -0.1672385880544762E+01 -0.1695404324516617E+01
 -0.1718317879762623E+01 -0.1741126792831293E+01 -0.1763831310271136E+01 -0.1786431678630668E+01 -0.1808928144458398E+01
 -0.1831320954302839E+01 -0.1853610354712505E+01 -0.1875796592235905E+01 -0.1897879913421553E+01 -0.1919860564817960E+01
 -0.1941738792973638E+01 -0.1963514844437100E+01 -0.1985188965756858E+01 -0.2006761403481423E+01 -0.2028232404159308E+01
 -0.2049602214339023E+01 -0.2070871080569085E+01 -0.2092039249398001E+01 -0.2113106967374285E+01 -0.2134074481046449E+01
 -0.2154942036963006E+01 -0.2175709881672466E+01 -0.2196378261723343E+01 -0.2216947423664147E+01 -0.2237417614043391E+01
 -0.2257789079409586E+01 -0.2278062066311248E+01 -0.2298236821296885E+01 -0.2318313590915011E+01 -0.2338292621714138E+01
 -0.2358174160242775E+01 -0.2377958453049438E+01 -0.2397645746682638E+01 -0.2417236287690886E+01 -0.2436730322622695E+01
 -0.2456128098026577E+01 -0.2475429860451043E+01 -0.2494635856444607E+01 -0.2513746332555779E+01 -0.2532761535333071E+01
 -0.2551681711324997E+01 -0.2570507107080069E+01 -0.2589237969146796E+01 -0.2607874544073693E+01 -0.2626417078409271E+01
 -0.2644865818702042E+01 -0.2663221011500520E+01 -0.2681482903353213E+01 -0.2699651740808636E+01 -0.2717727770415300E+01
 -0.2735711238721719E+01 -0.2753602392276403E+01 -0.2771401477627863E+01 -0.2789108741324615E+01 -0.2806724429915168E+01
 -0.2824248789948034E+01 -0.2841682067971725E+01 -0.2859024510534756E+01 -0.2876276364185634E+01 -0.2893437875472876E+01
 -0.2910509290944991E+01 -0.2927490857150493E+01 -0.2944382820637892E+01 -0.2961185427955701E+01 -0.2977898925652432E+01
 -0.2994523560276599E+01 -0.3011059578376710E+01 -0.3027507226501282E+01 -0.3043866751198821E+01 -0.3060138399017845E+01
 -0.3076322416506863E+01 -0.3092419050214386E+01 -0.3108428546688929E+01 -0.3124351152479003E+01 -0.3140187114133118E+01
 -0.3155936678199788E+01 -0.3171600091227525E+01 -0.3187177599764841E+01 -0.3202669450360247E+01 -0.3218075889562257E+01
 -0.3233397163919382E+01 -0.3248633519980133E+01 -0.3263785204293024E+01 -0.3278852463406564E+01 -0.3293835543869269E+01
 -0.3308734692229649E+01 -0.3323550155036217E+01 -0.3338282178837483E+01 -0.3352931010181960E+01 -0.3367496895618161E+01
 -0.3381980081694598E+01 -0.3396380814959782E+01 -0.3410699341962225E+01 -0.3424935909250441E+01 -0.3439090763372938E+01
 -0.3453164150878233E+01 -0.3467156318314834E+01 -0.3481067512231256E+01 -0.3494897979176010E+01 -0.3508647965697607E+01
 -0.3522317718344560E+01 -0.3535907483665381E+01 -0.3549417508208582E+01 -0.3562848038522676E+01 -0.3576199321156174E+01
 -0.3589471602657587E+01 -0.3602665129575429E+01 -0.3615780148458211E+01 -0.3628816905854445E+01 -0.3641775648312644E+01
 -0.3654656622381319E+01 -0.3667460074608983E+01 -0.3680186251544146E+01 -0.3692835399735323E+01 -0.3705407765731024E+01
 -0.3717903596079761E+01 -0.3730323137330048E+01 -0.3742666636030395E+01 -0.3754934338729315E+01 -0.3767126491975319E+01
 -0.3779243342316922E+01 -0.3791285136302632E+01 -0.3803252120480964E+01 -0.3815144541400429E+01 -0.3826962645609537E+01
 -0.3838706679656805E+01 -0.3850376890090741E+01 -0.3861973523459858E+01 -0.3873496826312668E+01 -0.3884947045197685E+01
 -0.3896324426663418E+01 -0.3907629217258380E+01 -0.3918861663531085E+01 -0.3930022012030042E+01 -0.3941110509303765E+01
 -0.3952127401900767E+01 -0.3963072936369558E+01 -0.3973947359258649E+01 -0.3984750917116556E+01 -0.3995483856491788E+01
 -0.4006146423932857E+01 -0.4016738865988277E+01 -0.4027261429206558E+01 -0.4037714360136214E+01 -0.4048097905325757E+01
 -0.4058412311323696E+01 -0.4068657824678546E+01 -0.4078834691938818E+01 -0.4088943159653025E+01 -0.4098983474369676E+01
 -0.4108955882637289E+01 -0.4118860631004370E+01 -0.4128697966019434E+01 -0.4138468134230992E+01 -0.4148171382187559E+01
 -0.4157807956437641E+01 -0.4167378103529756E+01 -0.4176882070012413E+01 -0.4186320102434125E+01 -0.4195692447343403E+01
 -0.4204999351288762E+01 -0.4214241060818710E+01 -0.4223417822481760E+01 -0.4232529882826428E+01 -0.4241577488401220E+01
 -0.4250560885754653E+01 -0.4259480321435237E+01 -0.4268336041991484E+01 -0.4277128293971906E+01 -0.4285857323925015E+01
 -0.4294523378399324E+01 -0.4303126703943344E+01 -0.4311667547105587E+01 -0.4320146154434567E+01 -0.4328562772478793E+01
 -0.4336917647786779E+01 -0.4345211026907037E+01 -0.4353443156388078E+01 -0.4361614282778415E+01 -0.4369724652626561E+01
 -0.4377774512481026E+01 -0.4385764108890323E+01 -0.4393693688402963E+01 -0.4401563497567460E+01 -0.4409373782932325E+01
 -0.4417124791046070E+01 -0.4424816768457207E+01 -0.4432449961714247E+01 -0.4440024617365705E+01 -0.4447540981960091E+01
 -0.4454999302045916E+01 -0.4462399824171695E+01 -0.4469742794885938E+01 -0.4477028460737156E+01 -0.4484257068273865E+01
 -0.4491428864044573E+01 -0.4498544094597793E+01 -0.4505603006482040E+01 -0.4512605846245822E+01 -0.4519552860437653E+01
 -0.4526444295606044E+01 -0.4533280398299510E+01 -0.4540061415066559E+01 -0.4546787592455706E+01 -0.4553459177015462E+01
 -0.4560076415294338E+01 -0.4566639553840848E+01 -0.4573148839203503E+01 -0.4579604517930815E+01 -0.4586006836571297E+01
 -0.4592356041673460E+01 -0.4598652379785816E+01 -0.4604896097456877E+01 -0.4611087441235156E+01 -0.4617226657669166E+01
 -0.4623313993307415E+01 -0.4629349694698419E+01 -0.4635334008390688E+01 -0.4641267180932735E+01 -0.4647149458873072E+01
 -0.4652981088760211E+01 -0.4658762317142664E+01 -0.4664493390568942E+01 -0.4670174555587558E+01 -0.4675806058747024E+01
 -0.4681388146595852E+01 -0.4686921065682555E+01 -0.4692405062555643E+01 -0.4697840383763631E+01 -0.4703227275855028E+01
 -0.4708565985378346E+01 -0.4713856758882100E+01 -0.4719099842914800E+01 -0.4724295484024958E+01 -0.4729443928761088E+01
 -0.4734545423671699E+01 -0.4739600215305305E+01 -0.4744608550210418E+01 -0.4749570674935550E+01 -0.4754486836029212E+01
 -0.4759357280039917E+01 -0.4764182253516176E+01 -0.4768962003006504E+01 -0.4773696775059408E+01 -0.4778386816223405E+01
 -0.4783032373047005E+01 -0.4787633692078719E+01 -0.4792191019867062E+01 -0.4796704602960543E+01 -0.4801174687907674E+01
 -0.4805601521256970E+01 -0.4809985349556941E+01 -0.4814326419356099E+01 -0.4818624977202957E+01 -0.4822881269646026E+01
 -0.4827095543233818E+01 -0.4831268044514846E+01 -0.4835399020037622E+01 -0.4839488716350657E+01 -0.4843537380002465E+01
 -0.4847545257541556E+01 -0.4851512595516444E+01 -0.4855439640475637E+01 -0.4859326638967651E+01 -0.4863173837540999E+01
 -0.4866981482744189E+01 -0.4870749821125735E+01 -0.4874479099234150E+01 -0.4878169563617944E+01 -0.4881821460825632E+01
 -0.4885435037405723E+01 -0.4889010539906730E+01 -0.4892548214877166E+01 -0.4896048308865543E+01 -0.4899511068420371E+01
 -0.4902936740090165E+01 -0.4906325570423435E+01 -0.4909677805968694E+01 -0.4912993693274453E+01 -0.4916273478889225E+01
 -0.4919517409361521E+01 -0.4922725731239855E+01 -0.4925898691072737E+01 -0.4929036535408681E+01 -0.4932139510796197E+01
 -0.4935207863783797E+01 -0.4938241840919996E+01 -0.4941241688753302E+01 -0.4944207653832231E+01 -0.4947139982705293E+01
 -0.4950038921920999E+01 -0.4952904718027864E+01 -0.4955737617574397E+01 -0.4958537867109111E+01 -0.4961305713180519E+01
 -0.4964041402337134E+01 -0.4966745181127465E+01 -0.4969417296100025E+01 -0.4972057993803328E+01 -0.4974667520785884E+01
 -0.4977246123596206E+01 -0.4979794048782806E+01 -0.4982311542894195E+01 -0.4984798852478886E+01 -0.4987256224085392E+01
 -0.4989683904262224E+01 -0.4992082139557892E+01 -0.4994451176520912E+01 -0.4996791261699793E+01 -0.4999102641643050E+01
 -0.5001385562899191E+01 -0.5003640272016732E+01 -0.5005867015544181E+01 -0.5008066040030054E+01 -0.5010237592022862E+01
 -0.5012381918071116E+01 -0.5014499264723328E+01 -0.5016589878528011E+01 -0.5018654006033676E+01 -0.5020691893788837E+01
 -0.5022703788342003E+01 -0.5024689936241688E+01 -0.5026650584036405E+01 -0.5028585978274664E+01 -0.5030496365504978E+01
 -0.5032381992275860E+01 -0.5034243105135820E+01 -0.5036079950633371E+01 -0.5037892775317025E+01 -0.5039681825735294E+01
 -0.5041447348436691E+01 -0.5043189589969727E+01 -0.5044908796882915E+01 -0.5046605215724766E+01 -0.5048279093043791E+01
 -0.5049930675388505E+01 -0.5051560209307418E+01 -0.5053167941349042E+01 -0.5054754118061890E+01 -0.5056318985994475E+01
 -0.5057862791695305E+01 -0.5059385781712897E+01 -0.5060888202595760E+01 -0.5062370300892406E+01 -0.5063832323151349E+01
 -0.5065274515921100E+01 -0.5066697125750170E+01 -0.5068100399187073E+01 -0.5069484582780320E+01 -0.5070849923078423E+01
 -0.5072196666629894E+01 -0.5073525059983245E+01 -0.5074835349686988E+01 -0.5076127782289637E+01 -0.5077402604339702E+01
 -0.5078660062385694E+01 -0.5079900402976127E+01 -0.5081123872659513E+01 -0.5082330717984364E+01 -0.5083521185499190E+01
 -0.5084695521752506E+01 -0.5085853973292823E+01 -0.5086996786668652E+01 -0.5088124208428506E+01 -0.5089236485120897E+01
 -0.5090333863294336E+01 -0.5091416589497338E+01 -0.5092484910278412E+01 -0.5093539072186069E+01 -0.5094579321768826E+01
 -0.5095605905575191E+01 -0.5096619070153678E+01 -0.5097619062052797E+01 -0.5098606127821062E+01 -0.5099580514006984E+01
 -0.5100542467159076E+01 -0.5101492233825850E+01 -0.5102430060555816E+01 -0.5103356193897488E+01 -0.5104270811255504E+01
 -0.5105174166228966E+01 -0.5106066192029156E+01 -0.5106946879307204E+01 -0.5107816218714235E+01 -0.5108674200901379E+01
 -0.5109520816519764E+01 -0.5110356056220518E+01 -0.5111179910654771E+01 -0.5111992370473648E+01 -0.5112793426328279E+01
 -0.5113583068869792E+01 -0.5114361288749314E+01 -0.5115128076617975E+01 -0.5115883423126901E+01 -0.5116627318927222E+01
 -0.5117359754670065E+01 -0.5118080721006558E+01 -0.5118790208587829E+01 -0.5119488208065008E+01 -0.5120174710089222E+01
 -0.5120849705311598E+01 -0.5121513184383266E+01 -0.5122165137955352E+01 -0.5122805556678987E+01 -0.5123434431205295E+01
 -0.5124051752185409E+01 -0.5124657510270453E+01 -0.5125251696111558E+01 -0.5125834300359851E+01 -0.5126405313666459E+01
 -0.5126964726682513E+01 -0.5127512530059137E+01 -0.5128048714447464E+01 -0.5128573270498618E+01 -0.5129086188863729E+01
 -0.5129587460193926E+01 -0.5130077075140334E+01 -0.5130555024354084E+01 -0.5131021298486304E+01 -0.5131475888188120E+01
 -0.5131918784110662E+01 -0.5132349976905058E+01 -0.5132769457222435E+01 -0.5133177215713922E+01 -0.5133573243030647E+01
 -0.5133957529823739E+01 -0.5134330066744325E+01 -0.5134690844443533E+01 -0.5135039853572492E+01 -0.5135377084782329E+01
 -0.5135702528724172E+01 -0.5136016176049152E+01 -0.5136318017408394E+01 -0.5136608043453027E+01 -0.5136886244834179E+01
 -0.5137152612202978E+01 -0.5137407136210554E+01 -0.5137649807508033E+01 -0.5137880616746543E+01 -0.5138099554577214E+01
 -0.5138306611651172E+01 -0.5138501778619547E+01 -0.5138685046133466E+01 -0.5138856404844057E+01 -0.5139015845402449E+01
 -0.5139163358459770E+01 -0.5139298934667147E+01 -0.5139422564675709E+01 -0.5139534239136585E+01 -0.5139633948700902E+01
 -0.5139721684019787E+01 -0.5139797435744371E+01 -0.5139861194525780E+01 -0.5139912951015142E+01 -0.5139952695863586E+01
 -0.5139980419722241E+01 -0.5139996113242233E+01 -0.5139999767074691E+01 -0.5139991371870743E+01 -0.5139970918281519E+01
 -0.5139938396958145E+01 -0.5139893798551750E+01 -0.5139837113713461E+01 -0.5139768333094406E+01 -0.5139687447345716E+01
 -0.5139594447118517E+01 -0.5139489323063937E+01 -0.5139372065833103E+01 -0.5139242666077147E+01 -0.5139101114447193E+01
 -0.5138947401594371E+01 -0.5138781518169810E+01 -0.5138603454824636E+01 -0.5138413202209979E+01 -0.5138210750976966E+01
 -0.5137996091776725E+01 -0.5137769215260386E+01 -0.5137530112079075E+01 -0.5137278772883920E+01 -0.5137015188326051E+01
 -0.5136739349056595E+01 -0.5136451245726679E+01 -0.5136150868987433E+01 -0.5135838209489985E+01 -0.5135513257885463E+01
 -0.5135176004824994E+01 -0.5134826440959706E+01 -0.5134464556940729E+01 -0.5134090343419191E+01 -0.5133703791046218E+01
 -0.5133304890472940E+01 -0.5132893632350484E+01 -0.5132470007329979E+01 -0.5132034006062552E+01 -0.5131585619199333E+01
 -0.5131124837391448E+01 -0.5130651651290028E+01 -0.5130166051546198E+01 -0.5129668028811086E+01 -0.5129157573735823E+01
 -0.5128634676971536E+01 -0.5128099329169352E+01 -0.5127551520980400E+01 -0.5126991243055808E+01 -0.5126418486046703E+01
 -0.5125833240604217E+01 -0.5125235497379474E+01 -0.5124625247023602E+01 -0.5124002480187733E+01 -0.5123367187522992E+01
 -0.5122719359680508E+01 -0.5122058987311409E+01 -0.5121386061066823E+01 -0.5120700571597878E+01 -0.5120002509555703E+01
 -0.5119291865591424E+01 -0.5118568630356172E+01 -0.5117832794501075E+01 -0.5117084348677259E+01 -0.5116323283535852E+01
 -0.5115549589727983E+01 -0.5114763257904782E+01 -0.5113964278717374E+01 -0.5113152642816890E+01 -0.5112328340854455E+01
 -0.5111491363481200E+01 -0.5110641701348252E+01 -0.5109779345106737E+01 -0.5108904285407788E+01 -0.5108016512902529E+01
 -0.5107116018242090E+01 -0.5106202792077598E+01 -0.5105276825060182E+01 -0.5104338107840969E+01 -0.5103386631071089E+01
 -0.5102422385401669E+01 -0.5101446093436912E+01 -0.5100458423212555E+01 -0.5099459461004094E+01 -0.5098449231255820E+01
 -0.5097427758319484E+01 -0.5096395066454777E+01 -0.5095351179829846E+01 -0.5094296122521777E+01 -0.5093229918517091E+01
 -0.5092152591712235E+01 -0.5091064165914054E+01 -0.5089964664840288E+01 -0.5088854112120035E+01 -0.5087732531294233E+01
 -0.5086599945816132E+01 -0.5085456379051756E+01 -0.5084301854280368E+01 -0.5083136394694937E+01 -0.5081960023402590E+01
 -0.5080772763425064E+01 -0.5079574637699171E+01 -0.5078365669077232E+01 -0.5077145880327525E+01 -0.5075915294134739E+01
 -0.5074673933100395E+01 -0.5073421819743298E+01 -0.5072158976499964E+01 -0.5070885425725046E+01 -0.5069601189691769E+01
 -0.5068306290592353E+01 -0.5067000750538432E+01 -0.5065684591561470E+01 -0.5064357835613186E+01 -0.5063020504565963E+01
 -0.5061672620213250E+01 -0.5060314204269985E+01 -0.5058945278372986E+01 -0.5057565864081363E+01 -0.5056175982876913E+01
 -0.5054775656164516E+01 -0.5053364905272530E+01 -0.5051943751453184E+01 -0.5050512215882965E+01 -0.5049070319663007E+01
 -0.5047618083819470E+01 -0.5046155529303928E+01 -0.5044682676993739E+01 -0.5043199547692431E+01 -0.5041706162130063E+01
 -0.5040202540963616E+01 -0.5038688704777337E+01 -0.5037164674083129E+01 -0.5035630469320894E+01 -0.5034086110858911E+01
 -0.5032531618994190E+01 -0.5030967013952822E+01 -0.5029392315890345E+01 -0.5027807544892085E+01 -0.5026212720973518E+01
 -0.5024607864080608E+01 -0.5022992994090154E+01 -0.5021368130810136E+01 -0.5019733293980057E+01 -0.5018088503271278E+01
 -0.5016433778287356E+01 -0.5014769138564380E+01 -0.5013094603571301E+01 -0.5011410192710262E+01 -0.5009715925316931E+01
 -0.5008011820660821E+01 -0.5006297897945614E+01 -0.5004574176309490E+01 -0.5002840674825436E+01 -0.5001097412501577E+01
 -0.4999344408281474E+01 -0.4997581681044458E+01 -0.4995809249605925E+01 -0.4994027132717656E+01 -0.4992235349068117E+01
 -0.4990433917282775E+01 -0.4988622855924392E+01 -0.4986802183493333E+01 -0.4984971918427863E+01 -0.4983132079104447E+01
 -0.4981282683838047E+01 -0.4979423750882416E+01 -0.4977555298430387E+01 -0.4975677344614168E+01 -0.4973789907505636E+01
 -0.4971893005116612E+01 -0.4969986655399154E+01 -0.4968070876245843E+01 -0.4966145685490060E+01 -0.4964211100906270E+01
 -0.4962267140210295E+01 -0.4960313821059596E+01 -0.4958351161053548E+01 -0.4956379177733711E+01 -0.4954397888584106E+01
 -0.4952407311031474E+01 -0.4950407462445564E+01 -0.4948398360139375E+01 -0.4946380021369447E+01 -0.4944352463336102E+01
 -0.4942315703183723E+01 -0.4940269758001003E+01 -0.4938214644821212E+01 -0.4936150380622443E+01 -0.4934076982327884E+01
 -0.4931994466806057E+01 -0.4929902850871082E+01 -0.4927802151282919E+01 -0.4925692384747621E+01 -0.4923573567917583E+01
 -0.4921445717391795E+01 -0.4919308849716071E+01 -0.4917162981383304E+01 -0.4915008128833713E+01 -0.4912844308455067E+01
 -0.4910671536582941E+01 -0.4908489829500948E+01 -0.4906299203440970E+01 -0.4904099674583401E+01 -0.4901891259057376E+01
 -0.4899673972941008E+01 -0.4897447832261611E+01 -0.4895212852995940E+01 -0.4892969051070406E+01 -0.4890716442361323E+01
 -0.4888455042695108E+01 -0.4886184867848526E+01 -0.4883905933548905E+01 -0.4881618255474356E+01 -0.4879321849253997E+01
 -0.4877016730468168E+01 -0.4874702914648656E+01 -0.4872380417278901E+01 -0.4870049253794224E+01 -0.4867709439582026E+01
 -0.4865360989982019E+01 -0.4863003920286415E+01 -0.4860638245740160E+01 -0.4858263981541128E+01 -0.4855881142840330E+01
 -0.4853489744742128E+01 -0.4851089802304434E+01 -0.4848681330538914E+01 -0.4846264344411199E+01 -0.4843838858841079E+01
 -0.4841404888702706E+01 -0.4838962448824795E+01 -0.4836511553990822E+01 -0.4834052218939222E+01 -0.4831584458363582E+01
 -0.4829108286912842E+01 -0.4826623719191486E+01 -0.4824130769759733E+01 -0.4821629453133731E+01 -0.4819119783785752E+01
 -0.4816601776144372E+01 -0.4814075444594668E+01 -0.4811540803478404E+01 -0.4808997867094215E+01 -0.4806446649697793E+01
 -0.4803887165502077E+01 -0.4801319428677427E+01 -0.4798743453351815E+01 -0.4796159253611002E+01 -0.4793566843498717E+01
 -0.4790966237016844E+01 -0.4788357448125594E+01 -0.4785740490743676E+01 -0.4783115378748493E+01 -0.4780482125976295E+01
 -0.4777840746222372E+01 -0.4775191253241215E+01 -0.4772533660746696E+01 -0.4769867982412237E+01 -0.4767194231870975E+01
 -0.4764512422715944E+01 -0.4761822568500235E+01 -0.4759124682737165E+01 -0.4756418778900446E+01 -0.4753704870424351E+01
 -0.4750982970703875E+01 -0.4748253093094906E+01 -0.4745515250914382E+01 -0.4742769457440460E+01 -0.4740015725912668E+01
 -0.4737254069532080E+01 -0.4734484501461459E+01 -0.4731707034825431E+01 -0.4728921682710633E+01 -0.4726128458165874E+01
 -0.4723327374202294E+01 -0.4720518443793515E+01 -0.4717701679875797E+01 -0.4714877095348194E+01 -0.4712044703072704E+01
 -0.4709204515874425E+01 -0.4706356546541705E+01 -0.4703500807826289E+01 -0.4700637312443471E+01 -0.4697766073072251E+01
 -0.4694887102355468E+01 -0.4692000412899961E+01 -0.4689106017276710E+01 -0.4686203928020976E+01 -0.4683294157632464E+01
 -0.4680376718575444E+01 -0.4677451623278914E+01 -0.4674518884136731E+01 -0.4671578513507762E+01 -0.4668630523716015E+01
 -0.4665674927050787E+01 -0.4662711735766806E+01 -0.4659740962084361E+01 -0.4656762618189451E+01 -0.4653776716233911E+01
 -0.4650783268335564E+01 -0.4647782286578336E+01 -0.4644773783012416E+01 -0.4641757769654373E+01 -0.4638734258487298E+01
 -0.4635703261460934E+01 -0.4632664790491813E+01 -0.4629618857463380E+01 -0.4626565474226138E+01 -0.4623504652597759E+01
 -0.4620436404363237E+01 -0.4617360741274998E+01 -0.4614277675053040E+01 -0.4611187217385055E+01 -0.4608089379926560E+01
 -0.4604984174301025E+01 -0.4601871612099991E+01 -0.4598751704883207E+01 -0.4595624464178743E+01 -0.4592489901483123E+01
 -0.4589348028261446E+01 -0.4586198855947507E+01 -0.4583042395943921E+01 -0.4579878659622244E+01 -0.4576707658323092E+01
 -0.4573529403356268E+01 -0.4570343906000872E+01 -0.4567151177505433E+01 -0.4563951229088010E+01 -0.4560744071936329E+01
 -0.4557529717207885E+01 -0.4554308176030071E+01 -0.4551079459500285E+01 -0.4547843578686046E+01 -0.4544600544625121E+01
 -0.4541350368325621E+01 -0.4538093060766133E+01 -0.4534828632895816E+01 -0.4531557095634529E+01 -0.4528278459872936E+01
 -0.4524992736472615E+01 -0.4521699936266177E+01 -0.4518400070057368E+01 -0.4515093148621186E+01 -0.4511779182703984E+01
 -0.4508458183023587E+01 -0.4505130160269391E+01 -0.4501795125102480E+01 -0.4498453088155723E+01 -0.4495104060033892E+01
 -0.4491748051313762E+01 -0.4488385072544212E+01 -0.4485015134246344E+01 -0.4481638246913574E+01 -0.4478254421011743E+01
 -0.4474863666979219E+01 -0.4471465995226996E+01 -0.4468061416138809E+01 -0.4464649940071227E+01 -0.4461231577353747E+01
 -0.4457806338288914E+01 -0.4454374233152406E+01 -0.4450935272193140E+01 -0.4447489465633375E+01 -0.4444036823668803E+01
 -0.4440577356468655E+01 -0.4437111074175796E+01 -0.4433637986906823E+01 -0.4430158104752163E+01 -0.4426671437776169E+01
 -0.4423177996017219E+01 -0.4419677789487804E+01 -0.4416170828174637E+01 -0.4412657122038731E+01 -0.4409136681015512E+01
 -0.4405609515014898E+01 -0.4402075633921397E+01 -0.4398535047594208E+01 -0.4394987765867302E+01 -0.4391433798549519E+01
 -0.4387873155424664E+01 -0.4384305846251589E+01 -0.4380731880764300E+01 -0.4377151268672026E+01 -0.4373564019659327E+01
 -0.4369970143386174E+01 -0.4366369649488044E+01 -0.4362762547576002E+01 -0.4359148847236800E+01 -0.4355528558032953E+01
 -0.4351901689502834E+01 -0.4348268251160761E+01 -0.4344628252497079E+01 -0.4340981702978251E+01 -0.4337328612046943E+01
 -0.4333668989122110E+01 -0.4330002843599079E+01 -0.4326330184849632E+01 -0.4322651022222098E+01 -0.4318965365041430E+01
 -0.4315273222609291E+01 -0.4311574604204139E+01 -0.4307869519081302E+01 -0.4304157976473072E+01 -0.4300439985588783E+01
 -0.4296715555614882E+01 -0.4292984695715031E+01 -0.4289247415030164E+01 -0.4285503722678587E+01 -0.4281753627756053E+01
 -0.4277997139335829E+01 -0.4274234266468799E+01 -0.4270465018183522E+01 -0.4266689403486320E+01 -0.4262907431361356E+01
 -0.4259119110770710E+01 -0.4255324450654460E+01 -0.4251523459930755E+01 -0.4247716147495895E+01 -0.4243902522224405E+01
 -0.4240082592969113E+01 -0.4236256368561226E+01 -0.4232423857810405E+01 -0.4228585069504838E+01 -0.4224740012411323E+01
 -0.4220888695275328E+01 -0.4217031126821079E+01 -0.4213167315751631E+01 -0.4209297270748930E+01 -0.4205421000473903E+01
 -0.4201538513566522E+01 -0.4197649818645871E+01 -0.4193754924310234E+01 -0.4189853839137150E+01 -0.4185946571683495E+01
 -0.4182033130485551E+01 -0.4178113524059072E+01 -0.4174187760899366E+01 -0.4170255849481348E+01 -0.4166317798259627E+01
 -0.4162373615668566E+01 -0.4158423310122354E+01 -0.4154466890015074E+01 -0.4150504363720775E+01 -0.4146535739593533E+01
 -0.4142561025967529E+01 -0.4138580231157109E+01 -0.4134593363456852E+01 -0.4130600431141644E+01 -0.4126601442466737E+01
 -0.4122596405667821E+01 -0.4118585328961084E+01 -0.4114568220543286E+01 -0.4110545088591819E+01 -0.4106515941264780E+01
 -0.4102480786701018E+01 -0.4098439633020223E+01 -0.4094392488322973E+01 -0.4090339360690804E+01 -0.4086280258186277E+01
 -0.4082215188853038E+01 -0.4078144160715880E+01 -0.4074067181780809E+01 -0.4069984260035110E+01 -0.4065895403447401E+01
 -0.4061800619967702E+01 -0.4057699917527498E+01 -0.4053593304039795E+01 -0.4049480787399184E+01 -0.4045362375481909E+01
 -0.4041238076145910E+01 -0.4037107897230912E+01 -0.4032971846558452E+01 -0.4028829931931972E+01 -0.4024682161136851E+01
 -0.4020528541940486E+01 -0.4016369082092338E+01 -0.4012203789323995E+01 -0.4008032671349235E+01 -0.4003855735864077E+01
 -0.3999672990546848E+01 -0.3995484443058237E+01 -0.3991290101041346E+01 -0.3987089972121765E+01 -0.3982884063907609E+01
 -0.3978672383989594E+01 -0.3974454939941075E+01 -0.3970231739318125E+01 -0.3966002789659570E+01 -0.3961768098487057E+01
 -0.3957527673305109E+01 -0.3953281521601175E+01 -0.3949029650845699E+01 -0.3944772068492156E+01 -0.3940508781977119E+01
 -0.3936239798720321E+01 -0.3931965126124685E+01 -0.3927684771576406E+01 -0.3923398742444991E+01 -0.3919107046083313E+01
 -0.3914809689827663E+01 -0.3910506680997812E+01 -0.3906198026897060E+01 -0.3901883734812281E+01 -0.3897563812013994E+01
 -0.3893238265756393E+01 -0.3888907103277417E+01 -0.3884570331798798E+01 -0.3880227958526104E+01 -0.3875879990648805E+01
 -0.3871526435340311E+01 -0.3867167299758030E+01 -0.3862802591043424E+01 -0.3858432316322046E+01 -0.3854056482703605E+01
 -0.3849675097282006E+01 -0.3845288167135408E+01 -0.3840895699326267E+01 -0.3836497700901390E+01 -0.3832094178891988E+01
 -0.3827685140313710E+01 -0.3823270592166717E+01 -0.3818850541435708E+01 -0.3814424995089979E+01 -0.3809993960083475E+01
 -0.3805557443354830E+01 -0.3801115451827417E+01 -0.3796667992409404E+01 -0.3792215071993794E+01 -0.3787756697458474E+01
 -0.3783292875666255E+01 -0.3778823613464940E+01 -0.3774348917687352E+01 -0.3769868795151384E+01 -0.3765383252660053E+01
 -0.3760892297001540E+01 -0.3756395934949237E+01 -0.3751894173261794E+01 -0.3747387018683169E+01 -0.3742874477942667E+01
 -0.3738356557754985E+01 -0.3733833264820267E+01 -0.3729304605824136E+01 -0.3724770587437750E+01 -0.3720231216317841E+01
 -0.3715686499106763E+01 -0.3711136442432530E+01 -0.3706581052908866E+01 -0.3702020337135251E+01 -0.3697454301696957E+01
 -0.3692882953165100E+01 -0.3688306298096675E+01 -0.3683724343034608E+01 -0.3679137094507800E+01 -0.3674544559031151E+01
 -0.3669946743105628E+01 -0.3665343653218296E+01 -0.3660735295842360E+01 -0.3656121677437205E+01 -0.3651502804448447E+01
 -0.3646878683307967E+01 -0.3642249320433955E+01 -0.3637614722230955E+01 -0.3632974895089900E+01 -0.3628329845388160E+01
 -0.3623679579489579E+01 -0.3619024103744517E+01 -0.3614363424489891E+01 -0.3609697548049216E+01 -0.3605026480732644E+01
 -0.3600350228837010E+01 -0.3595668798645860E+01 -0.3590982196429506E+01 -0.3586290428445055E+01 -0.3581593500936454E+01
 -0.3576891420134525E+01 -0.3572184192257013E+01 -0.3567471823508615E+01 -0.3562754320081024E+01 -0.3558031688152971E+01
 -0.3553303933890258E+01 -0.3548571063445798E+01 -0.3543833082959658E+01 -0.3539089998559092E+01 -0.3534341816358582E+01
 -0.3529588542459875E+01 -0.3524830182952022E+01 -0.3520066743911415E+01 -0.3515298231401821E+01 -0.3510524651474430E+01
 -0.3505746010167878E+01 -0.3500962313508297E+01 -0.3496173567509344E+01 -0.3491379778172244E+01 -0.3486580951485819E+01
 -0.3481777093426530E+01 -0.3476968209958514E+01 -0.3472154307033617E+01 -0.3467335390591434E+01 -0.3462511466559340E+01
 -0.3457682540852533E+01 -0.3452848619374063E+01 -0.3448009708014867E+01 -0.3443165812653817E+01 -0.3438316939157736E+01
 -0.3433463093381451E+01 -0.3428604281167817E+01 -0.3423740508347755E+01 -0.3418871780740294E+01 -0.3413998104152584E+01
 -0.3409119484379964E+01 -0.3404235927205967E+01 -0.3399347438402365E+01 -0.3394454023729211E+01 -0.3389555688934856E+01
 -0.3384652439756001E+01 -0.3379744281917718E+01 -0.3374831221133490E+01 -0.3369913263105239E+01 -0.3364990413523366E+01
 -0.3360062678066782E+01 -0.3355130062402938E+01 -0.3350192572187863E+01 -0.3345250213066191E+01 -0.3340302990671201E+01
 -0.3335350910624843E+01 -0.3330393978537773E+01 -0.3325432200009389E+01 -0.3320465580627858E+01 -0.3315494125970151E+01
 -0.3310517841602074E+01 -0.3305536733078297E+01 -0.3300550805942397E+01 -0.3295560065726874E+01 -0.3290564517953195E+01
 -0.3285564168131820E+01 -0.3280559021762231E+01 -0.3275549084332974E+01 -0.3270534361321674E+01 -0.3265514858195080E+01
 -0.3260490580409087E+01 -0.3255461533408777E+01 -0.3250427722628436E+01 -0.3245389153491590E+01 -0.3240345831411048E+01
 -0.3235297761788909E+01 -0.3230244950016611E+01 -0.3225187401474952E+01 -0.3220125121534127E+01 -0.3215058115553748E+01
 -0.3209986388882882E+01 -0.3204909946860078E+01 -0.3199828794813396E+01 -0.3194742938060436E+01 -0.3189652381908370E+01
 -0.3184557131653967E+01 -0.3179457192583632E+01 -0.3174352569973414E+01 -0.3169243269089063E+01 -0.3164129295186038E+01
 -0.3159010653509536E+01 -0.3153887349294541E+01 -0.3148759387765824E+01 -0.3143626774137994E+01 -0.3138489513615514E+01
 -0.3133347611392739E+01 -0.3128201072653932E+01 -0.3123049902573297E+01 -0.3117894106315014E+01 -0.3112733689033259E+01
 -0.3107568655872230E+01 -0.3102399011966180E+01 -0.3097224762439442E+01 -0.3092045912406467E+01 -0.3086862466971821E+01
 -0.3081674431230251E+01 -0.3076481810266684E+01 -0.3071284609156266E+01 -0.3066082832964387E+01 -0.3060876486746706E+01
 -0.3055665575549181E+01 -0.3050450104408090E+01 -0.3045230078350065E+01 -0.3040005502392114E+01 -0.3034776381541643E+01
 -0.3029542720796493E+01 -0.3024304525144958E+01 -0.3019061799565815E+01 -0.3013814549028341E+01 -0.3008562778492358E+01
 -0.3003306492908238E+01 -0.2998045697216935E+01 -0.2992780396350027E+01 -0.2987510595229713E+01 -0.2982236298768861E+01
 -0.2976957511871022E+01 -0.2971674239430459E+01 -0.2966386486332176E+01 -0.2961094257451931E+01 -0.2955797557656276E+01
 -0.2950496391802571E+01 -0.2945190764739011E+01 -0.2939880681304660E+01 -0.2934566146329454E+01 -0.2929247164634256E+01
 -0.2923923741030846E+01 -0.2918595880321980E+01 -0.2913263587301386E+01 -0.2907926866753801E+01 -0.2902585723455001E+01
 -0.2897240162171808E+01 -0.2891890187662129E+01 -0.2886535804674974E+01 -0.2881177017950478E+01 -0.2875813832219932E+01
 -0.2870446252205794E+01 -0.2865074282621727E+01 -0.2859697928172614E+01 -0.2854317193554576E+01 -0.2848932083455014E+01
 -0.2843542602552608E+01 -0.2838148755517364E+01 -0.2832750547010617E+01 -0.2827347981685065E+01 -0.2821941064184791E+01
 -0.2816529799145282E+01 -0.2811114191193456E+01 -0.2805694244947679E+01 -0.2800269965017797E+01 -0.2794841356005143E+01
 -0.2789408422502579E+01 -0.2783971169094507E+01 -0.2778529600356884E+01 -0.2773083720857261E+01 -0.2767633535154793E+01
 -0.2762179047800269E+01 -0.2756720263336123E+01 -0.2751257186296473E+01 -0.2745789821207121E+01 -0.2740318172585592E+01
 -0.2734842244941152E+01 -0.2729362042774824E+01 -0.2723877570579415E+01 -0.2718388832839533E+01 -0.2712895834031613E+01
 -0.2707398578623938E+01 -0.2701897071076652E+01 -0.2696391315841793E+01 -0.2690881317363309E+01 -0.2685367080077073E+01
 -0.2679848608410917E+01 -0.2674325906784637E+01 -0.2668798979610033E+01 -0.2663267831290905E+01 -0.2657732466223101E+01
 -0.2652192888794517E+01 -0.2646649103385123E+01 -0.2641101114366991E+01 -0.2635548926104307E+01 -0.2629992542953393E+01
 -0.2624431969262726E+01 -0.2618867209372966E+01 -0.2613298267616965E+01 -0.2607725148319794E+01 -0.2602147855798762E+01
 -0.2596566394363436E+01 -0.2590980768315658E+01 -0.2585390981949569E+01 -0.2579797039551623E+01 -0.2574198945400616E+01
 -0.2568596703767693E+01 -0.2562990318916380E+01 -0.2557379795102595E+01 -0.2551765136574670E+01 -0.2546146347573371E+01
 -0.2540523432331916E+01 -0.2534896395075998E+01 -0.2529265240023796E+01 -0.2523629971386005E+01 -0.2517990593365844E+01
 -0.2512347110159078E+01 -0.2506699525954049E+01 -0.2501047844931674E+01 -0.2495392071265481E+01 -0.2489732209121617E+01
 -0.2484068262658874E+01 -0.2478400236028707E+01 -0.2472728133375239E+01 -0.2467051958835301E+01 -0.2461371716538435E+01
 -0.2455687410606921E+01 -0.2449999045155784E+01 -0.2444306624292824E+01 -0.2438610152118633E+01 -0.2432909632726600E+01
 -0.2427205070202954E+01 -0.2421496468626750E+01 -0.2415783832069911E+01 -0.2410067164597243E+01 -0.2404346470266438E+01
 -0.2398621753128116E+01 -0.2392893017225814E+01 -0.2387160266596027E+01 -0.2381423505268216E+01 -0.2375682737264820E+01
 -0.2369937966601290E+01 -0.2364189197286088E+01 -0.2358436433320719E+01 -0.2352679678699736E+01 -0.2346918937410766E+01
 -0.2341154213434524E+01 -0.2335385510744827E+01 -0.2329612833308624E+01 -0.2323836185085992E+01 -0.2318055570030170E+01
 -0.2312270992087571E+01 -0.2306482455197795E+01 -0.2300689963293652E+01 -0.2294893520301172E+01 -0.2289093130139630E+01
 -0.2283288796721553E+01 -0.2277480523952744E+01 -0.2271668315732298E+01 -0.2265852175952614E+01 -0.2260032108499412E+01
 -0.2254208117251754E+01 -0.2248380206082060E+01 -0.2242548378856117E+01 -0.2236712639433100E+01 -0.2230872991665593E+01
 -0.2225029439399596E+01 -0.2219181986474547E+01 -0.2213330636723337E+01 -0.2207475393972322E+01 -0.2201616262041350E+01
 -0.2195753244743756E+01 -0.2189886345886406E+01 -0.2184015569269685E+01 -0.2178140918687535E+01 -0.2172262397927452E+01
 -0.2166380010770514E+01 -0.2160493760991402E+01 -0.2154603652358391E+01 -0.2148709688633391E+01 -0.2142811873571953E+01
 -0.2136910210923278E+01 -0.2131004704430242E+01 -0.2125095357829406E+01 -0.2119182174851035E+01 -0.2113265159219107E+01
 -0.2107344314651335E+01 -0.2101419644859180E+01 -0.2095491153547858E+01 -0.2089558844416371E+01 -0.2083622721157508E+01
 -0.2077682787457863E+01 -0.2071739046997857E+01 -0.2065791503451742E+01 -0.2059840160487629E+01 -0.2053885021767484E+01
 -0.2047926090947161E+01 -0.2041963371676409E+01 -0.2035996867598882E+01 -0.2030026582352161E+01 -0.2024052519567768E+01
 -0.2018074682871176E+01 -0.2012093075881824E+01 -0.2006107702213132E+01 -0.2000118565472524E+01 -0.1994125669261422E+01
 -0.1988129017175283E+01 -0.1982128612803598E+01 -0.1976124459729913E+01 -0.1970116561531838E+01 -0.1964104921781066E+01
 -0.1958089544043384E+01 -0.1952070431878689E+01 -0.1946047588841001E+01 -0.1940021018478473E+01 -0.1933990724333414E+01
 -0.1927956709942295E+01 -0.1921918978835762E+01 -0.1915877534538658E+01 -0.1909832380570023E+01 -0.1903783520443127E+01
 -0.1897730957665465E+01 -0.1891674695738781E+01 -0.1885614738159074E+01 -0.1879551088416622E+01 -0.1873483749995986E+01
 -0.1867412726376025E+01 -0.1861338021029918E+01 -0.1855259637425162E+01 -0.1849177579023596E+01 -0.1843091849281417E+01
 -0.1837002451649179E+01 -0.1830909389571823E+01 -0.1824812666488679E+01 -0.1818712285833477E+01 -0.1812608251034377E+01
 -0.1806500565513955E+01 -0.1800389232689245E+01 -0.1794274255971730E+01 -0.1788155638767369E+01 -0.1782033384476593E+01
 -0.1775907496494334E+01 -0.1769777978210037E+01 -0.1763644833007660E+01 -0.1757508064265699E+01 -0.1751367675357195E+01
 -0.1745223669649743E+01 -0.1739076050505521E+01 -0.1732924821281272E+01 -0.1726769985328358E+01 -0.1720611545992726E+01
 -0.1714449506614961E+01 -0.1708283870530278E+01 -0.1702114641068527E+01 -0.1695941821554227E+01 -0.1689765415306567E+01
 -0.1683585425639412E+01 -0.1677401855861326E+01 -0.1671214709275574E+01 -0.1665023989180148E+01 -0.1658829698867762E+01
 -0.1652631841625883E+01 -0.1646430420736720E+01 -0.1640225439477262E+01 -0.1634016901119266E+01 -0.1627804808929280E+01
 -0.1621589166168665E+01 -0.1615369976093582E+01 -0.1609147241955034E+01 -0.1602920966998844E+01 -0.1596691154465693E+01
 -0.1590457807591129E+01 -0.1584220929605560E+01 -0.1577980523734290E+01 -0.1571736593197510E+01 -0.1565489141210325E+01
 -0.1559238170982754E+01 -0.1552983685719744E+01 -0.1546725688621197E+01 -0.1540464182881951E+01 -0.1534199171691824E+01
 -0.1527930658235598E+01 -0.1521658645693046E+01 -0.1515383137238943E+01 -0.1509104136043067E+01 -0.1502821645270229E+01
 -0.1496535668080253E+01 -0.1490246207628027E+01 -0.1483953267063477E+01 -0.1477656849531603E+01 -0.1471356958172479E+01
 -0.1465053596121268E+01 -0.1458746766508227E+01 -0.1452436472458729E+01 -0.1446122717093262E+01 -0.1439805503527445E+01
 -0.1433484834872041E+01 -0.1427160714232972E+01 -0.1420833144711307E+01 -0.1414502129403308E+01 -0.1408167671400410E+01
 -0.1401829773789245E+01 -0.1395488439651659E+01 -0.1389143672064706E+01 -0.1382795474100673E+01 -0.1376443848827082E+01
 -0.1370088799306709E+01 -0.1363730328597583E+01 -0.1357368439753005E+01 -0.1351003135821558E+01 -0.1344634419847114E+01
 -0.1338262294868848E+01 -0.1331886763921243E+01 -0.1325507830034103E+01 -0.1319125496232573E+01 -0.1312739765537126E+01
 -0.1306350640963602E+01 -0.1299958125523194E+01 -0.1293562222222470E+01 -0.1287162934063382E+01 -0.1280760264043274E+01
 -0.1274354215154899E+01 -0.1267944790386413E+01 -0.1261531992721407E+01 -0.1255115825138895E+01 -0.1248696290613340E+01
 -0.1242273392114657E+01 -0.1235847132608223E+01 -0.1229417515054897E+01 -0.1222984542411004E+01 -0.1216548217628375E+01
 -0.1210108543654343E+01 -0.1203665523431747E+01 -0.1197219159898954E+01 -0.1190769455989856E+01 -0.1184316414633900E+01
 -0.1177860038756069E+01 -0.1171400331276914E+01 -0.1164937295112559E+01 -0.1158470933174705E+01 -0.1152001248370640E+01
 -0.1145528243603259E+01 -0.1139051921771060E+01 -0.1132572285768157E+01 -0.1126089338484296E+01 -0.1119603082804867E+01
 -0.1113113521610887E+01 -0.1106620657779053E+01 -0.1100124494181705E+01 -0.1093625033686875E+01 -0.1087122279158266E+01
 -0.1080616233455284E+01 -0.1074106899433036E+01 -0.1067594279942333E+01 -0.1061078377829711E+01 -0.1054559195937444E+01
 -0.1048036737103531E+01 -0.1041511004161731E+01 -0.1034981999941556E+01 -0.1028449727268282E+01 -0.1021914188962965E+01
 -0.1015375387842443E+01 -0.1008833326719347E+01 -0.1002288008402112E+01 -0.9957394356949875E+00 -0.9891876113980352E+00
 -0.9826325383071534E+00 -0.9760742192140761E+00 -0.9695126569063831E+00 -0.9629478541675105E+00 -0.9563798137767615E+00
 -0.9498085385093076E+00 -0.9432340311362097E+00 -0.9366562944244100E+00 -0.9300753311367614E+00 -0.9234911440320137E+00
 -0.9169037358648465E+00 -0.9103131093858511E+00 -0.9037192673415585E+00 -0.8971222124744496E+00 -0.8905219475229464E+00
 -0.8839184752214339E+00 -0.8773117983002681E+00 -0.8707019194857760E+00 -0.8640888415002771E+00 -0.8574725670620783E+00
 -0.8508530988854953E+00 -0.8442304396808472E+00 -0.8376045921544747E+00 -0.8309755590087485E+00 -0.8243433429420709E+00
 -0.8177079466488879E+00 -0.8110693728197005E+00 -0.8044276241410756E+00 -0.7977827032956319E+00 -0.7911346129620773E+00
 -0.7844833558152099E+00 -0.7778289345259010E+00 -0.7711713517611494E+00 -0.7645106101840394E+00 -0.7578467124537950E+00
 -0.7511796612257414E+00 -0.7445094591513547E+00 -0.7378361088782550E+00 -0.7311596130501965E+00 -0.7244799743071051E+00
 -0.7177971952850688E+00 -0.7111112786163423E+00 -0.7044222269293722E+00 -0.6977300428487919E+00 -0.6910347289954268E+00
 -0.6843362879863115E+00 -0.6776347224346937E+00 -0.6709300349500457E+00 -0.6642222281380605E+00 -0.6575113046006716E+00
 -0.6507972669360580E+00 -0.6440801177386529E+00 -0.6373598595991411E+00 -0.6306364951044801E+00 -0.6239100268379110E+00
 -0.6171804573789365E+00 -0.6104477893033700E+00 -0.6037120251833109E+00 -0.5969731675871764E+00 -0.5902312190796798E+00
 -0.5834861822218673E+00 -0.5767380595711155E+00 -0.5699868536811200E+00 -0.5632325671019455E+00 -0.5564752023799838E+00
 -0.5497147620580018E+00 -0.5429512486751167E+00 -0.5361846647668332E+00 -0.5294150128650310E+00 -0.5226422954979703E+00
 -0.5158665151903169E+00 -0.5090876744631385E+00 -0.5023057758339070E+00 -0.4955208218165146E+00 -0.4887328149212764E+00
 -0.4819417576549433E+00 -0.4751476525206964E+00 -0.4683505020181741E+00 -0.4615503086434618E+00 -0.4547470748891031E+00
 -0.4479408032441182E+00 -0.4411314961939916E+00 -0.4343191562207019E+00 -0.4275037858027014E+00 -0.4206853874149521E+00
 -0.4138639635289146E+00 -0.4070395166125556E+00 -0.4002120491303656E+00 -0.3933815635433585E+00 -0.3865480623090762E+00
 -0.3797115478816014E+00 -0.3728720227115604E+00 -0.3660294892461339E+00 -0.3591839499290606E+00 -0.3523354072006451E+00
 -0.3454838634977666E+00 -0.3386293212538808E+00 -0.3317717828990320E+00 -0.3249112508598587E+00 -0.3180477275596036E+00
 -0.3111812154181057E+00 -0.3043117168518283E+00 -0.2974392342738503E+00 -0.2905637700938810E+00 -0.2836853267182586E+00
 -0.2768039065499698E+00 -0.2699195119886428E+00 -0.2630321454305612E+00 -0.2561418092686691E+00 -0.2492485058925884E+00
 -0.2423522376885934E+00 -0.2354530070396630E+00 -0.2285508163254482E+00 -0.2216456679222953E+00 -0.2147375642032587E+00
 -0.2078265075380901E+00 -0.2009125002932685E+00 -0.1939955448319770E+00 -0.1870756435141318E+00 -0.1801527986963905E+00
 -0.1732270127321375E+00 -0.1662982879715090E+00 -0.1593666267613920E+00 -0.1524320314454357E+00 -0.1454945043640532E+00
 -0.1385540478544201E+00 -0.1316106642505057E+00 -0.1246643558830530E+00 -0.1177151250795983E+00 -0.1107629741644721E+00
 -0.1038079054588133E+00 -0.9684992128056653E-01 -0.8988902394449236E-01 -0.8292521576217619E-01 -0.7595849904202483E-01
 -0.6898887608928728E-01 -0.6201634920605277E-01 -0.5504092069124686E-01 -0.4806259284066305E-01 -0.4108136794693876E-01
 -0.3409724829959148E-01 -0.2711023618499759E-01 -0.2012033388641597E-01 -0.1312754368399307E-01 -0.6131867854760016E-02
  0.8666913273594417E-03  0.7868131591531762E-02  0.1487245067002133E-01  0.2187964629817654E-01  0.2888971621443152E-01
  0.3590265816028294E-01  0.4291846988030747E-01  0.4993714912213880E-01  0.5695869363646647E-01  0.6398310117703181E-01
  0.7101036950062371E-01  0.7804049636706858E-01  0.8507347953921689E-01  0.9210931678296122E-01  0.9914800586720122E-01
  0.1061895445638650E+00  0.1132339306478772E+00  0.1202811618971712E+00  0.1273312360926887E+00  0.1343841510183449E+00
  0.1414399044610505E+00  0.1484984942107081E+00  0.1555599180601715E+00  0.1626241738052835E+00  0.1696912592448380E+00
  0.1767611721805994E+00  0.1838339104172710E+00  0.1909094717625113E+00  0.1979878540269155E+00  0.2050690550240094E+00
  0.2121530725702659E+00  0.2192399044850616E+00  0.2263295485907023E+00  0.2334220027124082E+00  0.2405172646782958E+00
  0.2476153323193978E+00  0.2547162034696289E+00  0.2618198759658064E+00  0.2689263476476223E+00  0.2760356163576637E+00
  0.2831476799413698E+00  0.2902625362470678E+00  0.2973801831259396E+00  0.3045006184320231E+00  0.3116238400222140E+00
  0.3187498457562578E+00  0.3258786334967286E+00  0.3330102011090480E+00  0.3401445464614631E+00  0.3472816674250499E+00
  0.3544215618737043E+00  0.3615642276841356E+00  0.3687096627358617E+00  0.3758578649112018E+00  0.3830088320952850E+00
  0.3901625621760238E+00  0.3973190530441197E+00  0.4044783025930593E+00  0.4116403087191167E+00  0.4188050693213175E+00
  0.4259725823014738E+00  0.4331428455641516E+00  0.4403158570166733E+00  0.4474916145691139E+00  0.4546701161342986E+00
  0.4618513596277916E+00  0.4690353429678935E+00  0.4762220640756278E+00  0.4834115208747641E+00  0.4906037112917789E+00
  0.4977986332558590E+00  0.5049962846989144E+00  0.5121966635555633E+00  0.5193997677631111E+00  0.5266055952615629E+00
  0.5338141439936253E+00  0.5410254119046748E+00  0.5482393969427817E+00  0.5554560970586843E+00  0.5626755102057928E+00
  0.5698976343401900E+00  0.5771224674206067E+00  0.5843500074084378E+00  0.5915802522677343E+00  0.5988131999651743E+00
  0.6060488484701011E+00  0.6132871957544769E+00  0.6205282397929017E+00  0.6277719785626013E+00  0.6350184100434181E+00
  0.6422675322178260E+00  0.6495193430708860E+00  0.6567738405902938E+00  0.6640310227663286E+00  0.6712908875918709E+00
  0.6785534330624015E+00  0.6858186571759762E+00  0.6930865579332451E+00  0.7003571333374302E+00  0.7076303813943253E+00
  0.7149063001123069E+00  0.7221848875023001E+00  0.7294661415777947E+00  0.7367500603548331E+00  0.7440366418520133E+00
  0.7513258840904747E+00  0.7586177850938999E+00  0.7659123428885041E+00  0.7732095555030343E+00  0.7805094209687689E+00
  0.7878119373195033E+00  0.7951171025915490E+00  0.8024249148237371E+00  0.8097353720574036E+00  0.8170484723363864E+00
  0.8243642137070242E+00  0.8316825942181499E+00  0.8390036119210935E+00  0.8463272648696584E+00  0.8536535511201313E+00
  0.8609824687312855E+00  0.8683140157643569E+00  0.8756481902830516E+00  0.8829849903535384E+00  0.8903244140444463E+00
  0.8976664594268599E+00  0.9050111245743016E+00  0.9123584075627568E+00  0.9197083064706378E+00  0.9270608193788020E+00
  0.9344159443705308E+00  0.9417736795315437E+00  0.9491340229499728E+00  0.9564969727163731E+00  0.9638625269237190E+00
  0.9712306836673891E+00  0.9786014410451632E+00  0.9859747971572336E+00  0.9933507501061815E+00  0.1000729297996985E+01
  0.1008110438937011E+01  0.1015494171036004E+01  0.1022880492406099E+01  0.1030269401161797E+01  0.1037660895419973E+01
  0.1045054973299877E+01  0.1052451632923106E+01  0.1059850872413629E+01  0.1067252689897769E+01  0.1074657083504186E+01
  0.1082064051363899E+01  0.1089473591610271E+01  0.1096885702378984E+01  0.1104300381808075E+01  0.1111717628037899E+01
  0.1119137439211139E+01  0.1126559813472793E+01  0.1133984748970181E+01  0.1141412243852942E+01  0.1148842296273011E+01
  0.1156274904384632E+01  0.1163710066344351E+01  0.1171147780311017E+01  0.1178588044445752E+01  0.1186030856911989E+01
  0.1193476215875428E+01  0.1200924119504051E+01  0.1208374565968128E+01  0.1215827553440188E+01  0.1223283080095030E+01
  0.1230741144109724E+01  0.1238201743663593E+01  0.1245664876938219E+01  0.1253130542117429E+01  0.1260598737387308E+01
  0.1268069460936187E+01  0.1275542710954618E+01  0.1283018485635406E+01  0.1290496783173588E+01  0.1297977601766417E+01
  0.1305460939613382E+01  0.1312946794916187E+01  0.1320435165878757E+01  0.1327926050707215E+01  0.1335419447609910E+01
  0.1342915354797394E+01  0.1350413770482409E+01  0.1357914692879894E+01  0.1365418120206998E+01  0.1372924050683042E+01
  0.1380432482529538E+01  0.1387943413970180E+01  0.1395456843230844E+01  0.1402972768539571E+01  0.1410491188126580E+01
  0.1418012100224251E+01  0.1425535503067129E+01  0.1433061394891918E+01  0.1440589773937478E+01  0.1448120638444818E+01
  0.1455653986657093E+01  0.1463189816819611E+01  0.1470728127179804E+01  0.1478268915987258E+01  0.1485812181493679E+01
  0.1493357921952908E+01  0.1500906135620908E+01  0.1508456820755770E+01  0.1516009975617688E+01  0.1523565598468990E+01
  0.1531123687574098E+01  0.1538684241199550E+01  0.1546247257613986E+01  0.1553812735088140E+01  0.1561380671894850E+01
  0.1568951066309038E+01  0.1576523916607726E+01  0.1584099221070006E+01  0.1591676977977066E+01  0.1599257185612159E+01
  0.1606839842260630E+01  0.1614424946209868E+01  0.1622012495749355E+01  0.1629602489170628E+01  0.1637194924767275E+01
  0.1644789800834954E+01  0.1652387115671362E+01  0.1659986867576261E+01  0.1667589054851445E+01  0.1675193675800764E+01
  0.1682800728730094E+01  0.1690410211947353E+01  0.1698022123762489E+01  0.1705636462487481E+01  0.1713253226436327E+01
  0.1720872413925056E+01  0.1728494023271709E+01  0.1736118052796339E+01  0.1743744500821014E+01  0.1751373365669807E+01
  0.1759004645668802E+01  0.1766638339146081E+01  0.1774274444431714E+01  0.1781912959857779E+01  0.1789553883758338E+01
  0.1797197214469434E+01  0.1804842950329109E+01  0.1812491089677374E+01  0.1820141630856216E+01  0.1827794572209606E+01
  0.1835449912083477E+01  0.1843107648825732E+01  0.1850767780786235E+01  0.1858430306316809E+01  0.1866095223771248E+01
  0.1873762531505281E+01  0.1881432227876603E+01  0.1889104311244845E+01  0.1896778779971581E+01  0.1904455632420340E+01
  0.1912134866956569E+01  0.1919816481947668E+01  0.1927500475762952E+01  0.1935186846773675E+01  0.1942875593353005E+01
  0.1950566713876039E+01  0.1958260206719794E+01  0.1965956070263188E+01  0.1973654302887066E+01  0.1981354902974171E+01
  0.1989057868909154E+01  0.1996763199078570E+01  0.2004470891870864E+01  0.2012180945676393E+01  0.2019893358887383E+01
  0.2027608129897976E+01  0.2035325257104172E+01  0.2043044738903873E+01  0.2050766573696860E+01  0.2058490759884781E+01
  0.2066217295871155E+01  0.2073946180061386E+01  0.2081677410862729E+01  0.2089410986684319E+01  0.2097146905937133E+01
  0.2104885167034026E+01  0.2112625768389688E+01  0.2120368708420667E+01  0.2128113985545370E+01  0.2135861598184047E+01
  0.2143611544758766E+01  0.2151363823693466E+01  0.2159118433413899E+01  0.2166875372347674E+01  0.2174634638924195E+01
  0.2182396231574730E+01  0.2190160148732347E+01  0.2197926388831945E+01  0.2205694950310241E+01  0.2213465831605754E+01
  0.2221239031158830E+01  0.2229014547411619E+01  0.2236792378808076E+01  0.2244572523793964E+01  0.2252354980816827E+01
  0.1294367837718302E+03  0.1294367837718302E+03  0.1294367837718302E+03  0.1294367837718302E+03  0.1294367837718302E+03
  0.1294367837718302E+03  0.1294367837718302E+03  0.1294367837718302E+03  0.1294367837718302E+03  0.1294367837718302E+03
  0.1294367837718302E+03  0.1294367837718302E+03  0.1294367837718302E+03  0.1294367837718302E+03  0.1294367837718302E+03
  0.1294367837718302E+03  0.1294367837718302E+03  0.1294367837718302E+03  0.1294367837718302E+03  0.1294367837718302E+03
  0.1294367837718302E+03  0.1294367837718302E+03  0.1294367837718302E+03  0.1294367837718302E+03  0.1294367837718302E+03
  0.1294367837718302E+03  0.1294367837718302E+03  0.1294367837718302E+03  0.1294367837718302E+03  0.1294367837718302E+03
  0.1294367837718302E+03  0.1294367837718302E+03  0.1294367837718302E+03  0.1294367837718302E+03  0.1294367837718302E+03
  0.1294367837718302E+03  0.1294367837718302E+03  0.1294367837718302E+03  0.1294367837718302E+03  0.1294367837718302E+03
  0.1294367837718302E+03  0.1294367837718302E+03  0.1294367837718302E+03  0.1294367837718302E+03  0.1294367837718302E+03
  0.1294367837718302E+03  0.1294367837718302E+03  0.1294367837718302E+03  0.1294367837718302E+03  0.1294367837718302E+03
  0.1294367837718302E+03  0.1294367837718302E+03  0.1294367837718302E+03  0.1294367837718302E+03  0.1294367837718302E+03
  0.1294367837718302E+03  0.1294367837718302E+03  0.1294367837718302E+03  0.1294367837718302E+03  0.1294367837718302E+03
  0.1294367837718302E+03  0.1294367837718302E+03  0.1294367837718302E+03  0.1294367837718302E+03  0.1294367837718302E+03
  0.1294367837718302E+03  0.1294367837718302E+03  0.1294367837718302E+03  0.1294367837718302E+03  0.1294367837718302E+03
  0.1294367837718302E+03  0.1294367837718302E+03  0.1294367837718302E+03  0.1294367837718302E+03  0.1294367837718302E+03
  0.1294367837718302E+03  0.1294367837718302E+03  0.1294367837718302E+03  0.1294367837718302E+03  0.1294367837718302E+03
  0.1294367837718302E+03  0.1294367837718302E+03  0.1294367837718302E+03  0.1294367837718302E+03  0.1294367837718302E+03
  0.1294367837718302E+03  0.1294367837718302E+03  0.1294367837718302E+03  0.1294367837718302E+03  0.1294367837718302E+03
  0.1294367837718302E+03  0.1294367837718302E+03  0.1294367837718302E+03  0.1294367837718302E+03  0.1294367837718302E+03
  0.1294367837718302E+03  0.1294367837718302E+03  0.1294367837718302E+03  0.1294367837718302E+03  0.1294367837718302E+03
  0.1294367837718302E+03  0.1294367837718302E+03  0.1294367837718302E+03  0.1294367837718302E+03  0.1294367837718302E+03
  0.1294367837718302E+03  0.1294367837718302E+03  0.1294367837718302E+03  0.1294367837718302E+03  0.1294367837718302E+03
  0.1294367837718302E+03  0.1294367837718302E+03  0.1294367837718302E+03  0.1294367837718302E+03  0.1294367837718302E+03
  0.1294367837718302E+03  0.1294367837718302E+03  0.1294367837718302E+03  0.1294367837718302E+03  0.1294367837718302E+03
  0.1294367837718302E+03  0.1294367837718302E+03  0.1294367837718302E+03  0.1294367837718302E+03  0.1294367837718302E+03
  0.1294367837718302E+03  0.1294367837718302E+03  0.1294367837718302E+03  0.1294367837718302E+03  0.1294367837718302E+03
  0.1294367837718302E+03  0.1294367837718302E+03  0.1294367837718302E+03  0.1294367837718302E+03  0.1294367837718302E+03
  0.1294367837718302E+03  0.1294367837718302E+03  0.1294367837718302E+03  0.1294367837718302E+03  0.1294367837718302E+03
  0.1294367837718302E+03  0.1294367837718302E+03  0.1294367837718302E+03  0.1294367837718302E+03  0.1294367837718302E+03
  0.1294367837718302E+03  0.1294367837718302E+03  0.1294367837718302E+03  0.1294367837718302E+03  0.1294367837718302E+03
  0.1294367837718302E+03  0.1294367837718302E+03  0.1294367837718302E+03  0.1294367837718302E+03  0.1294367837718302E+03
  0.1294367837718302E+03  0.1294367837718302E+03  0.1289693798492794E+03  0.1283178388588677E+03  0.1276695893913172E+03
  0.1270246148181691E+03  0.1263828985949692E+03  0.1257444242608450E+03  0.1251091754380825E+03  0.1244771358317062E+03
  0.1238482892290615E+03  0.1232226194993985E+03  0.1226001105934582E+03  0.1219807465430610E+03  0.1213645114606972E+03
  0.1207513895391190E+03  0.1201413650509353E+03  0.1195344223482086E+03  0.1189305458620530E+03  0.1183297201022352E+03
  0.1177319296567771E+03  0.1171371591915603E+03  0.1165453934499332E+03  0.1159566172523192E+03  0.1153708154958273E+03
  0.1147879731538651E+03  0.1142080752757530E+03  0.1136311069863408E+03  0.1130570534856262E+03  0.1124859000483752E+03
  0.1119176320237438E+03  0.1113522348349032E+03  0.1107896939786652E+03  0.1102299950251102E+03  0.1096731236172173E+03
  0.1091190654704957E+03  0.1085678063726189E+03  0.1080193321830591E+03  0.1074736288327258E+03  0.1069306823236036E+03
  0.1063904787283940E+03  0.1058530041901580E+03  0.1053182449219602E+03  0.1047861872065158E+03  0.1042568173958383E+03
  0.1037301219108895E+03  0.1032060872412311E+03  0.1026846999446786E+03  0.1021659466469557E+03  0.1016498140413518E+03
  0.1011362888883808E+03  0.1006253580154409E+03  0.1001170083164772E+03  0.9961122675164525E+02  0.9910800034697654E+02
  0.9860731619404612E+02  0.9810916144964087E+02  0.9761352333543059E+02  0.9712038913763975E+02  0.9662974620672186E+02
  0.9614158195703448E+02  0.9565588386651682E+02  0.9517263947636826E+02  0.9469183639072880E+02  0.9421346227636134E+02
  0.9373750486233482E+02  0.9326395193971003E+02  0.9279279136122598E+02  0.9232401104098854E+02  0.9185759895416035E+02
  0.9139354313665248E+02  0.9093183168481730E+02  0.9047245275514328E+02  0.9001539456395122E+02  0.8956064538709197E+02
  0.8910819355964567E+02  0.8865802747562248E+02  0.8821013558766478E+02  0.8776450640675138E+02  0.8732112850190229E+02
  0.8687999049988591E+02  0.8644108108492701E+02  0.8600438899841653E+02  0.8556990303862300E+02  0.8513761206040492E+02
  0.8470750497492497E+02  0.8427957074936562E+02  0.8385379840664599E+02  0.8343017702514048E+02  0.8300869573839854E+02
  0.8258934373486568E+02  0.8217211025760652E+02  0.8175698460402860E+02  0.8134395612560802E+02  0.8093301422761621E+02
  0.8052414836884806E+02  0.8011734806135169E+02  0.7971260287015929E+02  0.7930990241301960E+02  0.7890923636013147E+02
  0.7851059443387892E+02  0.7811396640856741E+02  0.7771934211016176E+02  0.7732671141602503E+02  0.7693606425465882E+02
  0.7654739060544499E+02  0.7616068049838859E+02  0.7577592401386218E+02  0.7539311128235137E+02  0.7501223248420149E+02
  0.7463327784936588E+02  0.7425623765715534E+02  0.7388110223598839E+02  0.7350786196314374E+02  0.7313650726451303E+02
  0.7276702861435538E+02  0.7239941653505308E+02  0.7203366159686844E+02  0.7166975441770190E+02  0.7130768566285133E+02
  0.7094744604477265E+02  0.7058902632284159E+02  0.7023241730311662E+02  0.6987760983810317E+02  0.6952459482651874E+02
  0.6917336321305991E+02  0.6882390598816960E+02  0.6847621418780626E+02  0.6813027889321377E+02  0.6778609123069270E+02
  0.6744364237137269E+02  0.6710292353098613E+02  0.6676392596964251E+02  0.6642664099160450E+02  0.6609105994506477E+02
  0.6575717422192416E+02  0.6542497525757078E+02  0.6509445453066026E+02  0.6476560356289733E+02  0.6443841391881821E+02
  0.6411287720557434E+02  0.6378898507271703E+02  0.6346672921198318E+02  0.6314610135708231E+02  0.6282709328348437E+02
  0.6250969680820896E+02  0.6219390378961527E+02  0.6187970612719328E+02  0.6156709576135589E+02  0.6125606467323240E+02
  0.6094660488446264E+02  0.6063870845699230E+02  0.6033236749286942E+02  0.6002757413404166E+02  0.5972432056215491E+02
  0.5942259899835262E+02  0.5912240170307622E+02  0.5882372097586666E+02  0.5852654915516696E+02  0.5823087861812547E+02
  0.5793670178040062E+02  0.5764401109596600E+02  0.5735279905691714E+02  0.5706305819327879E+02  0.5677478107281325E+02
  0.5648796030082985E+02  0.5620258851999509E+02  0.5591865841014405E+02  0.5563616268809263E+02  0.5535509410745068E+02
  0.5507544545843607E+02  0.5479720956768980E+02  0.5452037929809197E+02  0.5424494754857889E+02  0.5397090725396060E+02
  0.5369825138473984E+02  0.5342697294693171E+02  0.5315706498188426E+02  0.5288852056610003E+02  0.5262133281105832E+02
  0.5235549486303861E+02  0.5209099990294477E+02  0.5182784114613005E+02  0.5156601184222303E+02  0.5130550527495465E+02
  0.5104631476198572E+02  0.5078843365473558E+02  0.5053185533821158E+02  0.5027657323083943E+02  0.5002258078429426E+02
  0.4976987148333275E+02  0.4951843884562589E+02  0.4926827642159292E+02  0.4901937779423564E+02  0.4877173657897395E+02
  0.4852534642348196E+02  0.4828020100752524E+02  0.4803629404279854E+02  0.4779361927276451E+02  0.4755217047249320E+02
  0.4731194144850250E+02  0.4707292603859910E+02  0.4683511811172055E+02  0.4659851156777792E+02  0.4636310033749932E+02
  0.4612887838227432E+02  0.4589583969399887E+02  0.4566397829492142E+02  0.4543328823748930E+02  0.4520376360419639E+02
  0.4497539850743127E+02  0.4474818708932611E+02  0.4452212352160652E+02  0.4429720200544197E+02  0.4407341677129705E+02
  0.4385076207878348E+02  0.4362923221651300E+02  0.4340882150195057E+02  0.4318952428126890E+02  0.4297133492920315E+02
  0.4275424784890697E+02  0.4253825747180861E+02  0.4232335825746826E+02  0.4210954469343584E+02  0.4189681129510969E+02
  0.4168515260559585E+02  0.4147456319556802E+02  0.4126503766312834E+02  0.4105657063366882E+02  0.4084915675973354E+02
  0.4064279072088131E+02  0.4043746722354940E+02  0.4023318100091760E+02  0.4002992681277317E+02  0.3982769944537645E+02
  0.3962649371132711E+02  0.3942630444943102E+02  0.3922712652456793E+02  0.3902895482755972E+02  0.3883178427503940E+02
  0.3863560980932062E+02  0.3844042639826799E+02  0.3824622903516792E+02  0.3805301273860037E+02  0.3786077255231093E+02
  0.3766950354508366E+02  0.3747920081061469E+02  0.3728985946738635E+02  0.3710147465854186E+02  0.3691404155176090E+02
  0.3672755533913553E+02  0.3654201123704687E+02  0.3635740448604250E+02  0.3617373035071424E+02  0.3599098411957678E+02
  0.3580916110494673E+02  0.3562825664282247E+02  0.3544826609276448E+02  0.3526918483777627E+02  0.3509100828418598E+02
  0.3491373186152856E+02  0.3473735102242850E+02  0.3456186124248315E+02  0.3438725802014682E+02  0.3421353687661512E+02
  0.3404069335571017E+02  0.3386872302376619E+02  0.3369762146951609E+02  0.3352738430397782E+02  0.3335800716034218E+02
  0.3318948569386065E+02  0.3302181558173397E+02  0.3285499252300126E+02  0.3268901223842965E+02  0.3252387047040457E+02
  0.3235956298282048E+02  0.3219608556097229E+02  0.3203343401144718E+02  0.3187160416201704E+02  0.3171059186153144E+02
  0.3155039297981120E+02  0.3139100340754241E+02  0.3123241905617101E+02  0.3107463585779792E+02  0.3091764976507471E+02
  0.3076145675109971E+02  0.3060605280931491E+02  0.3045143395340290E+02  0.3029759621718487E+02  0.3014453565451866E+02
  0.2999224833919775E+02  0.2984073036485040E+02  0.2968997784483948E+02  0.2953998691216275E+02  0.2939075371935378E+02
  0.2924227443838310E+02  0.2909454526056007E+02  0.2894756239643527E+02  0.2880132207570316E+02  0.2865582054710542E+02
  0.2851105407833477E+02  0.2836701895593911E+02  0.2822371148522643E+02  0.2808112799016992E+02  0.2793926481331370E+02
  0.2779811831567900E+02  0.2765768487667086E+02  0.2751796089398519E+02  0.2737894278351638E+02  0.2724062697926542E+02
  0.2710300993324837E+02  0.2696608811540537E+02  0.2682985801351006E+02  0.2669431613307953E+02  0.2655945899728467E+02
  0.2642528314686099E+02  0.2629178514001983E+02  0.2615896155236017E+02  0.2602680897678071E+02  0.2589532402339248E+02
  0.2576450331943196E+02  0.2563434350917444E+02  0.2550484125384807E+02  0.2537599323154815E+02  0.2524779613715188E+02
  0.2512024668223367E+02  0.2499334159498072E+02  0.2486707762010913E+02  0.2474145151878036E+02  0.2461646006851820E+02
  0.2449210006312607E+02  0.2436836831260479E+02  0.2424526164307075E+02  0.2412277689667449E+02  0.2400091093151974E+02
  0.2387966062158273E+02  0.2375902285663211E+02  0.2363899454214909E+02  0.2351957259924812E+02  0.2340075396459789E+02
  0.2328253559034271E+02  0.2316491444402441E+02  0.2304788750850447E+02  0.2293145178188669E+02  0.2281560427744015E+02
  0.2270034202352264E+02  0.2258566206350437E+02  0.2247156145569215E+02  0.2235803727325396E+02  0.2224508660414389E+02
  0.2213270655102734E+02  0.2202089423120685E+02  0.2190964677654798E+02  0.2179896133340591E+02  0.2168883506255212E+02
  0.2157926513910158E+02  0.2147024875244038E+02  0.2136178310615351E+02  0.2125386541795319E+02  0.2114649291960749E+02
  0.2103966285686933E+02  0.2093337248940583E+02  0.2082761909072801E+02  0.2072239994812082E+02  0.2061771236257363E+02
  0.2051355364871093E+02  0.2040992113472348E+02  0.2030681216229973E+02  0.2020422408655773E+02  0.2010215427597718E+02
  0.2000060011233198E+02  0.1989955899062303E+02  0.1979902831901149E+02  0.1969900551875219E+02  0.1959948802412757E+02
  0.1950047328238181E+02  0.1940195875365540E+02  0.1930394191091988E+02  0.1920642023991319E+02  0.1910939123907502E+02
  0.1901285241948273E+02  0.1891680130478749E+02  0.1882123543115070E+02  0.1872615234718087E+02  0.1863154961387071E+02
  0.1853742480453456E+02  0.1844377550474612E+02  0.1835059931227656E+02  0.1825789383703290E+02  0.1816565670099663E+02
  0.1807388553816279E+02  0.1798257799447926E+02  0.1789173172778636E+02  0.1780134440775676E+02  0.1771141371583574E+02
  0.1762193734518167E+02  0.1753291300060689E+02  0.1744433839851880E+02  0.1735621126686129E+02  0.1726852934505645E+02
  0.1718129038394661E+02  0.1709449214573660E+02  0.1700813240393640E+02  0.1692220894330400E+02  0.1683671955978858E+02
  0.1675166206047396E+02  0.1666703426352236E+02  0.1658283399811847E+02  0.1649905910441367E+02  0.1641570743347074E+02
  0.1633277684720865E+02  0.1625026521834777E+02  0.1616817043035526E+02  0.1608649037739083E+02  0.1600522296425263E+02
  0.1592436610632362E+02  0.1584391772951806E+02  0.1576387577022822E+02  0.1568423817527156E+02  0.1560500290183803E+02
  0.1552616791743760E+02  0.1544773119984825E+02  0.1536969073706398E+02  0.1529204452724326E+02  0.1521479057865767E+02
  0.1513792690964079E+02  0.1506145154853742E+02  0.1498536253365291E+02  0.1490965791320295E+02  0.1483433574526343E+02
  0.1475939409772063E+02  0.1468483104822170E+02  0.1461064468412531E+02  0.1453683310245262E+02  0.1446339440983842E+02
  0.1439032672248260E+02  0.1431762816610184E+02  0.1424529687588146E+02  0.1417333099642767E+02  0.1410172868171995E+02
  0.1403048809506365E+02  0.1395960740904292E+02  0.1388908480547384E+02  0.1381891847535776E+02  0.1374910661883488E+02
  0.1367964744513814E+02  0.1361053917254723E+02  0.1354178002834288E+02  0.1347336824876142E+02  0.1340530207894954E+02
  0.1333757977291923E+02  0.1327019959350305E+02  0.1320315981230951E+02  0.1313645870967879E+02  0.1307009457463858E+02
  0.1300406570486019E+02  0.1293837040661496E+02  0.1287300699473069E+02  0.1280797379254852E+02  0.1274326913187984E+02
  0.1267889135296355E+02  0.1261483880442347E+02  0.1255110984322595E+02  0.1248770283463777E+02  0.1242461615218418E+02
  0.1236184817760715E+02  0.1229939730082391E+02  0.1223726191988561E+02  0.1217544044093625E+02  0.1211393127817177E+02
  0.1205273285379938E+02  0.1199184359799709E+02  0.1193126194887341E+02  0.1187098635242736E+02  0.1181101526250851E+02
  0.1175134714077735E+02  0.1169198045666587E+02  0.1163291368733825E+02  0.1157414531765178E+02  0.1151567384011804E+02
  0.1145749775486420E+02  0.1139961556959453E+02  0.1134202579955214E+02  0.1128472696748088E+02  0.1122771760358746E+02
  0.1117099624550369E+02  0.1111456143824903E+02  0.1105841173419324E+02  0.1100254569301920E+02  0.1094696188168601E+02
  0.1089165887439222E+02  0.1083663525253924E+02  0.1078188960469490E+02  0.1072742052655735E+02  0.1067322662091891E+02
  0.1061930649763031E+02  0.1056565877356496E+02  0.1051228207258353E+02  0.1045917502549858E+02  0.1040633627003948E+02
  0.1035376445081742E+02  0.1030145821929064E+02  0.1024941623372987E+02  0.1019763715918386E+02  0.1014611966744514E+02
  0.1009486243701593E+02  0.1004386415307425E+02  0.9993123507440197E+01  0.9942639198542329E+01  0.9892409931384297E+01
  0.9842434417511624E+01  0.9792711374978623E+01  0.9743239528315499E+01  0.9694017608495640E+01  0.9645044352903032E+01
  0.9596318505299873E+01  0.9547838815794318E+01  0.9499604040808409E+01  0.9451612943046163E+01  0.9403864291461808E+01
  0.9356356861228207E+01  0.9309089433705411E+01  0.9262060796409370E+01  0.9215269742980846E+01  0.9168715073154400E+01
  0.9122395592727633E+01  0.9076310113530493E+01  0.9030457453394812E+01  0.8984836436123929E+01  0.8939445891462499E+01
  0.8894284655066494E+01  0.8849351568473244E+01  0.8804645479071743E+01  0.8760165240073041E+01  0.8715909710480812E+01
  0.8671877755062035E+01  0.8628068244317864E+01  0.8584480054454621E+01  0.8541112067354950E+01  0.8497963170549067E+01
  0.8455032257186238E+01  0.8412318226006317E+01  0.8369819981311476E+01  0.8327536432938063E+01  0.8285466496228608E+01
  0.8243609092003938E+01  0.8201963146535478E+01  0.8160527591517667E+01  0.8119301364040487E+01  0.8078283406562178E+01
  0.8037472666882055E+01  0.7996868098113482E+01  0.7956468658656951E+01  0.7916273312173321E+01  0.7876281027557209E+01
  0.7836490778910435E+01  0.7796901545515696E+01  0.7757512311810313E+01  0.7718322067360115E+01  0.7679329806833464E+01
  0.7640534529975408E+01  0.7601935241581963E+01  0.7563530951474513E+01  0.7525320674474328E+01  0.7487303430377256E+01
  0.7449478243928477E+01  0.7411844144797423E+01  0.7374400167552813E+01  0.7337145351637814E+01  0.7300078741345298E+01
  0.7263199385793283E+01  0.7226506338900400E+01  0.7189998659361586E+01  0.7153675410623809E+01  0.7117535660861992E+01
  0.7081578482954958E+01  0.7045802954461589E+01  0.7010208157597059E+01  0.6974793179209165E+01  0.6939557110754796E+01
  0.6904499048276532E+01  0.6869618092379334E+01  0.6834913348207340E+01  0.6800383925420805E+01  0.6766028938173118E+01
  0.6731847505087986E+01  0.6697838749236634E+01  0.6664001798115230E+01  0.6630335783622312E+01  0.6596839842036421E+01
  0.6563513113993750E+01  0.6530354744465996E+01  0.6497363882738216E+01  0.6464539682386878E+01  0.6431881301257976E+01
  0.6399387901445241E+01  0.6367058649268481E+01  0.6334892715252010E+01  0.6302889274103192E+01  0.6271047504691066E+01
  0.6239366590025084E+01  0.6207845717233980E+01  0.6176484077544664E+01  0.6145280866261294E+01  0.6114235282744406E+01
  0.6083346530390147E+01  0.6052613816609608E+01  0.6022036352808254E+01  0.5991613354365458E+01  0.5961344040614115E+01
  0.5931227634820356E+01  0.5901263364163365E+01  0.5871450459715277E+01  0.5841788156421169E+01  0.5812275693079160E+01
  0.5782912312320585E+01  0.5753697260590262E+01  0.5724629788126856E+01  0.5695709148943316E+01  0.5666934600807424E+01
  0.5638305405222416E+01  0.5609820827407694E+01  0.5581480136279625E+01  0.5553282604432416E+01  0.5525227508119102E+01
  0.5497314127232584E+01  0.5469541745286760E+01  0.5441909649397761E+01  0.5414417130265251E+01  0.5387063482153793E+01
  0.5359848002874332E+01  0.5332769993765725E+01  0.5305828759676384E+01  0.5279023608945948E+01  0.5252353853387093E+01
  0.5225818808267364E+01  0.5199417792291127E+01  0.5173150127581565E+01  0.5147015139662773E+01  0.5121012157441903E+01
  0.5095140513191406E+01  0.5069399542531339E+01  0.5043788584411726E+01  0.5018306981095017E+01  0.4992954078138600E+01
  0.4967729224377405E+01  0.4942631771906531E+01  0.4917661076063994E+01  0.4892816495413519E+01  0.4868097391727381E+01
  0.4843503129969345E+01  0.4819033078277653E+01  0.4794686607948074E+01  0.4770463093417018E+01  0.4746361912244728E+01
  0.4722382445098513E+01  0.4698524075736056E+01  0.4674786190988766E+01  0.4651168180745218E+01  0.4627669437934617E+01
  0.4604289358510351E+01  0.4581027341433572E+01  0.4557882788656868E+01  0.4534855105107951E+01  0.4511943698673433E+01
  0.4489147980182629E+01  0.4466467363391433E+01  0.4443901264966234E+01  0.4421449104467891E+01  0.4399110304335749E+01
  0.4376884289871705E+01  0.4354770489224348E+01  0.4332768333373092E+01  0.4310877256112406E+01  0.4289096694036074E+01
  0.4267426086521491E+01  0.4245864875714009E+01  0.4224412506511324E+01  0.4203068426547910E+01  0.4181832086179493E+01
  0.4160702938467550E+01  0.4139680439163869E+01  0.4118764046695135E+01  0.4097953222147549E+01  0.4077247429251492E+01
  0.4056646134366228E+01  0.4036148806464618E+01  0.4015754917117894E+01  0.3995463940480454E+01  0.3975275353274670E+01
  0.3955188634775769E+01  0.3935203266796687E+01  0.3915318733673012E+01  0.3895534522247890E+01  0.3875850121857009E+01
  0.3856265024313583E+01  0.3836778723893355E+01  0.3817390717319635E+01  0.3798100503748356E+01  0.3778907584753143E+01
  0.3759811464310409E+01  0.3740811648784459E+01  0.3721907646912634E+01  0.3703098969790427E+01  0.3684385130856657E+01
  0.3665765645878636E+01  0.3647240032937342E+01  0.3628807812412615E+01  0.3610468506968354E+01  0.3592221641537731E+01
  0.3574066743308401E+01  0.3556003341707724E+01  0.3538030968387983E+01  0.3520149157211619E+01  0.3502357444236456E+01
  0.3484655367700932E+01  0.3467042468009326E+01  0.3449518287716976E+01  0.3432082371515521E+01  0.3414734266218092E+01
  0.3397473520744538E+01  0.3380299686106623E+01  0.3363212315393224E+01  0.3346210963755504E+01  0.3329295188392089E+01
  0.3312464548534220E+01  0.3295718605430907E+01  0.3279056922334028E+01  0.3262479064483466E+01  0.3245984599092175E+01
  0.3229573095331254E+01  0.3213244124314996E+01  0.3196997259085902E+01  0.3180832074599674E+01  0.3164748147710192E+01
  0.3148745057154447E+01  0.3132822383537448E+01  0.3116979709317103E+01  0.3101216618789062E+01  0.3085532698071533E+01
  0.3069927535090038E+01  0.3054400719562161E+01  0.3038951842982247E+01  0.3023580498606037E+01  0.3008286281435294E+01
  0.2993068788202359E+01  0.2977927617354674E+01  0.2962862369039260E+01  0.2947872645087122E+01  0.2932958048997625E+01
  0.2918118185922822E+01  0.2903352662651696E+01  0.2888661087594374E+01  0.2874043070766275E+01  0.2859498223772192E+01
  0.2845026159790314E+01  0.2830626493556189E+01  0.2816298841346626E+01  0.2802042820963506E+01  0.2787858051717550E+01
  0.2773744154412012E+01  0.2759700751326281E+01  0.2745727466199433E+01  0.2731823924213687E+01  0.2717989751977797E+01
  0.2704224577510365E+01  0.2690528030223053E+01  0.2676899740903730E+01  0.2663339341699536E+01  0.2649846466099848E+01
  0.2636420748919158E+01  0.2623061826279879E+01  0.2609769335595023E+01  0.2596542915550830E+01  0.2583382206089263E+01
  0.2570286848390429E+01  0.2557256484854888E+01  0.2544290759085877E+01  0.2531389315871413E+01  0.2518551801166307E+01
  0.2505777862074059E+01  0.2493067146828672E+01  0.2480419304776317E+01  0.2467833986356925E+01  0.2455310843085653E+01
  0.2442849527534227E+01  0.2430449693312191E+01  0.2418110995048023E+01  0.2405833088370149E+01  0.2393615629887821E+01
  0.2381458277171889E+01  0.2369360688735448E+01  0.2357322524014363E+01  0.2345343443347667E+01  0.2333423107957850E+01
  0.2321561179930995E+01  0.2309757322196816E+01  0.2298011198508561E+01  0.2286322473422774E+01  0.2274690812278948E+01
  0.2263115881179040E+01  0.2251597346966853E+01  0.2240134877207305E+01  0.2228728140165545E+01  0.2217376804785965E+01
  0.2206080540671056E+01  0.2194839018060154E+01  0.2183651907808057E+01  0.2172518881363493E+01  0.2161439610747482E+01
  0.2150413768531561E+01  0.2139441027815875E+01  0.2128521062207167E+01  0.2117653545796605E+01  0.2106838153137522E+01
  0.2096074559223013E+01  0.2085362439463420E+01  0.2074701469663695E+01  0.2064091326000661E+01  0.2053531685000128E+01
  0.2043022223513943E+01  0.2032562618696889E+01  0.2022152547983508E+01  0.2011791689064814E+01  0.2001479719864909E+01
  0.1991216318517503E+01  0.1981001163342352E+01  0.1970833932821604E+01  0.1960714305576082E+01  0.1950641960341465E+01
  0.1940616575944430E+01  0.1930637831278724E+01  0.1920705405281170E+01  0.1910818976907635E+01  0.1900978225108962E+01
  0.1891182828806864E+01  0.1881432466869788E+01  0.1871726818088776E+01  0.1862065561153313E+01  0.1852448374627181E+01
  0.1842874936924329E+01  0.1833344926284765E+01  0.1823858020750500E+01  0.1814413898141513E+01  0.1805012236031813E+01
  0.1795652711725554E+01  0.1786335002233247E+01  0.1777058784248084E+01  0.1767823734122380E+01  0.1758629527844148E+01
  0.1749475841013838E+01  0.1740362348821251E+01  0.1731288726022632E+01  0.1722254646917993E+01  0.1713259785328660E+01
  0.1704303814575080E+01  0.1695386407454904E+01  0.1686507236221373E+01  0.1677665972562028E+01  0.1668862287577785E+01
  0.1660095851762373E+01  0.1651366334982187E+01  0.1642673406456591E+01  0.1634016734738662E+01  0.1625395987696462E+01
  0.1616810832494828E+01  0.1608260935577723E+01  0.1599745962651213E+01  0.1591265578667053E+01  0.1582819447806979E+01
  0.1574407233467703E+01  0.1566028598246672E+01  0.1557683203928631E+01  0.1549370711473031E+01  0.1541090781002336E+01
  0.1532843071791261E+01  0.1524627242257010E+01  0.1516442949950552E+01  0.1508289851549001E+01  0.1500167602849122E+01
  0.1492075858762073E+01  0.1484014273309388E+01  0.1475982499620300E+01  0.1467980189930437E+01  0.1460006995581979E+01
  0.1452062567025327E+01  0.1444146553822356E+01  0.1436258604651321E+01  0.1428398367313492E+01  0.1420565488741590E+01
  0.1412759615010084E+01  0.1404980391347464E+01  0.1397227462150524E+01  0.1389500471000778E+01  0.1381799060683064E+01
  0.1374122873206433E+01  0.1366471549827417E+01  0.1358844731075750E+01  0.1351242056782652E+01  0.1343663166111753E+01
  0.1336107697592761E+01  0.1328575289157973E+01  0.1321065578181731E+01  0.1313578201522899E+01  0.1306112795570506E+01
  0.1298668996292615E+01  0.1291246439288566E+01  0.1283844759844647E+01  0.1276463592993368E+01  0.1269102573576377E+01
  0.1261761336311190E+01  0.1254439515861792E+01  0.1247136746913275E+01  0.1239852664250567E+01  0.1232586902841413E+01
  0.1225339097923705E+01  0.1218108885097252E+01  0.1210895900420133E+01  0.1203699780509738E+01  0.1196520162648586E+01
  0.1189356684895055E+01  0.1182208986199131E+01  0.1175076706523252E+01  0.1167959486968399E+01  0.1160856969905490E+01
  0.1153768799112221E+01  0.1146694619915396E+01  0.1139634079338896E+01  0.1132586826257334E+01  0.1125552511555502E+01
  0.1118530788293669E+01  0.1111521311878828E+01  0.1104523740241942E+01  0.1097537734021249E+01  0.1090562956751697E+01
  0.1083599075060532E+01  0.1076645758869094E+01  0.1069702681600839E+01  0.1062769520395618E+01  0.1055845956330203E+01
  0.1048931674645082E+01  0.1042026364977487E+01  0.1035129721600643E+01  0.1028241443669196E+01  0.1021361235470761E+01
  0.1014488806683536E+01  0.1007623872639875E+01  0.1000766154595756E+01  0.9939153800059922E+00  0.9870712828050879E+00
  0.9802336036935496E+00  0.9734020904295200E+00  0.9665764981255159E+00  0.9597565895500781E+00  0.9529421354340812E+00
  0.9461329147814695E+00  0.9393287151841305E+00  0.9325293331406068E+00  0.9257345743783220E+00  0.9189442541789781E+00
  0.9121581977067382E+00  0.9053762403388048E+00  0.8985982279979753E+00  0.8918240174866953E+00  0.8850534768221663E+00
  0.8782864855719802E+00  0.8715229351897539E+00  0.8647627293502073E+00  0.8580057842831020E+00  0.8512520291054130E+00
  0.8445014061511146E+00  0.8377538712978984E+00  0.8310093942901458E+00  0.8242679590574187E+00  0.8175295640277499E+00
  0.8107942224349539E+00  0.8040619626191794E+00  0.7973328283198782E+00  0.7906068789603866E+00  0.7838841899232512E+00
  0.7771648528154425E+00  0.7704489757225750E+00  0.7637366834512355E+00  0.7570281177585279E+00  0.7503234375678922E+00
  0.7436228191703165E+00  0.7369264564099703E+00  0.7302345608533737E+00  0.7235473619411484E+00  0.7168651071214420E+00
  0.7101880619641041E+00  0.7035165102547185E+00  0.6968507540675993E+00  0.6901911138168689E+00  0.6835379282847868E+00
  0.6768915546264878E+00  0.6702523683503466E+00  0.6636207632731819E+00  0.6569971514496046E+00  0.6503819630748021E+00
  0.6437756463601130E+00  0.6371786673808183E+00  0.6305915098955918E+00  0.6240146751371266E+00  0.6174486815735195E+00
  0.6108940646400425E+00  0.6043513764410210E+00  0.5978211854215709E+00  0.5913040760090742E+00  0.5848006482243071E+00
  0.5783115172622131E+00  0.5718373130424436E+00  0.5653786797298123E+00  0.5589362752249406E+00  0.5525107706254346E+00
  0.5461028496580498E+00  0.5397132080823476E+00  0.5333425530664998E+00  0.5269916025359302E+00  0.5206610844956195E+00
  0.5143517363269527E+00  0.5080643040601190E+00  0.5017995416231302E+00  0.4955582100686317E+00  0.4893410767797416E+00
  0.4831489146562759E+00  0.4769825012827512E+00  0.4708426180796688E+00  0.4647300494396280E+00  0.4586455818499080E+00
  0.4525900030032075E+00  0.4465641008982752E+00  0.4405686629322614E+00  0.4346044749866033E+00  0.4286723205083585E+00
  0.4227729795888913E+00  0.4169072280418636E+00  0.4110758364824991E+00  0.4052795694100981E+00  0.3995191842957980E+00
  0.3937954306775468E+00  0.3881090492642897E+00  0.3824607710513108E+00  0.3768513164486813E+00  0.3712813944247029E+00
  0.3657517016662386E+00  0.3602629217577434E+00  0.3548157243807593E+00  0.3494107645356125E+00  0.3440486817869448E+00
  0.3387300995346688E+00  0.3334556243118506E+00  0.3282258451109407E+00  0.3230413327397000E+00  0.3179026392080497E+00
  0.3128102971470166E+00  0.3077648192608232E+00  0.3027666978130542E+00  0.2978164041477889E+00  0.2929143882463911E+00
  0.2880610783206417E+00  0.2832568804426921E+00  0.2785021782122938E+00  0.2737973324615834E+00  0.2691426809976230E+00
  0.2645385383828078E+00  0.2599851957530875E+00  0.2554829206738961E+00  0.2510319570335729E+00  0.2466325249739149E+00
  0.2422848208574773E+00  0.2379890172710639E+00  0.2337452630648226E+00  0.2295536834262506E+00  0.2254143799883121E+00
  0.2213274309708475E+00  0.2172928913543084E+00  0.2133107930848653E+00  0.2093811453097996E+00  0.2055039346420874E+00
  0.2016791254529967E+00  0.1979066601915100E+00  0.1941864597292892E+00  0.1905184237299329E+00  0.1869024310411762E+00
  0.1833383401087256E+00  0.1798259894103446E+00  0.1763651979088262E+00  0.1729557655224850E+00  0.1695974736117523E+00
  0.1662900854805258E+00  0.1630333468908667E+00  0.1598269865896846E+00  0.1566707168460672E+00  0.1535642339978954E+00
  0.1505072190064395E+00  0.1474993380176538E+00  0.1445402429288888E+00  0.1416295719597972E+00  0.1387669502262502E+00
  0.1359519903160700E+00  0.1331842928654942E+00  0.1304634471352508E+00  0.1277890315852407E+00  0.1251606144467915E+00
  0.1225777542915683E+00  0.1200400005962040E+00  0.1175468943017998E+00  0.1150979683674939E+00  0.1126927483173047E+00
  0.1103307527795597E+00  0.1080114940182141E+00  0.1057344784554449E+00  0.1034992071849492E+00  0.1013051764753978E+00
  0.9915187826357134E-01  0.9703880063673601E-01  0.9496542830385526E-01  0.9293124305528244E-01  0.9093572421063464E-01
  0.8897834905454965E-01  0.8705859326012036E-01  0.8517593129978798E-01  0.8332983684354213E-01  0.8151978314431256E-01
  0.7974524341043937E-01  0.7800569116518684E-01  0.7630060059324795E-01  0.7462944687426093E-01  0.7299170650334669E-01
  0.7138685759872773E-01  0.6981438019651071E-01  0.6827375653271532E-01  0.6676447131269066E-01  0.6528601196804082E-01
  0.6383786890122722E-01  0.6241953571802467E-01  0.6103050944801273E-01  0.5967029075331262E-01  0.5833838412578873E-01
  0.5703429807293595E-01  0.5575754529269555E-01  0.5450764283745093E-01  0.5328411226744834E-01  0.5208647979391762E-01
  0.5091427641215018E-01  0.4976703802481137E-01  0.4864430555576834E-01  0.4754562505470237E-01  0.4647054779280030E-01
  0.4541863034979497E-01  0.4438943469265190E-01  0.4338252824617413E-01  0.4239748395581381E-01  0.4143388034297519E-01
  0.4049130155307954E-01  0.3956933739668014E-01  0.3866758338389158E-01  0.3778564075241397E-01  0.3692311648941125E-01
  0.3607962334751306E-01  0.3525477985519450E-01  0.3444821032179322E-01  0.3365954483740789E-01  0.3288841926792428E-01
  0.3213447524541133E-01  0.3139736015411273E-01  0.3067672711227059E-01  0.2997223494999528E-01  0.2928354818340142E-01
  0.2861033698522097E-01  0.2795227715209236E-01  0.2730905006872967E-01  0.2668034266915777E-01  0.2606584739520451E-01
  0.2546526215242489E-01  0.2487829026363274E-01  0.2430464042020962E-01  0.2374402663134671E-01  0.2319616817138284E-01
  0.2266078952538076E-01  0.2213762033309298E-01  0.2162639533144979E-01  0.2112685429570525E-01  0.2063874197936932E-01
  0.2016180805304514E-01  0.1969580704229143E-01  0.1924049826461898E-01  0.1879564576573121E-01  0.1836101825510632E-01
  0.1793638904102276E-01  0.1752153596511648E-01  0.1711624133655969E-01  0.1672029186594582E-01  0.1633347859895647E-01
  0.1595559684989024E-01  0.1558644613511937E-01  0.1522583010654685E-01  0.1487355648512268E-01  0.1452943699448363E-01
  0.1419328729476951E-01  0.1386492691667077E-01  0.1354417919575833E-01  0.1323087120713948E-01  0.1292483370048729E-01
  0.1262590103548138E-01  0.1233391111769983E-01  0.1204870533499811E-01  0.1177012849440655E-01  0.1149802875957784E-01
  0.1123225758881321E-01  0.1097266967369227E-01  0.1071912287833039E-01  0.1047147817928692E-01  0.1022959960614217E-01
  0.9993354182761885E-02  0.9762611869266703E-02  0.9537245504718544E-02  0.9317130750539875E-02  0.9102146034674382E-02
  0.8892172496501843E-02  0.8687093932513152E-02  0.8486796742755215E-02  0.8291169878050054E-02  0.8100104787993632E-02
  0.7913495369739022E-02  0.7731237917564952E-02  0.7553231073233765E-02  0.7379375777137201E-02  0.7209575220232551E-02
  0.7043734796766382E-02  0.6881762057785335E-02  0.6723566665431236E-02  0.6569060348018339E-02  0.6418156855888002E-02
  0.6270771918037339E-02  0.6126823199517593E-02  0.5986230259595501E-02  0.5848914510674015E-02  0.5714799177964487E-02
  0.5583809259904707E-02  0.5455871489316139E-02  0.5330914295292149E-02  0.5208867765811034E-02  0.5089663611064638E-02
  0.4973235127495869E-02  0.4859517162535752E-02  0.4748446080031983E-02  0.4639959726360640E-02  0.4533997397211255E-02
  0.4430499805037489E-02  0.4329409047163067E-02  0.4230668574534845E-02  0.4134223161112892E-02  0.4040018873888536E-02
  0.3948003043521151E-02  0.3858124235583646E-02  0.3770332222407680E-02  0.3684577955518563E-02  0.3600813538650950E-02
  0.3518992201334880E-02  0.3439068273043620E-02  0.3360997157892977E-02  0.3284735309882921E-02  0.3210240208672409E-02
  0.3137470335877226E-02  0.3066385151882383E-02  0.2996945073159002E-02  0.2929111450077184E-02  0.2862846545205119E-02
  0.2798113512085677E-02  0.2734876374481636E-02  0.2673100006080162E-02  0.2612750110648415E-02  0.2553793202630826E-02
  0.2496196588180185E-02  0.2439928346613392E-02  0.2384957312283843E-02  0.2331253056862119E-02  0.2278785872016628E-02
  0.2227526752486194E-02  0.2177447379536796E-02  0.2128520104794317E-02  0.2080717934445682E-02  0.2034014513800946E-02
  0.1988384112208497E-02  0.1943801608316133E-02  0.1900242475670935E-02  0.1857682768650307E-02  0.1816099108717723E-02
  0.1775468670995664E-02  0.1735769171149501E-02  0.1696978852575129E-02  0.1659076473884220E-02  0.1622041296680296E-02
  0.1585853073619415E-02  0.1550492036749384E-02  0.1515938886121044E-02  0.1482174778666009E-02  0.1449181317334679E-02
  0.1416940540488849E-02  0.1385434911543365E-02  0.1354647308851037E-02  0.1324561015825520E-02  0.1295159711296820E-02
  0.1266427460094093E-02  0.1238348703850623E-02  0.1210908252026080E-02  0.1184091273140925E-02  0.1157883286218222E-02
  0.1132270152428236E-02  0.1107238066930921E-02  0.1082773550912073E-02  0.1058863443808382E-02  0.1035494895717344E-02
  0.1012655359987475E-02  0.9903325859849279E-03  0.9685146120322208E-03  0.9471897585151659E-03  0.9263466211541677E-03
  0.9059740644358633E-03  0.8860612152016193E-03  0.8665974563889660E-03  0.8475724209226216E-03  0.8289759857514254E-03
  0.8107982660278562E-03  0.7930296094267378E-03  0.7756605905999137E-03  0.7586820057636229E-03  0.7420848674154411E-03
  0.7258603991778581E-03  0.7100000307652763E-03  0.6944953930717423E-03  0.6793383133763786E-03  0.6645208106637725E-03
  0.6500350910566801E-03  0.6358735433582115E-03  0.6220287347010563E-03  0.6084934063010620E-03  0.5952604693128040E-03
  0.5823230007846085E-03  0.5696742397107012E-03  0.5573075831781965E-03  0.5452165826065579E-03  0.5333949400774564E-03
  0.5218365047527058E-03  0.5105352693783157E-03  0.4994853668724885E-03  0.4886810669955729E-03  0.4781167731000743E-03
  0.4677870189586831E-03  0.4576864656685483E-03  0.4478098986298899E-03  0.4381522245972396E-03  0.4287084688014588E-03
  0.4194737721409468E-03  0.4104433884402770E-03  0.4016126817746694E-03  0.3929771238587610E-03  0.3845322914980235E-03
  0.3762738641014230E-03  0.3681976212537561E-03  0.3602994403462928E-03  0.3525752942642697E-03  0.3450212491298731E-03
  0.3376334620994043E-03  0.3304081792132531E-03  0.3233417332974845E-03  0.3164305419157036E-03  0.3096711053700721E-03
  0.3030600047502154E-03  0.2965939000288941E-03  0.2902695282033299E-03  0.2840837014810344E-03  0.2780333055090934E-03
  0.2721152976458699E-03  0.2663267052740620E-03  0.2606646241541353E-03  0.2551262168171740E-03  0.2497087109961535E-03
  0.2444093980947318E-03  0.2392256316926678E-03  0.2341548260869284E-03  0.2291944548676907E-03  0.2243420495283218E-03
  0.2195951981085839E-03  0.2149515438702074E-03  0.2104087840040722E-03  0.2059646683682476E-03  0.2016169982561023E-03
  0.1973636251938124E-03  0.1932024497664982E-03  0.1891314204723551E-03  0.1851485326040558E-03  0.1812518271567867E-03
  0.1774393897622836E-03  0.1737093496482130E-03  0.1700598786223050E-03  0.1664891900806435E-03  0.1629955380395145E-03
  0.1595772161902515E-03  0.1562325569765363E-03  0.1529599306935886E-03  0.1497577446087288E-03  0.1466244421028143E-03
  0.1435585018320076E-03  0.1405584369094318E-03  0.1376227941061913E-03  0.1347501530713289E-03  0.1319391255702296E-03
  0.1291883547410582E-03  0.1264965143687695E-03  0.1238623081762828E-03  0.1212844691324121E-03  0.1187617587761293E-03
  0.1162929665567938E-03  0.1138769091899378E-03  0.1115124300282586E-03  0.1091983984474327E-03  0.1069337092464074E-03
  0.1047172820618158E-03  0.1025480607961849E-03  0.1004250130595950E-03  0.9834712962447162E-04  0.9631342389320493E-04
  0.9432293137827199E-04  0.9237470919457255E-04  0.9046783556369201E-04  0.8860140932978521E-04  0.8677454948683110E-04
  0.8498639471695739E-04  0.8323610293959568E-04  0.8152285087118789E-04  0.7984583359520887E-04  0.7820426414224457E-04
  0.7659737307989356E-04  0.7502440811225960E-04  0.7348463368879514E-04  0.7197733062228902E-04  0.7050179571576289E-04
  0.6905734139808070E-04  0.6764329536805029E-04  0.6625900024682093E-04  0.6490381323838368E-04  0.6357710579797058E-04
  0.6227826330817632E-04  0.6100668476260868E-04  0.5976178245690178E-04  0.5854298168689984E-04  0.5734972045386013E-04
  0.5618144917649308E-04  0.5503763040968470E-04  0.5391773856974655E-04  0.5282125966602616E-04  0.5174769103874360E-04
  0.5069654110288959E-04  0.4966732909805883E-04  0.4865958484406350E-04  0.4767284850219820E-04  0.4670667034202434E-04
  0.4576061051353409E-04  0.4483423882458089E-04  0.4392713452343665E-04  0.4303888608636963E-04  0.4216909101011335E-04
  0.4131735560911606E-04  0.4048329481746024E-04  0.3966653199533699E-04  0.3886669873997145E-04  0.3808343470089551E-04
  0.3731638739946242E-04  0.3656521205250488E-04  0.3582957140004221E-04  0.3510913553693725E-04  0.3440358174841106E-04
  0.3371259434932962E-04  0.3303586452716654E-04  0.3237309018856353E-04  0.3172397580939679E-04  0.3108823228827483E-04
  0.3046557680338088E-04  0.2985573267258495E-04  0.2925842921675127E-04  0.2867340162615959E-04  0.2810039082997672E-04
  0.2753914336869786E-04  0.2698941126949746E-04  0.2645095192441325E-04  0.2592352797130521E-04  0.2540690717751854E-04
  0.2490086232619192E-04  0.2440517110514694E-04  0.2391961599830124E-04  0.2344398417954404E-04  0.2297806740901784E-04
  0.2252166193175249E-04  0.2207456837859340E-04  0.2163659166937296E-04  0.2120754091827420E-04  0.2078722934133198E-04
  0.2037547416602773E-04  0.1997209654292329E-04  0.1957692145929255E-04  0.1918977765469937E-04  0.1881049753848164E-04
  0.1843891710909341E-04  0.1807487587526440E-04  0.1771821677893579E-04  0.1736878611992773E-04  0.1702643348230370E-04
  0.1669101166238765E-04  0.1636237659839992E-04  0.1604038730167212E-04  0.1572490578940531E-04  0.1541579701893746E-04
  0.1511292882348292E-04  0.1481617184931256E-04  0.1452539949433943E-04  0.1424048784808013E-04  0.1396131563295782E-04
  0.1368776414691753E-04  0.1341971720732428E-04  0.1315706109611258E-04  0.1289968450616152E-04  0.1264747848886425E-04
  0.1240033640286790E-04  0.1215815386395410E-04  0.1192082869603665E-04  0.1168826088324899E-04  0.1146035252309746E-04
  0.1123700778065667E-04  0.1101813284378135E-04  0.1080363587931415E-04  0.1059342699026397E-04  0.1038741817393522E-04
  0.1018552328098489E-04  0.9987657975386252E-05  0.9793739695280451E-05  0.9603687614693172E-05  0.9417422606099065E-05
  0.9234867203813097E-05  0.9055945568191687E-05  0.8880583450623355E-05  0.8708708159292984E-05  0.8540248525700842E-05
  0.8375134871919578E-05  0.8213298978573443E-05  0.8054674053521682E-05  0.7899194701232323E-05  0.7746796892828626E-05
  0.7597417936795033E-05  0.7450996450326241E-05  0.7307472331305612E-05  0.7166786730899042E-05  0.7028882026749381E-05
  0.6893701796759432E-05  0.6761190793448576E-05  0.6631294918871911E-05  0.6503961200087741E-05  0.6379137765162013E-05
  0.6256773819697641E-05  0.6136819623876515E-05  0.6019226470002811E-05  0.5903946660537101E-05  0.5790933486609164E-05
  0.5680141206999414E-05  0.5571525027578813E-05  0.5465041081196225E-05  0.5360646408003635E-05  0.5258298936209850E-05
  0.5157957463252173E-05  0.5059581637377917E-05  0.4963131939625385E-05  0.4868569666196678E-05  0.4775856911212523E-05
  0.4684956549841267E-05  0.4595832221793728E-05  0.4508448315175237E-05  0.4422769950687725E-05  0.4338762966173318E-05
  0.4256393901492515E-05  0.4175629983728981E-05  0.4096439112714263E-05  0.4018789846864852E-05  0.3942651389325011E-05
  0.3867993574408368E-05  0.3794786854332073E-05  0.3723002286236477E-05  0.3652611519484449E-05  0.3583586783234171E-05
  0.3515900874279100E-05  0.3449527145149322E-05  0.3384439492468861E-05  0.3320612345562650E-05  0.3258020655308439E-05
  0.3196639883227478E-05  0.3136445990809462E-05  0.3077415429066036E-05  0.3019525128308018E-05  0.2962752488141685E-05
  0.2907075367678800E-05  0.2852472075956282E-05  0.2798921362560324E-05  0.2746402408451111E-05  0.2694894816983084E-05
  0.2644378605117147E-05  0.2594834194820062E-05  0.2546242404647162E-05  0.2498584441504611E-05  0.2451841892586767E-05
  0.2405996717485353E-05  0.2361031240466282E-05  0.2316928142910863E-05  0.2273670455917431E-05  0.2231241553060114E-05
  0.2189625143301448E-05  0.2148805264055043E-05  0.2108766274395670E-05  0.2069492848412909E-05  0.2030969968705808E-05
  0.1993182920015070E-05  0.1956117282990088E-05  0.1919758928087699E-05  0.1884094009599851E-05  0.1849108959807582E-05
  0.1814790483258176E-05  0.1781125551163335E-05  0.1748101395915231E-05  0.1715705505718378E-05  0.1683925619334449E-05
  0.1652749720937742E-05  0.1622166035079032E-05  0.1592163021755228E-05  0.1562729371582697E-05  0.1533854001072090E-05
  0.1505526048002295E-05  0.1477734866891495E-05  0.1450470024563333E-05  0.1423721295805938E-05  0.1397478659121923E-05
  0.1371732292567510E-05  0.1346472569678598E-05  0.1321690055482221E-05  0.1297375502591290E-05  0.1273519847381065E-05
  0.1250114206245435E-05  0.1227149871931348E-05  0.1204618309949832E-05  0.1182511155061768E-05  0.1160820207836960E-05
  0.1139537431284935E-05  0.1118654947555866E-05  0.1098165034710138E-05  0.1078060123555200E-05  0.1058332794548115E-05
  0.1038975774762486E-05  0.1019981934918435E-05  0.1001344286474153E-05  0.9830559787779046E-06  0.9651102962789781E-06
  0.9475006557965578E-06  0.9302206038451034E-06  0.9132638140151136E-06  0.8966240844081609E-06  0.8802953351248893E-06
  0.8642716058050381E-06  0.8485470532182116E-06  0.8331159489044840E-06  0.8179726768636603E-06  0.8031117312921990E-06
  0.7885277143668698E-06  0.7742153340740018E-06  0.7601694020835378E-06  0.7463848316667857E-06  0.7328566356570686E-06
  0.7195799244522819E-06  0.7065499040585662E-06  0.6937618741741268E-06  0.6812112263124147E-06  0.6688934419638698E-06
  0.6568040907953106E-06  0.6449388288863291E-06  0.6332933970017355E-06  0.6218636188994799E-06  0.6106453996731631E-06
  0.5996347241284651E-06  0.5888276551928254E-06  0.5782203323575715E-06  0.5678089701519419E-06  0.5575898566482112E-06
  0.5475593519973831E-06  0.5377138869947241E-06  0.5280499616745363E-06  0.5185641439336239E-06  0.5092530681827297E-06
  0.5001134340254920E-06  0.4911420049642414E-06  0.4823356071321291E-06  0.4736911280510537E-06  0.4652055154147978E-06
  0.4568757758968956E-06  0.4486989739826759E-06  0.4406722308250415E-06  0.4327927231234003E-06  0.4250576820253755E-06
  0.4174643920506991E-06  0.4100101900369608E-06  0.4026924641066468E-06  0.3955086526550794E-06  0.3884562433588436E-06
  0.3815327722042136E-06  0.3747358225352397E-06  0.3680630241210119E-06  0.3615120522417879E-06  0.3550806267935046E-06
  0.3487665114103819E-06  0.3425675126051770E-06  0.3364814789267506E-06  0.3305063001346125E-06  0.3246399063900497E-06
  0.3188802674635190E-06  0.3132253919579900E-06  0.3076733265478660E-06  0.3022221552331902E-06  0.2968699986088313E-06
  0.2916150131483126E-06  0.2864553905019969E-06  0.2813893568093553E-06  0.2764151720249757E-06  0.2715311292581004E-06
  0.2667355541253507E-06  0.2620268041164005E-06  0.2574032679723458E-06  0.2528633650764670E-06  0.2484055448571865E-06
  0.2440282862029103E-06  0.2397300968885739E-06  0.2355095130135970E-06  0.2313650984510606E-06  0.2272954443078415E-06
  0.2232991683954952E-06  0.2193749147116857E-06  0.2155213529319110E-06  0.2117371779113371E-06  0.2080211091965440E-06
  0.2043718905469550E-06  0.2007882894657678E-06  0.1972690967402049E-06  0.1938131259908693E-06  0.1904192132300348E-06
  0.1870862164287011E-06  0.1838130150922007E-06  0.1805985098442301E-06  0.1774416220190900E-06  0.1743412932620052E-06
  0.1712964851373365E-06  0.1683061787445273E-06  0.1653693743416512E-06  0.1624850909763687E-06  0.1596523661241833E-06
  0.1568702553338129E-06  0.1541378318795668E-06  0.1514541864205600E-06  0.1488184266666358E-06  0.1462296770508762E-06
  0.1436870784085366E-06  0.1411897876623091E-06  0.1387369775137605E-06  0.1363278361408361E-06  0.1339615669012968E-06
  0.1316373880419861E-06  0.1293545324137907E-06  0.1271122471921897E-06  0.1249097936032875E-06  0.1227464466552012E-06
  0.1206214948747198E-06  0.1185342400491019E-06  0.1164839969729377E-06  0.1144700931999497E-06  0.1124918687996442E-06
  0.1105486761187232E-06  0.1086398795471414E-06  0.1067648552887424E-06  0.1049229911363527E-06  0.1031136862512748E-06
  0.1013363509470655E-06  0.9959040647752898E-07  0.9787528482884121E-07  0.9619042851570981E-07  0.9453529038150764E-07
  0.9290933340228551E-07  0.9131203049459205E-07  0.8974286432703253E-07  0.8820132713547794E-07  0.8668692054186461E-07
  0.8519915537650256E-07  0.8373755150383631E-07  0.8230163765157174E-07  0.8089095124312137E-07  0.7950503823328461E-07
  0.7814345294711398E-07  0.7680575792189431E-07  0.7549152375217390E-07  0.7420032893779694E-07  0.7293175973486181E-07
  0.7168541000956484E-07  0.7046088109485618E-07  0.6925778164986682E-07  0.6807572752203929E-07  0.6691434161192001E-07
  0.6577325374055146E-07  0.6465210051941770E-07  0.6355052522289478E-07  0.6246817766315076E-07  0.6140471406745091E-07
  0.6035979695782316E-07  0.5933309503303149E-07  0.5832428305281429E-07  0.5733304172434816E-07  0.5635905759088485E-07
  0.5540202292252348E-07  0.5446163560907883E-07  0.5353759905499629E-07  0.5262962207628336E-07  0.5173741879941078E-07
  0.5086070856214528E-07  0.4999921581628324E-07  0.4915267003223722E-07  0.4832080560544968E-07  0.4750336176458868E-07
  0.4670008248149997E-07  0.4591071638287171E-07  0.4513501666358810E-07  0.4437274100173050E-07  0.4362365147519776E-07
  0.4288751447991719E-07  0.4216410064960676E-07  0.4145318477706887E-07  0.4075454573697615E-07  0.4006796641012729E-07
  0.3939323360913936E-07  0.3873013800555388E-07  0.3807847405832388E-07  0.3743803994365720E-07  0.3680863748619294E-07
   29     63.546         3.6150    fcc     
  0.0000000000000000E+00 -0.1756098744239531E-01 -0.3503053698214442E-01 -0.5240887699387686E-01 -0.6969623585222418E-01
 -0.8689284193181734E-01 -0.1039989236072877E+00 -0.1210147092532655E+00 -0.1379404272443819E+00 -0.1547763059552689E+00
 -0.1715225737605559E+00 -0.1881794590348745E+00 -0.2047471901528567E+00 -0.2212259954891317E+00 -0.2376161034183317E+00
 -0.2539177423150869E+00 -0.2701311405540296E+00 -0.2862565265097892E+00 -0.3022941285569976E+00 -0.3182441750702856E+00
 -0.3341068944242839E+00 -0.3498825149936236E+00 -0.3655712651529361E+00 -0.3811733732768520E+00 -0.3966890677400023E+00
 -0.4121185769170179E+00 -0.4274621291825306E+00 -0.4427199529111697E+00 -0.4578922764775676E+00 -0.4729793282563548E+00
 -0.4879813366221627E+00 -0.5028985299496211E+00 -0.5177311366133622E+00 -0.5324793849880172E+00 -0.5471435034482161E+00
 -0.5617237203685893E+00 -0.5762202641237694E+00 -0.5906333630883869E+00 -0.6049632456370720E+00 -0.6192101401444565E+00
 -0.6333742749851714E+00 -0.6474558785338468E+00 -0.6614551791651144E+00 -0.6753724052536056E+00 -0.6892077851739505E+00
 -0.7029615473007806E+00 -0.7166339200087259E+00 -0.7302251316724191E+00 -0.7437354106664898E+00 -0.7571649853655695E+00
 -0.7705140841442892E+00 -0.7837829353772796E+00 -0.7969717674391720E+00 -0.8100808087045974E+00 -0.8231102875481864E+00
 -0.8360604323445702E+00 -0.8489314714683793E+00 -0.8617236332942457E+00 -0.8744371461967999E+00 -0.8870722385506729E+00
 -0.8996291387304955E+00 -0.9121080751108984E+00 -0.9245092760665132E+00 -0.9368329699719704E+00 -0.9490793852019013E+00
 -0.9612487501309372E+00 -0.9733412931337082E+00 -0.9853572425848465E+00 -0.9972968268589817E+00 -0.1009160274330745E+01
 -0.1020947813374769E+01 -0.1032659672365682E+01 -0.1044296079678117E+01 -0.1055857263686705E+01 -0.1067343452766077E+01
 -0.1078754875290862E+01 -0.1090091759635692E+01 -0.1101354334175199E+01 -0.1112542827284013E+01 -0.1123657467336767E+01
 -0.1134698482708088E+01 -0.1145666101772611E+01 -0.1156560552904964E+01 -0.1167382064479780E+01 -0.1178130864871689E+01
 -0.1188807182455322E+01 -0.1199411245605310E+01 -0.1209943282696284E+01 -0.1220403522102876E+01 -0.1230792192199715E+01
 -0.1241109521361434E+01 -0.1251355737962663E+01 -0.1261531070378032E+01 -0.1271635746982174E+01 -0.1281669996149719E+01
 -0.1291634046255298E+01 -0.1301528125673541E+01 -0.1311352462779080E+01 -0.1321107285946547E+01 -0.1330792823550571E+01
 -0.1340409303965785E+01 -0.1349956955566817E+01 -0.1359436006728301E+01 -0.1368846685824867E+01 -0.1378189221231145E+01
 -0.1387463841321767E+01 -0.1396670774471364E+01 -0.1405810249054567E+01 -0.1414882493446006E+01 -0.1423887736020313E+01
