  DATE: 2018-03-30 CONTRIBUTOR: Xiaowang Zhou xzhou@sandia.gov and Lucas Hale lucas.hale@nist.gov CITATION: X. W. Zhou, R. A. Johnson, H. N. G. Wadley, Phys. Rev. B, 69, 144113(2004)
  Generated from Zhou04_create_v2.f
  Fixes precision issues with older version
    1 Co                      
 2000  0.5002501250625312E-01 2000  0.2803171282734840E-02  0.5603539394186946E+01
   27     58.933         3.5440    fcc     
  0.0000000000000000E+00 -0.1393362734526171E-01 -0.2781587511583949E-01 -0.4164683981654194E-01 -0.5542661795217318E-01
 -0.6915530602754161E-01 -0.8283300054745069E-01 -0.9645979801670856E-01 -0.1100357949401201E+00 -0.1235610878224933E+00
 -0.1370357731686314E+00 -0.1504599474833432E+00 -0.1638337072714338E+00 -0.1771571490377082E+00 -0.1904303692869740E+00
 -0.2036534645240364E+00 -0.2168265312537028E+00 -0.2299496659807776E+00 -0.2430229652100684E+00 -0.2560465254463802E+00
 -0.2690204431945207E+00 -0.2819448149592942E+00 -0.2948197372455070E+00 -0.3076453065579670E+00 -0.3204216194014780E+00
 -0.3331487722808477E+00 -0.3458268617008813E+00 -0.3584559841663864E+00 -0.3710362361821666E+00 -0.3835677142530305E+00
 -0.3960505148837821E+00 -0.4084847345792304E+00 -0.4208704698441790E+00 -0.4332078171834337E+00 -0.4454968731018030E+00
 -0.4577377341040909E+00 -0.4699304966951043E+00 -0.4820752573796490E+00 -0.4941721126625327E+00 -0.5062211590485597E+00
 -0.5182224930425359E+00 -0.5301762111492685E+00 -0.5420824098735639E+00 -0.5539411857202277E+00 -0.5657526351940647E+00
 -0.5775168547998835E+00 -0.5892339410424878E+00 -0.6009039904266860E+00 -0.6125270994572820E+00 -0.6241033646390841E+00
 -0.6356328824768966E+00 -0.6471157494755266E+00 -0.6585520621397796E+00 -0.6699419169744629E+00 -0.6812854104843815E+00
 -0.6925826391743410E+00 -0.7038336995491496E+00 -0.7150386881136113E+00 -0.7261977013725334E+00 -0.7373108358307212E+00
 -0.7483781879929821E+00 -0.7593998543641212E+00 -0.7703759314489440E+00 -0.7813065157522576E+00 -0.7921917037788688E+00
 -0.8030315920335829E+00 -0.8138262770212048E+00 -0.8245758552465430E+00 -0.8352804232144020E+00 -0.8459400774295885E+00
 -0.8565549143969077E+00 -0.8671250306211680E+00 -0.8776505226071730E+00 -0.8881314868597294E+00 -0.8985680198836443E+00
 -0.9089602181837231E+00 -0.9193081782647724E+00 -0.9296119966315975E+00 -0.9398717697890053E+00 -0.9500875942418019E+00
 -0.9602595664947926E+00 -0.9703877830527838E+00 -0.9804723404205826E+00 -0.9905133351029944E+00 -0.1000510863604825E+01
 -0.1010465022430881E+01 -0.1020375908085968E+01 -0.1030243617074892E+01 -0.1040068245902460E+01 -0.1049849891073478E+01
 -0.1059588649092752E+01 -0.1069284616465087E+01 -0.1078937889695291E+01 -0.1088548565288169E+01 -0.1098116739748527E+01
 -0.1107642509581171E+01 -0.1117125971290908E+01 -0.1126567221382544E+01 -0.1135966356360884E+01 -0.1145323472730734E+01
 -0.1154638666996902E+01 -0.1163912035664194E+01 -0.1173143675237414E+01 -0.1182333682221370E+01 -0.1191482153120867E+01
 -0.1200589184440712E+01 -0.1209654872685710E+01 -0.1218679314360668E+01 -0.1227662605970392E+01 -0.1236604844019688E+01
 -0.1245506125013362E+01 -0.1254366545456221E+01 -0.1263186201853070E+01 -0.1271965190708715E+01 -0.1280703608527963E+01
 -0.1289401551815620E+01 -0.1298059117076491E+01 -0.1306676400815383E+01 -0.1315253499537103E+01 -0.1323790509746456E+01
 -0.1332287527948248E+01 -0.1340744650647284E+01 -0.1349161974348374E+01 -0.1357539595556321E+01 -0.1365877610775931E+01
 -0.1374176116512011E+01 -0.1382435209269367E+01 -0.1390654985552806E+01 -0.1398835541867132E+01 -0.1406976974717153E+01
 -0.1415079380607675E+01 -0.1423142856043503E+01 -0.1431167497529443E+01 -0.1439153401570303E+01 -0.1447100664670888E+01
 -0.1455009383336004E+01 -0.1462879654070456E+01 -0.1470711573379052E+01 -0.1478505237766598E+01 -0.1486260743737899E+01
 -0.1493978187797761E+01 -0.1501657666450992E+01 -0.1509299276202396E+01 -0.1516903113556780E+01 -0.1524469275018951E+01
 -0.1531997857093714E+01 -0.1539488956285874E+01 -0.1546942669100239E+01 -0.1554359092041616E+01 -0.1561738321614809E+01
 -0.1569080454324624E+01 -0.1576385586675868E+01 -0.1583653815173348E+01 -0.1590885236321869E+01 -0.1598079946626236E+01
 -0.1605238042591258E+01 -0.1612359620721739E+01 -0.1619444777522485E+01 -0.1626493609498303E+01 -0.1633506213153999E+01
 -0.1640482684994379E+01 -0.1647423121524249E+01 -0.1654327619248415E+01 -0.1661196274671684E+01 -0.1668029184298861E+01
 -0.1674826444634752E+01 -0.1681588152184166E+01 -0.1688314403451905E+01 -0.1695005294942777E+01 -0.1701660923161588E+01
 -0.1708281384613145E+01 -0.1714866775802252E+01 -0.1721417193233716E+01 -0.1727932733412344E+01 -0.1734413492842943E+01
 -0.1740859568030316E+01 -0.1747271055479272E+01 -0.1753648051694615E+01 -0.1759990653181153E+01 -0.1766298956443691E+01
 -0.1772573057987035E+01 -0.1778813054315993E+01 -0.1785019041935367E+01 -0.1791191117349967E+01 -0.1797329377064597E+01
 -0.1803433917584065E+01 -0.1809504835413176E+01 -0.1815542227056735E+01 -0.1821546189019550E+01 -0.1827516817806426E+01
 -0.1833454209922170E+01 -0.1839358461871587E+01 -0.1845229670159485E+01 -0.1851067931290667E+01 -0.1856873341769942E+01
 -0.1862645998102115E+01 -0.1868385996791993E+01 -0.1874093434344380E+01 -0.1879768407264083E+01 -0.1885411012055910E+01
 -0.1891021345224665E+01 -0.1896599503275155E+01 -0.1902145582712185E+01 -0.1907659680040563E+01 -0.1913141891765094E+01
 -0.1918592314390584E+01 -0.1924011044421839E+01 -0.1929398178363666E+01 -0.1934753812720871E+01 -0.1940078043998259E+01
 -0.1945370968700637E+01 -0.1950632683332811E+01 -0.1955863284399587E+01 -0.1961062868405770E+01 -0.1966231531856169E+01
 -0.1971369371255588E+01 -0.1976476483108834E+01 -0.1981552963920711E+01 -0.1986598910196028E+01 -0.1991614418439590E+01
 -0.1996599585156202E+01 -0.2001554506850672E+01 -0.2006479280027806E+01 -0.2011374001192407E+01 -0.2016238766849285E+01
 -0.2021073673503245E+01 -0.2025878817659092E+01 -0.2030654295821632E+01 -0.2035400204495673E+01 -0.2040116640186020E+01
 -0.2044803699397479E+01 -0.2049461478634856E+01 -0.2054090074402958E+01 -0.2058689583206590E+01 -0.2063260101550559E+01
 -0.2067801725939670E+01 -0.2072314552878730E+01 -0.2076798678872546E+01 -0.2081254200425922E+01 -0.2085681214043666E+01
 -0.2090079816230583E+01 -0.2094450103491480E+01 -0.2098792172331161E+01 -0.2103106119254435E+01 -0.2107392040766106E+01
 -0.2111650033370982E+01 -0.2115880193573867E+01 -0.2120082617879568E+01 -0.2124257402792892E+01 -0.2128404644818644E+01
 -0.2132524440461631E+01 -0.2136616886226659E+01 -0.2140682078618533E+01 -0.2144720114142059E+01 -0.2148731089302045E+01
 -0.2152715100603296E+01 -0.2156672244550618E+01 -0.2160602617648817E+01 -0.2164506316402700E+01 -0.2168383437317073E+01
 -0.2172234076896741E+01 -0.2176058331646511E+01 -0.2179856298071188E+01 -0.2183628072675580E+01 -0.2187373751964492E+01
 -0.2191093432442730E+01 -0.2194787210615101E+01 -0.2198455182986410E+01 -0.2202097446061463E+01 -0.2205714096345067E+01
 -0.2209305230342029E+01 -0.2212870944557153E+01 -0.2216411335495246E+01 -0.2219926499661113E+01 -0.2223416533559564E+01
 -0.2226881533695401E+01 -0.2230321596573431E+01 -0.2233736818698462E+01 -0.2237127296575297E+01 -0.2240493126708745E+01
 -0.2243834405603611E+01 -0.2247151229764702E+01 -0.2250443695696821E+01 -0.2253711899904778E+01 -0.2256955938893377E+01
 -0.2260175909167424E+01 -0.2263371907231727E+01 -0.2266544029591090E+01 -0.2269692372750320E+01 -0.2272817033214223E+01
 -0.2275918107487605E+01 -0.2278995692075273E+01 -0.2282049883482032E+01 -0.2285080778212689E+01 -0.2288088472772049E+01
 -0.2291073063664918E+01 -0.2294034647396104E+01 -0.2296973320470412E+01 -0.2299889179392648E+01 -0.2302782320667618E+01
 -0.2305652840800128E+01 -0.2308500836294985E+01 -0.2311326403656994E+01 -0.2314129639390963E+01 -0.2316910640001695E+01
 -0.2319669501993999E+01 -0.2322406321872680E+01 -0.2325121196142545E+01 -0.2327814221308398E+01 -0.2330485493875047E+01
 -0.2333135110347297E+01 -0.2335763167229954E+01 -0.2338369761027826E+01 -0.2340954988245717E+01 -0.2343518945388435E+01
 -0.2346061728960784E+01 -0.2348583435467572E+01 -0.2351084161413604E+01 -0.2353564003303687E+01 -0.2356023057642626E+01
 -0.2358461420935227E+01 -0.2360879189686298E+01 -0.2363276460400643E+01 -0.2365653329583069E+01 -0.2368009893738383E+01
 -0.2370346249371390E+01 -0.2372662492986896E+01 -0.2374958721089708E+01 -0.2377235030184631E+01 -0.2379491516776473E+01
 -0.2381728277370037E+01 -0.2383945408470132E+01 -0.2386143006581563E+01 -0.2388321168209136E+01 -0.2390479989857657E+01
 -0.2392619568031933E+01 -0.2394739999236769E+01 -0.2396841379976972E+01 -0.2398923806757348E+01 -0.2400987376082703E+01
 -0.2403032184457843E+01 -0.2405058328387573E+01 -0.2407065904376701E+01 -0.2409055008930033E+01 -0.2411025738552374E+01
 -0.2412978189748530E+01 -0.2414912459023309E+01 -0.2416828642881515E+01 -0.2418726837827955E+01 -0.2420607140367435E+01
 -0.2422469647004761E+01 -0.2424314454244740E+01 -0.2426141658592177E+01 -0.2427951356551878E+01 -0.2429743644628650E+01
 -0.2431518619327299E+01 -0.2433276377152631E+01 -0.2435017014609452E+01 -0.2436740628202568E+01 -0.2438447314436785E+01
 -0.2440137169816909E+01 -0.2441810290847747E+01 -0.2443466774034105E+01 -0.2445106715880788E+01 -0.2446730212892603E+01
 -0.2448337361574356E+01 -0.2449928258430853E+01 -0.2451502999966900E+01 -0.2453061682687304E+01 -0.2454604403096870E+01
 -0.2456131257700404E+01 -0.2457642343002713E+01 -0.2459137755508602E+01 -0.2460617591722880E+01 -0.2462081948150349E+01
 -0.2463530921295817E+01 -0.2464964607664092E+01 -0.2466383103759977E+01 -0.2467786506088280E+01 -0.2469174911153806E+01
 -0.2470548415461362E+01 -0.2471907115515754E+01 -0.2473251107821787E+01 -0.2474580488884269E+01 -0.2475895355208005E+01
 -0.2477195803297801E+01 -0.2478481929658463E+01 -0.2479753830794798E+01 -0.2481011603211612E+01 -0.2482255343413711E+01
 -0.2483485147905899E+01 -0.2484701113192986E+01 -0.2485903335779776E+01 -0.2487091912171074E+01 -0.2488266938871688E+01
 -0.2489428512386423E+01 -0.2490576729220086E+01 -0.2491711685877482E+01 -0.2492833478863418E+01 -0.2493942204682701E+01
 -0.2495037959840135E+01 -0.2496120840840527E+01 -0.2497190944188684E+01 -0.2498248366389411E+01 -0.2499293203947514E+01
 -0.2500325553367801E+01 -0.2501345511155076E+01 -0.2502353173814145E+01 -0.2503348637849816E+01 -0.2504331999766893E+01
 -0.2505303356070184E+01 -0.2506262803264494E+01 -0.2507210437854630E+01 -0.2508146356345397E+01 -0.2509070655241602E+01
 -0.2509983431048050E+01 -0.2510884780269548E+01 -0.2511774799410903E+01 -0.2512653584976920E+01 -0.2513521233472404E+01
 -0.2514377841402164E+01 -0.2515223505271003E+01 -0.2516058321583730E+01 -0.2516882386845149E+01 -0.2517695797560067E+01
 -0.2518498650233289E+01 -0.2519291041369623E+01 -0.2520073067473874E+01 -0.2520844825050848E+01 -0.2521606410605352E+01
 -0.2522357920642190E+01 -0.2523099451666171E+01 -0.2523831100182100E+01 -0.2524552962694782E+01 -0.2525265135709025E+01
 -0.2525967715729634E+01 -0.2526660799261415E+01 -0.2527344482809174E+01 -0.2528018862877717E+01 -0.2528684035971852E+01
 -0.2529340098596383E+01 -0.2529987147256116E+01 -0.2530625278455858E+01 -0.2531254588700417E+01 -0.2531875174494595E+01
 -0.2532487132343201E+01 -0.2533090558751041E+01 -0.2533685550222920E+01 -0.2534272203263645E+01 -0.2534850614378021E+01
 -0.2535420880070856E+01 -0.2535983096846953E+01 -0.2536537361211122E+01 -0.2537083769668166E+01 -0.2537622418722894E+01
 -0.2538153404880109E+01 -0.2538676824644619E+01 -0.2539192774521229E+01 -0.2539701351014747E+01 -0.2540202650629977E+01
 -0.2540696769871726E+01 -0.2541183805244801E+01 -0.2541663853254006E+01 -0.2542137396279985E+01 -0.2542603704040148E+01
 -0.2543063192353360E+01 -0.2543515886848302E+01 -0.2543961813153654E+01 -0.2544400996898096E+01 -0.2544833463710306E+01
 -0.2545259239218965E+01 -0.2545678349052752E+01 -0.2546090818840348E+01 -0.2546496674210431E+01 -0.2546895940791681E+01
 -0.2547288644212779E+01 -0.2547674810102403E+01 -0.2548054464089234E+01 -0.2548427631801951E+01 -0.2548794338869233E+01
 -0.2549154610919761E+01 -0.2549508473582214E+01 -0.2549855952485272E+01 -0.2550197073257615E+01 -0.2550531861527922E+01
 -0.2550860342924872E+01 -0.2551182543077146E+01 -0.2551498487613423E+01 -0.2551808202162384E+01 -0.2552111712352707E+01
 -0.2552409043813072E+01 -0.2552700222172159E+01 -0.2552985273058648E+01 -0.2553264222101218E+01 -0.2553537094928549E+01
 -0.2553803917169321E+01 -0.2554064714452213E+01 -0.2554319512405906E+01 -0.2554568336659078E+01 -0.2554811212840409E+01
 -0.2555048166578579E+01 -0.2555279223502269E+01 -0.2555504409240156E+01 -0.2555723749420922E+01 -0.2555937269673246E+01
 -0.2556144995625806E+01 -0.2556346952907285E+01 -0.2556543167146360E+01 -0.2556733663971711E+01 -0.2556918469012019E+01
 -0.2557097607895963E+01 -0.2557271106252222E+01 -0.2557438989709477E+01 -0.2557601283896406E+01 -0.2557758014441690E+01
 -0.2557909206974009E+01 -0.2558054887122041E+01 -0.2558195080514467E+01 -0.2558329812779967E+01 -0.2558459109547219E+01
 -0.2558582996444904E+01 -0.2558701499101702E+01 -0.2558814643146291E+01 -0.2558922454207353E+01 -0.2559024957913565E+01
 -0.2559122179893609E+01 -0.2559214145776163E+01 -0.2559300881189909E+01 -0.2559382411763524E+01 -0.2559458763125689E+01
 -0.2559529960905083E+01 -0.2559596030730387E+01 -0.2559656998230280E+01 -0.2559712889033441E+01 -0.2559763728768550E+01
 -0.2559809543064287E+01 -0.2559850357549332E+01 -0.2559886197852364E+01 -0.2559917089602064E+01 -0.2559943058427109E+01
 -0.2559964129956182E+01 -0.2559980329817960E+01 -0.2559991683641123E+01 -0.2559998217054352E+01 -0.2559999955686327E+01
 -0.2559996925165725E+01 -0.2559989151121229E+01 -0.2559976659181516E+01 -0.2559959474975267E+01 -0.2559937624131162E+01
 -0.2559911132277879E+01 -0.2559880025044100E+01 -0.2559844328058503E+01 -0.2559804066949768E+01 -0.2559759267346575E+01
 -0.2559709954877603E+01 -0.2559656155171533E+01 -0.2559597893857044E+01 -0.2559535196562815E+01 -0.2559468088917527E+01
 -0.2559396596549858E+01 -0.2559320745088489E+01 -0.2559240560162099E+01 -0.2559156067399368E+01 -0.2559067292428976E+01
 -0.2558974260879602E+01 -0.2558876998379927E+01 -0.2558775530558628E+01 -0.2558669883044388E+01 -0.2558560081465884E+01
 -0.2558446151451797E+01 -0.2558328118630807E+01 -0.2558206008631593E+01 -0.2558079847082834E+01 -0.2557949659613211E+01
 -0.2557815471851403E+01 -0.2557677309426090E+01 -0.2557535197965951E+01 -0.2557389163099667E+01 -0.2557239230455916E+01
 -0.2557085425663379E+01 -0.2556927774350735E+01 -0.2556766302146665E+01 -0.2556601034679846E+01 -0.2556431997578960E+01
 -0.2556259216472686E+01 -0.2556082716989704E+01 -0.2555902524758693E+01 -0.2555718665408333E+01 -0.2555531164567303E+01
 -0.2555340047864284E+01 -0.2555145340927954E+01 -0.2554947069386996E+01 -0.2554745258870085E+01 -0.2554539935005904E+01
 -0.2554331123423133E+01 -0.2554118849750449E+01 -0.2553903139616533E+01 -0.2553684018650065E+01 -0.2553461512479725E+01
 -0.2553235646734192E+01 -0.2553006447042146E+01 -0.2552773939032266E+01 -0.2552538148333232E+01 -0.2552299100573725E+01
 -0.2552056821382422E+01 -0.2551811336388005E+01 -0.2551562671219154E+01 -0.2551310851504547E+01 -0.2551055902872863E+01
 -0.2550797850952784E+01 -0.2550536721372989E+01 -0.2550272539762157E+01 -0.2550005331748968E+01 -0.2549735122962101E+01
 -0.2549461939030238E+01 -0.2549185805582055E+01 -0.2548906748246235E+01 -0.2548624792651457E+01 -0.2548339964426399E+01
 -0.2548052289199742E+01 -0.2547761792600165E+01 -0.2547468500256349E+01 -0.2547172437796973E+01 -0.2546873630850716E+01
 -0.2546572105046258E+01 -0.2546267441768414E+01 -0.2545959864634626E+01 -0.2545648970924753E+01 -0.2545334769215038E+01
 -0.2545017268046806E+01 -0.2544696475926660E+01 -0.2544372401326679E+01 -0.2544045052684606E+01 -0.2543714438404044E+01
 -0.2543380566854646E+01 -0.2543043446372300E+01 -0.2542703085259322E+01 -0.2542359491784637E+01 -0.2542012674183970E+01
 -0.2541662640660025E+01 -0.2541309399382669E+01 -0.2540952958489112E+01 -0.2540593326084092E+01 -0.2540230510240044E+01
 -0.2539864518997287E+01 -0.2539495360364195E+01 -0.2539123042317371E+01 -0.2538747572801826E+01 -0.2538368959731145E+01
 -0.2537987210987661E+01 -0.2537602334422629E+01 -0.2537214337856387E+01 -0.2536823229078529E+01 -0.2536429015848070E+01
 -0.2536031705893613E+01 -0.2535631306913511E+01 -0.2535227826576030E+01 -0.2534821272519514E+01 -0.2534411652352542E+01
 -0.2533998973654091E+01 -0.2533583243973691E+01 -0.2533164470831589E+01 -0.2532742661718896E+01 -0.2532317824097751E+01
 -0.2531889965401473E+01 -0.2531459093034711E+01 -0.2531025214373601E+01 -0.2530588336765913E+01 -0.2530148467531204E+01
 -0.2529705613960967E+01 -0.2529259783318779E+01 -0.2528810982840445E+01 -0.2528359219734152E+01 -0.2527904501180605E+01
 -0.2527446834333178E+01 -0.2526986226318054E+01 -0.2526522684234369E+01 -0.2526056215154350E+01 -0.2525586826123463E+01
 -0.2525114524160542E+01 -0.2524639316257939E+01 -0.2524161209381649E+01 -0.2523680210471460E+01 -0.2523196326441079E+01
 -0.2522709564178270E+01 -0.2522219930544990E+01 -0.2521727432377520E+01 -0.2521232076486599E+01 -0.2520733869657552E+01
 -0.2520232818650423E+01 -0.2519728930200106E+01 -0.2519222211016473E+01 -0.2518712667784498E+01 -0.2518200307164392E+01
 -0.2517685135791722E+01 -0.2517167160277539E+01 -0.2516646387208506E+01 -0.2516122823147016E+01 -0.2515596474631320E+01
 -0.2515067348175646E+01 -0.2514535450270325E+01 -0.2514000787381903E+01 -0.2513463365953273E+01 -0.2512923192403784E+01
 -0.2512380273129363E+01 -0.2511834614502636E+01 -0.2511286222873036E+01 -0.2510735104566932E+01 -0.2510181265887732E+01
 -0.2509624713116005E+01 -0.2509065452509592E+01 -0.2508503490303721E+01 -0.2507938832711117E+01 -0.2507371485922119E+01
 -0.2506801456104782E+01 -0.2506228749404997E+01 -0.2505653371946595E+01 -0.2505075329831457E+01 -0.2504494629139625E+01
 -0.2503911275929403E+01 -0.2503325276237471E+01 -0.2502736636078991E+01 -0.2502145361447704E+01 -0.2501551458316046E+01
 -0.2500954932635245E+01 -0.2500355790335428E+01 -0.2499754037325721E+01 -0.2499149679494357E+01 -0.2498542722708770E+01
 -0.2497933172815701E+01 -0.2497321035641300E+01 -0.2496706316991220E+01 -0.2496089022650720E+01 -0.2495469158384766E+01
 -0.2494846729938123E+01 -0.2494221743035454E+01 -0.2493594203381424E+01 -0.2492964116660784E+01 -0.2492331488538478E+01
 -0.2491696324659729E+01 -0.2491058630650139E+01 -0.2490418412115784E+01 -0.2489775674643300E+01 -0.2489130423799983E+01
 -0.2488482665133876E+01 -0.2487832404173868E+01 -0.2487179646429774E+01 -0.2486524397392434E+01 -0.2485866662533802E+01
 -0.2485206447307033E+01 -0.2484543757146570E+01 -0.2483878597468238E+01 -0.2483210973669328E+01 -0.2482540891128685E+01
 -0.2481868355206794E+01 -0.2481193371245867E+01 -0.2480515944569931E+01 -0.2479836080484907E+01 -0.2479153784278701E+01
 -0.2478469061221285E+01 -0.2477781916564782E+01 -0.2477092355543547E+01 -0.2476400383374252E+01 -0.2475706005255969E+01
 -0.2475009226370245E+01 -0.2474310051881194E+01 -0.2473608486935570E+01 -0.2472904536662846E+01 -0.2472198206175301E+01
 -0.2471489500568096E+01 -0.2470778424919347E+01 -0.2470064984290213E+01 -0.2469349183724968E+01 -0.2468631028251080E+01
 -0.2467910522879288E+01 -0.2467187672603679E+01 -0.2466462482401762E+01 -0.2465734957234544E+01 -0.2465005102046613E+01
 -0.2464272921766200E+01 -0.2463538421305261E+01 -0.2462801605559551E+01 -0.2462062479408694E+01 -0.2461321047716261E+01
 -0.2460577315329838E+01 -0.2459831287081097E+01 -0.2459082967785876E+01 -0.2458332362244245E+01 -0.2457579475240573E+01
 -0.2456824311543605E+01 -0.2456066875906530E+01 -0.2455307173067052E+01 -0.2454545207747457E+01 -0.2453780984654681E+01
 -0.2453014508480384E+01 -0.2452245783901014E+01 -0.2451474815577875E+01 -0.2450701608157194E+01 -0.2449926166270193E+01
 -0.2449148494533147E+01 -0.2448368597547459E+01 -0.2447586479899719E+01 -0.2446802146161775E+01 -0.2446015600890793E+01
 -0.2445226848629328E+01 -0.2444435893905382E+01 -0.2443642741232473E+01 -0.2442847395109694E+01 -0.2442049860021781E+01
 -0.2441250140439175E+01 -0.2440448240818081E+01 -0.2439644165600536E+01 -0.2438837919214465E+01 -0.2438029506073748E+01
 -0.2437218930578276E+01 -0.2436406197114018E+01 -0.2435591310053077E+01 -0.2434774273753749E+01 -0.2433955092560590E+01
 -0.2433133770804468E+01 -0.2432310312802625E+01 -0.2431484722858737E+01 -0.2430657005262974E+01 -0.2429827164292052E+01
 -0.2428995204209298E+01 -0.2428161129264703E+01 -0.2427324943694982E+01 -0.2426486651723630E+01 -0.2425646257560977E+01
 -0.2424803765404250E+01 -0.2423959179437618E+01 -0.2423112503832264E+01 -0.2422263742746423E+01 -0.2421412900325451E+01
 -0.2420559980701873E+01 -0.2419704987995438E+01 -0.2418847926313174E+01 -0.2417988799749443E+01 -0.2417127612385995E+01
 -0.2416264368292018E+01 -0.2415399071524195E+01 -0.2414531726126754E+01 -0.2413662336131524E+01 -0.2412790905557981E+01
 -0.2411917438413308E+01 -0.2411041938692440E+01 -0.2410164410378119E+01 -0.2409284857440945E+01 -0.2408403283839425E+01
 -0.2407519693520022E+01 -0.2406634090417216E+01 -0.2405746478453537E+01 -0.2404856861539629E+01 -0.2403965243574293E+01
 -0.2403071628444537E+01 -0.2402176020025628E+01 -0.2401278422181134E+01 -0.2400378838762982E+01 -0.2399477273611497E+01
 -0.2398573730555456E+01 -0.2397668213412133E+01 -0.2396760725987348E+01 -0.2395851272075512E+01 -0.2394939855459678E+01
 -0.2394026479911582E+01 -0.2393111149191694E+01 -0.2392193867049265E+01 -0.2391274637222366E+01 -0.2390353463437944E+01
 -0.2389430349411858E+01 -0.2388505298848930E+01 -0.2387578315442989E+01 -0.2386649402876914E+01 -0.2385718564822679E+01
 -0.2384785804941402E+01 -0.2383851126883382E+01 -0.2382914534288146E+01 -0.2381976030784495E+01 -0.2381035619990543E+01
 -0.2380093305513762E+01 -0.2379149090951030E+01 -0.2378202979888664E+01 -0.2377254975902470E+01 -0.2376305082557782E+01
 -0.2375353303409507E+01 -0.2374399642002165E+01 -0.2373444101869928E+01 -0.2372486686536666E+01 -0.2371527399515986E+01
 -0.2370566244311275E+01 -0.2369603224415739E+01 -0.2368638343312441E+01 -0.2367671604474348E+01 -0.2366703011364364E+01
 -0.2365732567435378E+01 -0.2364760276130297E+01 -0.2363786140882087E+01 -0.2362810165113813E+01 -0.2361832352238683E+01
 -0.2360852705660078E+01 -0.2359871228771598E+01 -0.2358887924957096E+01 -0.2357902797590720E+01 -0.2356915850036949E+01
 -0.2355927085650633E+01 -0.2354936507777027E+01 -0.2353944119751833E+01 -0.2352949924901236E+01 -0.2351953926541941E+01
 -0.2350956127981208E+01 -0.2349956532516893E+01 -0.2348955143437482E+01 -0.2347951964022129E+01 -0.2346946997540689E+01
 -0.2345940247253760E+01 -0.2344931716412714E+01 -0.2343921408259736E+01 -0.2342909326027856E+01 -0.2341895472940987E+01
 -0.2340879852213964E+01 -0.2339862467052568E+01 -0.2338843320653576E+01 -0.2337822416204781E+01 -0.2336799756885038E+01
 -0.2335775345864291E+01 -0.2334749186303612E+01 -0.2333721281355232E+01 -0.2332691634162577E+01 -0.2331660247860300E+01
 -0.2330627125574317E+01 -0.2329592270421837E+01 -0.2328555685511400E+01 -0.2327517373942904E+01 -0.2326477338807642E+01
 -0.2325435583188337E+01 -0.2324392110159168E+01 -0.2323346922785809E+01 -0.2322300024125455E+01 -0.2321251417226862E+01
 -0.2320201105130371E+01 -0.2319149090867946E+01 -0.2318095377463202E+01 -0.2317039967931436E+01 -0.2315982865279663E+01
 -0.2314924072506643E+01 -0.2313863592602914E+01 -0.2312801428550821E+01 -0.2311737583324549E+01 -0.2310672059890154E+01
 -0.2309604861205590E+01 -0.2308535990220742E+01 -0.2307465449877458E+01 -0.2306393243109575E+01 -0.2305319372842950E+01
 -0.2304243841995493E+01 -0.2303166653477192E+01 -0.2302087810190147E+01 -0.2301007315028595E+01 -0.2299925170878941E+01
 -0.2298841380619789E+01 -0.2297755947121969E+01 -0.2296668873248565E+01 -0.2295580161854945E+01 -0.2294489815788791E+01
 -0.2293397837890123E+01 -0.2292304230991332E+01 -0.2291208997917206E+01 -0.2290112141484955E+01 -0.2289013664504247E+01
 -0.2287913569777225E+01 -0.2286811860098545E+01 -0.2285708538255397E+01 -0.2284603607027533E+01 -0.2283497069187297E+01
 -0.2282388927499650E+01 -0.2281279184722194E+01 -0.2280167843605209E+01 -0.2279054906891667E+01 -0.2277940377317267E+01
 -0.2276824257610458E+01 -0.2275706550492468E+01 -0.2274587258677327E+01 -0.2273466384871893E+01 -0.2272343931775884E+01
 -0.2271219902081897E+01 -0.2270094298475435E+01 -0.2268967123634936E+01 -0.2267838380231795E+01 -0.2266708070930392E+01
 -0.2265576198388115E+01 -0.2264442765255385E+01 -0.2263307774175685E+01 -0.2262171227785581E+01 -0.2261033128714748E+01
 -0.2259893479585993E+01 -0.2258752283015283E+01 -0.2257609541611767E+01 -0.2256465257977803E+01 -0.2255319434708976E+01
 -0.2254172074394131E+01 -0.2253023179615391E+01 -0.2251872752948180E+01 -0.2250720796961253E+01 -0.2249567314216713E+01
 -0.2248412307270039E+01 -0.2247255778670108E+01 -0.2246097730959217E+01 -0.2244938166673110E+01 -0.2243777088340998E+01
 -0.2242614498485580E+01 -0.2241450399623075E+01 -0.2240284794263231E+01 -0.2239117684909363E+01 -0.2237949074058365E+01
 -0.2236778964200733E+01 -0.2235607357820594E+01 -0.2234434257395724E+01 -0.2233259665397569E+01 -0.2232083584291271E+01
 -0.2230906016535687E+01 -0.2229726964583411E+01 -0.2228546430880800E+01 -0.2227364417867988E+01 -0.2226180927978916E+01
 -0.2224995963641349E+01 -0.2223809527276897E+01 -0.2222621621301039E+01 -0.2221432248123143E+01 -0.2220241410146486E+01
 -0.2219049109768277E+01 -0.2217855349379678E+01 -0.2216660131365822E+01 -0.2215463458105839E+01 -0.2214265331972872E+01
 -0.2213065755334099E+01 -0.2211864730550754E+01 -0.2210662259978149E+01 -0.2209458345965692E+01 -0.2208252990856906E+01
 -0.2207046196989453E+01 -0.2205837966695154E+01 -0.2204628302300004E+01 -0.2203417206124196E+01 -0.2202204680482142E+01
 -0.2200990727682490E+01 -0.2199775350028143E+01 -0.2198558549816281E+01 -0.2197340329338382E+01 -0.2196120690880234E+01
 -0.2194899636721965E+01 -0.2193677169138052E+01 -0.2192453290397345E+01 -0.2191228002763090E+01 -0.2190001308492940E+01
 -0.2188773209838978E+01 -0.2187543709047737E+01 -0.2186312808360217E+01 -0.2185080510011903E+01 -0.2183846816232786E+01
 -0.2182611729247377E+01 -0.2181375251274732E+01 -0.2180137384528466E+01 -0.2178898131216771E+01 -0.2177657493542437E+01
 -0.2176415473702865E+01 -0.2175172073890093E+01 -0.2173927296290807E+01 -0.2172681143086361E+01 -0.2171433616452796E+01
 -0.2170184718560856E+01 -0.2168934451576007E+01 -0.2167682817658457E+01 -0.2166429818963164E+01 -0.2165175457639866E+01
 -0.2163919735833089E+01 -0.2162662655682170E+01 -0.2161404219321272E+01 -0.2160144428879399E+01 -0.2158883286480414E+01
 -0.2157620794243063E+01 -0.2156356954280980E+01 -0.2155091768702711E+01 -0.2153825239611734E+01 -0.2152557369106466E+01
 -0.2151288159280288E+01 -0.2150017612221557E+01 -0.2148745730013626E+01 -0.2147472514734858E+01 -0.2146197968458642E+01
 -0.2144922093253411E+01 -0.2143644891182656E+01 -0.2142366364304946E+01 -0.2141086514673940E+01 -0.2139805344338407E+01
 -0.2138522855342235E+01 -0.2137239049724457E+01 -0.2135953929519257E+01 -0.2134667496755994E+01 -0.2133379753459210E+01
 -0.2132090701648654E+01 -0.2130800343339287E+01 -0.2129508680541312E+01 -0.2128215715260173E+01 -0.2126921449496582E+01
 -0.2125625885246532E+01 -0.2124329024501307E+01 -0.2123030869247504E+01 -0.2121731421467048E+01 -0.2120430683137196E+01
 -0.2119128656230569E+01 -0.2117825342715154E+01 -0.2116520744554323E+01 -0.2115214863706851E+01 -0.2113907702126922E+01
 -0.2112599261764157E+01 -0.2111289544563615E+01 -0.2109978552465815E+01 -0.2108666287406752E+01 -0.2107352751317907E+01
 -0.2106037946126259E+01 -0.2104721873754310E+01 -0.2103404536120088E+01 -0.2102085935137169E+01 -0.2100766072714685E+01
 -0.2099444950757344E+01 -0.2098122571165438E+01 -0.2096798935834863E+01 -0.2095474046657130E+01 -0.2094147905519377E+01
 -0.2092820514304387E+01 -0.2091491874890597E+01 -0.2090161989152117E+01 -0.2088830858958740E+01 -0.2087498486175957E+01
 -0.2086164872664969E+01 -0.2084830020282702E+01 -0.2083493930881822E+01 -0.2082156606310743E+01 -0.2080818048413647E+01
 -0.2079478259030492E+01 -0.2078137239997029E+01 -0.2076794993144812E+01 -0.2075451520301214E+01 -0.2074106823289437E+01
 -0.2072760903928528E+01 -0.2071413764033391E+01 -0.2070065405414799E+01 -0.2068715829879406E+01 -0.2067365039229765E+01
 -0.2066013035264334E+01 -0.2064659819777491E+01 -0.2063305394559551E+01 -0.2061949761396771E+01 -0.2060592922071371E+01
 -0.2059234878361538E+01 -0.2057875632041445E+01 -0.2056515184881260E+01 -0.2055153538647160E+01 -0.2053790695101342E+01
 -0.2052426656002037E+01 -0.2051061423103519E+01 -0.2049694998156121E+01 -0.2048327382906248E+01 -0.2046958579096379E+01
 -0.2045588588465095E+01 -0.2044217412747078E+01 -0.2042845053673127E+01 -0.2041471512970173E+01 -0.2040096792361288E+01
 -0.2038720893565694E+01 -0.2037343818298780E+01 -0.2035965568272113E+01 -0.2034586145193443E+01 -0.2033205550766728E+01
 -0.2031823786692128E+01 -0.2030440854666034E+01 -0.2029056756381064E+01 -0.2027671493526086E+01 -0.2026285067786227E+01
 -0.2024897480842879E+01 -0.2023508734373714E+01 -0.2022118830052697E+01 -0.2020727769550094E+01 -0.2019335554532484E+01
 -0.2017942186662772E+01 -0.2016547667600198E+01 -0.2015151999000347E+01 -0.2013755182515166E+01 -0.2012357219792967E+01
 -0.2010958112478443E+01 -0.2009557862212677E+01 -0.2008156470633153E+01 -0.2006753939373768E+01 -0.2005350270064842E+01
 -0.2003945464333128E+01 -0.2002539523801823E+01 -0.2001132450090580E+01 -0.1999724244815516E+01 -0.1998314909589225E+01
 -0.1996904446020788E+01 -0.1995492855715782E+01 -0.1994080140276290E+01 -0.1992666301300916E+01 -0.1991251340384792E+01
 -0.1989835259119585E+01 -0.1988418059093515E+01 -0.1986999741891358E+01 -0.1985580309094460E+01 -0.1984159762280747E+01
 -0.1982738103024734E+01 -0.1981315332897536E+01 -0.1979891453466876E+01 -0.1978466466297099E+01 -0.1977040372949178E+01
 -0.1975613174980725E+01 -0.1974184873946004E+01 -0.1972755471395934E+01 -0.1971324968878109E+01 -0.1969893367936795E+01
 -0.1968460670112952E+01 -0.1967026876944237E+01 -0.1965591989965012E+01 -0.1964156010706360E+01 -0.1962718940696091E+01
 -0.1961280781458749E+01 -0.1959841534515629E+01 -0.1958401201384776E+01 -0.1956959783581005E+01 -0.1955517282615905E+01
 -0.1954073699997845E+01 -0.1952629037231993E+01 -0.1951183295820317E+01 -0.1949736477261596E+01 -0.1948288583051433E+01
 -0.1946839614682260E+01 -0.1945389573643348E+01 -0.1943938461420819E+01 -0.1942486279497650E+01 -0.1941033029353687E+01
 -0.1939578712465652E+01 -0.1938123330307152E+01 -0.1936666884348687E+01 -0.1935209376057663E+01 -0.1933750806898393E+01
 -0.1932291178332116E+01 -0.1930830491816997E+01 -0.1929368748808142E+01 -0.1927905950757603E+01 -0.1926442099114387E+01
 -0.1924977195324469E+01 -0.1923511240830793E+01 -0.1922044237073289E+01 -0.1920576185488877E+01 -0.1919107087511474E+01
 -0.1917636944572007E+01 -0.1916165758098420E+01 -0.1914693529515679E+01 -0.1913220260245788E+01 -0.1911745951707787E+01
 -0.1910270605317772E+01 -0.1908794222488893E+01 -0.1907316804631371E+01 -0.1905838353152499E+01 -0.1904358869456656E+01
 -0.1902878354945311E+01 -0.1901396811017034E+01 -0.1899914239067503E+01 -0.1898430640489513E+01 -0.1896946016672985E+01
 -0.1895460369004967E+01 -0.1893973698869655E+01 -0.1892486007648390E+01 -0.1890997296719670E+01 -0.1889507567459159E+01
 -0.1888016821239692E+01 -0.1886525059431287E+01 -0.1885032283401150E+01 -0.1883538494513683E+01 -0.1882043694130493E+01
 -0.1880547883610397E+01 -0.1879051064309437E+01 -0.1877553237580878E+01 -0.1876054404775224E+01 -0.1874554567240218E+01
 -0.1873053726320858E+01 -0.1871551883359401E+01 -0.1870049039695367E+01 -0.1868545196665550E+01 -0.1867040355604030E+01
 -0.1865534517842172E+01 -0.1864027684708637E+01 -0.1862519857529393E+01 -0.1861011037627718E+01 -0.1859501226324208E+01
 -0.1857990424936787E+01 -0.1856478634780712E+01 -0.1854965857168582E+01 -0.1853452093410343E+01 -0.1851937344813297E+01
 -0.1850421612682111E+01 -0.1848904898318821E+01 -0.1847387203022839E+01 -0.1845868528090965E+01 -0.1844348874817389E+01
 -0.1842828244493700E+01 -0.1841306638408896E+01 -0.1839784057849384E+01 -0.1838260504098995E+01 -0.1836735978438985E+01
 -0.1835210482148048E+01 -0.1833684016502317E+01 -0.1832156582775375E+01 -0.1830628182238258E+01 -0.1829098816159468E+01
 -0.1827568485804975E+01 -0.1826037192438224E+01 -0.1824504937320146E+01 -0.1822971721709160E+01 -0.1821437546861182E+01
 -0.1819902414029632E+01 -0.1818366324465442E+01 -0.1816829279417057E+01 -0.1815291280130452E+01 -0.1813752327849129E+01
 -0.1812212423814125E+01 -0.1810671569264027E+01 -0.1809129765434967E+01 -0.1807587013560638E+01 -0.1806043314872296E+01
 -0.1804498670598766E+01 -0.1802953081966450E+01 -0.1801406550199337E+01 -0.1799859076519000E+01 -0.1798310662144615E+01
 -0.1796761308292957E+01 -0.1795211016178409E+01 -0.1793659787012974E+01 -0.1792107622006275E+01 -0.1790554522365563E+01
 -0.1789000489295725E+01 -0.1787445523999288E+01 -0.1785889627676427E+01 -0.1784332801524972E+01 -0.1782775046740412E+01
 -0.1781216364515902E+01 -0.1779656756042270E+01 -0.1778096222508022E+01 -0.1776534765099350E+01 -0.1774972385000138E+01
 -0.1773409083391963E+01 -0.1771844861454110E+01 -0.1770279720363571E+01 -0.1768713661295055E+01 -0.1767146685420989E+01
 -0.1765578793911532E+01 -0.1764009987934575E+01 -0.1762440268655747E+01 -0.1760869637238424E+01 -0.1759298094843734E+01
 -0.1757725642630559E+01 -0.1756152281755551E+01 -0.1754578013373124E+01 -0.1753002838635472E+01 -0.1751426758692569E+01
 -0.1749849774692173E+01 -0.1748271887779838E+01 -0.1746693099098914E+01 -0.1745113409790557E+01 -0.1743532820993733E+01
 -0.1741951333845222E+01 -0.1740368949479626E+01 -0.1738785669029374E+01 -0.1737201493624730E+01 -0.1735616424393792E+01
 -0.1734030462462506E+01 -0.1732443608954667E+01 -0.1730855864991923E+01 -0.1729267231693785E+01 -0.1727677710177631E+01
 -0.1726087301558707E+01 -0.1724496006950143E+01 -0.1722903827462947E+01 -0.1721310764206016E+01 -0.1719716818286144E+01
 -0.1718121990808020E+01 -0.1716526282874243E+01 -0.1714929695585318E+01 -0.1713332230039668E+01 -0.1711733887333637E+01
 -0.1710134668561495E+01 -0.1708534574815443E+01 -0.1706933607185622E+01 -0.1705331766760112E+01 -0.1703729054624942E+01
 -0.1702125471864096E+01 -0.1700521019559515E+01 -0.1698915698791102E+01 -0.1697309510636731E+01 -0.1695702456172250E+01
 -0.1694094536471484E+01 -0.1692485752606245E+01 -0.1690876105646333E+01 -0.1689265596659543E+01 -0.1687654226711671E+01
 -0.1686041996866516E+01 -0.1684428908185888E+01 -0.1682814961729613E+01 -0.1681200158555535E+01 -0.1679584499719526E+01
 -0.1677967986275486E+01 -0.1676350619275352E+01 -0.1674732399769099E+01 -0.1673113328804750E+01 -0.1671493407428376E+01
 -0.1669872636684103E+01 -0.1668251017614121E+01 -0.1666628551258680E+01 -0.1665005238656103E+01 -0.1663381080842787E+01
 -0.1661756078853206E+01 -0.1660130233719926E+01 -0.1658503546473592E+01 -0.1656876018142952E+01 -0.1655247649754849E+01
 -0.1653618442334230E+01 -0.1651988396904150E+01 -0.1650357514485781E+01 -0.1648725796098408E+01 -0.1647093242759441E+01
 -0.1645459855484420E+01 -0.1643825635287012E+01 -0.1642190583179026E+01 -0.1640554700170409E+01 -0.1638917987269257E+01
 -0.1637280445481813E+01 -0.1635642075812479E+01 -0.1634002879263818E+01 -0.1632362856836553E+01 -0.1630722009529581E+01
 -0.1629080338339969E+01 -0.1627437844262966E+01 -0.1625794528292001E+01 -0.1624150391418692E+01 -0.1622505434632849E+01
 -0.1620859658922477E+01 -0.1619213065273785E+01 -0.1617565654671184E+01 -0.1615917428097297E+01 -0.1614268386532960E+01
 -0.1612618530957229E+01 -0.1610967862347383E+01 -0.1609316381678926E+01 -0.1607664089925599E+01 -0.1606010988059374E+01
 -0.1604357077050467E+01 -0.1602702357867339E+01 -0.1601046831476697E+01 -0.1599390498843505E+01 -0.1597733360930985E+01
 -0.1596075418700618E+01 -0.1594416673112155E+01 -0.1592757125123616E+01 -0.1591096775691296E+01 -0.1589435625769771E+01
 -0.1587773676311899E+01 -0.1586110928268824E+01 -0.1584447382589985E+01 -0.1582783040223116E+01 -0.1581117902114249E+01
 -0.1579451969207726E+01 -0.1577785242446190E+01 -0.1576117722770602E+01 -0.1574449411120239E+01 -0.1572780308432698E+01
 -0.1571110415643900E+01 -0.1569439733688097E+01 -0.1567768263497874E+01 -0.1566096006004151E+01 -0.1564422962136192E+01
 -0.1562749132821603E+01 -0.1561074518986344E+01 -0.1559399121554723E+01 -0.1557722941449408E+01 -0.1556045979591429E+01
 -0.1554368236900181E+01 -0.1552689714293425E+01 -0.1551010412687297E+01 -0.1549330332996313E+01 -0.1547649476133367E+01
 -0.1545967843009735E+01 -0.1544285434535089E+01 -0.1542602251617486E+01 -0.1540918295163386E+01 -0.1539233566077645E+01
 -0.1537548065263526E+01 -0.1535861793622697E+01 -0.1534174752055241E+01 -0.1532486941459654E+01 -0.1530798362732853E+01
 -0.1529109016770179E+01 -0.1527418904465398E+01 -0.1525728026710708E+01 -0.1524036384396743E+01 -0.1522343978412571E+01
 -0.1520650809645708E+01 -0.1518956878982109E+01 -0.1517262187306186E+01 -0.1515566735500797E+01 -0.1513870524447262E+01
 -0.1512173555025358E+01 -0.1510475828113330E+01 -0.1508777344587886E+01 -0.1507078105324211E+01 -0.1505378111195960E+01
 -0.1503677363075270E+01 -0.1501975861832760E+01 -0.1500273608337533E+01 -0.1498570603457183E+01 -0.1496866848057798E+01
 -0.1495162343003961E+01 -0.1493457089158756E+01 -0.1491751087383771E+01 -0.1490044338539100E+01 -0.1488336843483351E+01
 -0.1486628603073643E+01 -0.1484919618165612E+01 -0.1483209889613420E+01 -0.1481499418269752E+01 -0.1479788204985819E+01
 -0.1478076250611364E+01 -0.1476363555994668E+01 -0.1474650121982550E+01 -0.1472935949420369E+01 -0.1471221039152032E+01
 -0.1469505392019991E+01 -0.1467789008865256E+01 -0.1466071890527387E+01 -0.1464354037844508E+01 -0.1462635451653302E+01
 -0.1460916132789020E+01 -0.1459196082085479E+01 -0.1457475300375073E+01 -0.1455753788488767E+01 -0.1454031547256110E+01
 -0.1452308577505230E+01 -0.1450584880062841E+01 -0.1448860455754248E+01 -0.1447135305403347E+01 -0.1445409429832629E+01
 -0.1443682829863186E+01 -0.1441955506314708E+01 -0.1440227460005496E+01 -0.1438498691752453E+01 -0.1436769202371103E+01
 -0.1435038992675573E+01 -0.1433308063478618E+01 -0.1431576415591611E+01 -0.1429844049824548E+01 -0.1428110966986057E+01
 -0.1426377167883392E+01 -0.1424642653322444E+01 -0.1422907424107740E+01 -0.1421171481042449E+01 -0.1419434824928383E+01
 -0.1417697456565998E+01 -0.1415959376754403E+01 -0.1414220586291359E+01 -0.1412481085973282E+01 -0.1410740876595248E+01
 -0.1408999958950995E+01 -0.1407258333832925E+01 -0.1405516002032109E+01 -0.1403772964338291E+01 -0.1402029221539885E+01
 -0.1400284774423987E+01 -0.1398539623776371E+01 -0.1396793770381493E+01 -0.1395047215022499E+01 -0.1393299958481222E+01
 -0.1391552001538187E+01 -0.1389803344972614E+01 -0.1388053989562426E+01 -0.1386303936084240E+01 -0.1384553185313380E+01
 -0.1382801738023883E+01 -0.1381049594988486E+01 -0.1379296756978647E+01 -0.1377543224764536E+01 -0.1375788999115042E+01
 -0.1374034080797778E+01 -0.1372278470579079E+01 -0.1370522169224010E+01 -0.1368765177496363E+01 -0.1367007496158667E+01
 -0.1365249125972185E+01 -0.1363490067696920E+01 -0.1361730322091615E+01 -0.1359969889913760E+01 -0.1358208771919591E+01
 -0.1356446968864094E+01 -0.1354684481501009E+01 -0.1352921310582834E+01 -0.1351157456860821E+01 -0.1349392921084986E+01
 -0.1347627704004111E+01 -0.1345861806365742E+01 -0.1344095228916195E+01 -0.1342327972400561E+01 -0.1340560037562704E+01
 -0.1338791425145269E+01 -0.1337022135889678E+01 -0.1335252170536138E+01 -0.1333481529823644E+01 -0.1331710214489977E+01
 -0.1329938225271712E+01 -0.1328165562904218E+01 -0.1326392228121659E+01 -0.1324618221657001E+01 -0.1322843544242011E+01
 -0.1321068196607262E+01 -0.1319292179482133E+01 -0.1317515493594817E+01 -0.1315738139672316E+01 -0.1313960118440447E+01
 -0.1312181430623852E+01 -0.1310402076945985E+01 -0.1308622058129129E+01 -0.1306841374894394E+01 -0.1305060027961713E+01
 -0.1303278018049855E+01 -0.1301495345876422E+01 -0.1299712012157851E+01 -0.1297928017609420E+01 -0.1296143362945246E+01
 -0.1294358048878292E+01 -0.1292572076120369E+01 -0.1290785445382132E+01 -0.1288998157373092E+01 -0.1287210212801615E+01
 -0.1285421612374920E+01 -0.1283632356799088E+01 -0.1281842446779062E+01 -0.1280051883018646E+01 -0.1278260666220514E+01
 -0.1276468797086210E+01 -0.1274676276316145E+01 -0.1272883104609608E+01 -0.1271089282664765E+01 -0.1269294811178658E+01
 -0.1267499690847214E+01 -0.1265703922365242E+01 -0.1263907506426436E+01 -0.1262110443723383E+01 -0.1260312734947558E+01
 -0.1258514380789331E+01 -0.1256715381937966E+01 -0.1254915739081628E+01 -0.1253115452907383E+01 -0.1251314524101197E+01
 -0.1249512953347946E+01 -0.1247710741331412E+01 -0.1245907888734286E+01 -0.1244104396238174E+01 -0.1242300264523596E+01
 -0.1240495494269990E+01 -0.1238690086155712E+01 -0.1236884040858044E+01 -0.1235077359053189E+01 -0.1233270041416278E+01
 -0.1231462088621369E+01 -0.1229653501341457E+01 -0.1227844280248465E+01 -0.1226034426013254E+01 -0.1224223939305625E+01
 -0.1222412820794316E+01 -0.1220601071147012E+01 -0.1218788691030340E+01 -0.1216975681109876E+01 -0.1215162042050144E+01
 -0.1213347774514624E+01 -0.1211532879165743E+01 -0.1209717356664893E+01 -0.1207901207672417E+01 -0.1206084432847625E+01
 -0.1204267032848786E+01 -0.1202449008333136E+01 -0.1200630359956878E+01 -0.1198811088375186E+01 -0.1196991194242202E+01
 -0.1195170678211050E+01 -0.1193349540933821E+01 -0.1191527783061590E+01 -0.1189705405244414E+01 -0.1187882408131327E+01
 -0.1186058792370355E+01 -0.1184234558608504E+01 -0.1182409707491776E+01 -0.1180584239665159E+01 -0.1178758155772639E+01
 -0.1176931456457196E+01 -0.1175104142360806E+01 -0.1173276214124448E+01 -0.1171447672388101E+01 -0.1169618517790750E+01
 -0.1167788750970385E+01 -0.1165958372564005E+01 -0.1164127383207618E+01 -0.1162295783536248E+01 -0.1160463574183931E+01
 -0.1158630755783720E+01 -0.1156797328967689E+01 -0.1154963294366929E+01 -0.1153128652611558E+01 -0.1151293404330717E+01
 -0.1149457550152573E+01 -0.1147621090704326E+01 -0.1145784026612204E+01 -0.1143946358501468E+01 -0.1142108086996416E+01
 -0.1140269212720382E+01 -0.1138429736295741E+01 -0.1136589658343907E+01 -0.1134748979485338E+01 -0.1132907700339539E+01
 -0.1131065821525060E+01 -0.1129223343659502E+01 -0.1127380267359516E+01 -0.1125536593240808E+01 -0.1123692321918138E+01
 -0.1121847454005321E+01 -0.1120001990115236E+01 -0.1118155930859820E+01 -0.1116309276850072E+01 -0.1114462028696061E+01
 -0.1112614187006919E+01 -0.1110765752390845E+01 -0.1108916725455114E+01 -0.1107067106806072E+01 -0.1105216897049135E+01
 -0.1103366096788805E+01 -0.1101514706628652E+01 -0.1099662727171336E+01 -0.1097810159018594E+01 -0.1095957002771246E+01
 -0.1094103259029204E+01 -0.1092248928391462E+01 -0.1090394011456106E+01 -0.1088538508820317E+01 -0.1086682421080365E+01
 -0.1084825748831616E+01 -0.1082968492668539E+01 -0.1081110653184694E+01 -0.1079252230972747E+01 -0.1077393226624469E+01
 -0.1075533640730731E+01 -0.1073673473881511E+01 -0.1071812726665902E+01 -0.1069951399672097E+01 -0.1068089493487411E+01
 -0.1066227008698265E+01 -0.1064363945890204E+01 -0.1062500305647882E+01 -0.1060636088555077E+01 -0.1058771295194691E+01
 -0.1056905926148741E+01 -0.1055039981998377E+01 -0.1053173463323871E+01 -0.1051306370704624E+01 -0.1049438704719168E+01
 -0.1047570465945165E+01 -0.1045701654959414E+01 -0.1043832272337847E+01 -0.1041962318655534E+01 -0.1040091794486685E+01
 -0.1038220700404648E+01 -0.1036349036981914E+01 -0.1034476804790123E+01 -0.1032604004400053E+01 -0.1030730636381636E+01
 -0.1028856701303952E+01 -0.1026982199735231E+01 -0.1025107132242855E+01 -0.1023231499393364E+01 -0.1021355301752450E+01
 -0.1019478539884966E+01 -0.1017601214354925E+01 -0.1015723325725498E+01 -0.1013844874559023E+01 -0.1011965861417002E+01
 -0.1010086286860100E+01 -0.1008206151448155E+01 -0.1006325455740171E+01 -0.1004444200294326E+01 -0.1002562385667970E+01
 -0.1000680012417628E+01 -0.9987970810990009E+00 -0.9969135922669692E+00 -0.9950295464755935E+00 -0.9931449442781117E+00
 -0.9912597862269504E+00 -0.9893740728737164E+00 -0.9874878047692054E+00 -0.9856009824634004E+00 -0.9837136065054748E+00
 -0.9818256774437908E+00 -0.9799371958259070E+00 -0.9780481621985723E+00 -0.9761585771077357E+00 -0.9742684410985418E+00
 -0.9723777547153337E+00 -0.9704865185016587E+00 -0.9685947330002619E+00 -0.9667023987530963E+00 -0.9648095163013174E+00
 -0.9629160861852911E+00 -0.9610221089445906E+00 -0.9591275851179993E+00 -0.9572325152435114E+00 -0.9553368998583374E+00
 -0.9534407394989020E+00 -0.9515440347008439E+00 -0.9496467859990222E+00 -0.9477489939275175E+00 -0.9458506590196282E+00
 -0.9439517818078769E+00 -0.9420523628240115E+00 -0.9401524025990042E+00 -0.9382519016630552E+00 -0.9363508605455945E+00
 -0.9344492797752820E+00 -0.9325471598800070E+00 -0.9306445013868984E+00 -0.9287413048223140E+00 -0.9268375707118515E+00
 -0.9249332995803450E+00 -0.9230284919518688E+00 -0.9211231483497393E+00 -0.9192172692965135E+00 -0.9173108553139930E+00
 -0.9154039069232252E+00 -0.9134964246445060E+00 -0.9115884089973744E+00 -0.9096798605006263E+00 -0.9077707796723058E+00
 -0.9058611670297071E+00 -0.9039510230893821E+00 -0.9020403483671396E+00 -0.9001291433780418E+00 -0.8982174086364125E+00
 -0.8963051446558348E+00 -0.8943923519491520E+00 -0.8924790310284734E+00 -0.8905651824051690E+00 -0.8886508065898781E+00
 -0.8867359040925059E+00 -0.8848204754222245E+00 -0.8829045210874802E+00 -0.8809880415959889E+00 -0.8790710374547369E+00
 -0.8771535091699885E+00 -0.8752354572472834E+00 -0.8733168821914360E+00 -0.8713977845065429E+00 -0.8694781646959781E+00
 -0.8675580232623977E+00 -0.8656373607077402E+00 -0.8637161775332306E+00 -0.8617944742393765E+00 -0.8598722513259737E+00
 -0.8579495092921057E+00 -0.8560262486361473E+00 -0.8541024698557650E+00 -0.8521781734479134E+00 -0.8502533599088462E+00
 -0.8483280297341090E+00 -0.8464021834185435E+00 -0.8444758214562926E+00 -0.8425489443407947E+00 -0.8406215525647922E+00
 -0.8386936466203282E+00 -0.8367652269987468E+00 -0.8348362941907003E+00 -0.8329068486861453E+00 -0.8309768909743452E+00
 -0.8290464215438730E+00 -0.8271154408826112E+00 -0.8251839494777531E+00 -0.8232519478158064E+00 -0.8213194363825899E+00
 -0.8193864156632400E+00 -0.8174528861422089E+00 -0.8155188483032668E+00 -0.8135843026295018E+00 -0.8116492496033249E+00
 -0.8097136897064657E+00 -0.8077776234199798E+00 -0.8058410512242462E+00 -0.8039039735989676E+00 -0.8019663910231765E+00
 -0.8000283039752316E+00 -0.7980897129328222E+00 -0.7961506183729670E+00 -0.7942110207720182E+00 -0.7922709206056614E+00
 -0.7903303183489149E+00 -0.7883892144761332E+00 -0.7864476094610107E+00 -0.7845055037765758E+00 -0.7825628978951994E+00
 -0.7806197922885935E+00 -0.7786761874278084E+00 -0.7767320837832433E+00 -0.7747874818246387E+00 -0.7728423820210791E+00
 -0.7708967848410014E+00 -0.7689506907521847E+00 -0.7670041002217624E+00 -0.7650570137162153E+00 -0.7631094317013791E+00
 -0.7611613546424394E+00 -0.7592127830039396E+00 -0.7572637172497759E+00 -0.7553141578432032E+00 -0.7533641052468331E+00
 -0.7514135599226373E+00 -0.7494625223319471E+00 -0.7475109929354565E+00 -0.7455589721932208E+00 -0.7436064605646621E+00
 -0.7416534585085657E+00 -0.7396999664830815E+00 -0.7377459849457303E+00 -0.7357915143534018E+00 -0.7338365551623519E+00
 -0.7318811078282116E+00 -0.7299251728059815E+00 -0.7279687505500375E+00 -0.7260118415141308E+00 -0.7240544461513848E+00
 -0.7220965649143025E+00 -0.7201381982547663E+00 -0.7181793466240362E+00 -0.7162200104727505E+00 -0.7142601902509338E+00
 -0.7122998864079902E+00 -0.7103390993927082E+00 -0.7083778296532637E+00 -0.7064160776372147E+00 -0.7044538437915095E+00
 -0.7024911285624846E+00 -0.7005279323958646E+00 -0.6985642557367671E+00 -0.6966000990296992E+00 -0.6946354627185641E+00
 -0.6926703472466544E+00 -0.6907047530566636E+00 -0.6887386805906760E+00 -0.6867721302901788E+00 -0.6848051025960527E+00
 -0.6828375979485805E+00 -0.6808696167874487E+00 -0.6789011595517406E+00 -0.6769322266799441E+00 -0.6749628186099530E+00
 -0.6729929357790653E+00 -0.6710225786239854E+00 -0.6690517475808238E+00 -0.6670804430851026E+00 -0.6651086655717483E+00
 -0.6631364154751055E+00 -0.6611636932289227E+00 -0.6591904992663660E+00 -0.6572168340200151E+00 -0.6552426979218621E+00
 -0.6532680914033195E+00 -0.6512930148952127E+00 -0.6493174688277868E+00 -0.6473414536307069E+00 -0.6453649697330577E+00
 -0.6433880175633448E+00 -0.6414105975494994E+00 -0.6394327101188694E+00 -0.6374543556982353E+00 -0.6354755347137968E+00
 -0.6334962475911857E+00 -0.6315164947554555E+00 -0.6295362766310939E+00 -0.6275555936420145E+00 -0.6255744462115650E+00
 -0.6235928347625213E+00 -0.6216107597170948E+00 -0.6196282214969313E+00 -0.6176452205231101E+00 -0.6156617572161446E+00
 -0.6136778319959890E+00 -0.6116934452820348E+00 -0.6097085974931095E+00 -0.6077232890474836E+00 -0.6057375203628693E+00
  0.7941092156788578E+02  0.7941092156788578E+02  0.7941092156788578E+02  0.7941092156788578E+02  0.7941092156788578E+02
  0.7941092156788578E+02  0.7941092156788578E+02  0.7941092156788578E+02  0.7941092156788578E+02  0.7941092156788578E+02
  0.7941092156788578E+02  0.7941092156788578E+02  0.7941092156788578E+02  0.7941092156788578E+02  0.7941092156788578E+02
  0.7941092156788578E+02  0.7941092156788578E+02  0.7941092156788578E+02  0.7941092156788578E+02  0.7941092156788578E+02
  0.7941092156788578E+02  0.7941092156788578E+02  0.7941092156788578E+02  0.7941092156788578E+02  0.7941092156788578E+02
  0.7941092156788578E+02  0.7941092156788578E+02  0.7941092156788578E+02  0.7941092156788578E+02  0.7941092156788578E+02
  0.7941092156788578E+02  0.7941092156788578E+02  0.7941092156788578E+02  0.7941092156788578E+02  0.7941092156788578E+02
  0.7941092156788578E+02  0.7941092156788578E+02  0.7941092156788578E+02  0.7941092156788578E+02  0.7941092156788578E+02
  0.7941092156788578E+02  0.7941092156788578E+02  0.7941092156788578E+02  0.7941092156788578E+02  0.7941092156788578E+02
  0.7941092156788578E+02  0.7941092156788578E+02  0.7941092156788578E+02  0.7941092156788578E+02  0.7941092156788578E+02
  0.7941092156788578E+02  0.7941092156788578E+02  0.7941092156788578E+02  0.7941092156788578E+02  0.7941092156788578E+02
  0.7941092156788578E+02  0.7941092156788578E+02  0.7941092156788578E+02  0.7941092156788578E+02  0.7941092156788578E+02
  0.7941092156788578E+02  0.7941092156788578E+02  0.7941092156788578E+02  0.7941092156788578E+02  0.7941092156788578E+02
  0.7941092156788578E+02  0.7941092156788578E+02  0.7941092156788578E+02  0.7941092156788578E+02  0.7941092156788578E+02
  0.7941092156788578E+02  0.7941092156788578E+02  0.7941092156788578E+02  0.7941092156788578E+02  0.7941092156788578E+02
  0.7941092156788578E+02  0.7941092156788578E+02  0.7941092156788578E+02  0.7941092156788578E+02  0.7941092156788578E+02
  0.7941092156788578E+02  0.7941092156788578E+02  0.7941092156788578E+02  0.7941092156788578E+02  0.7941092156788578E+02
  0.7941092156788578E+02  0.7941092156788578E+02  0.7941092156788578E+02  0.7941092156788578E+02  0.7941092156788578E+02
  0.7941092156788578E+02  0.7941092156788578E+02  0.7941092156788578E+02  0.7941092156788578E+02  0.7941092156788578E+02
  0.7941092156788578E+02  0.7941092156788578E+02  0.7941092156788578E+02  0.7941092156788578E+02  0.7941092156788578E+02
  0.7941092156788578E+02  0.7941092156788578E+02  0.7941092156788578E+02  0.7941092156788578E+02  0.7941092156788578E+02
  0.7941092156788578E+02  0.7941092156788578E+02  0.7941092156788578E+02  0.7941092156788578E+02  0.7941092156788578E+02
  0.7941092156788578E+02  0.7941092156788578E+02  0.7941092156788578E+02  0.7941092156788578E+02  0.7941092156788578E+02
  0.7941092156788578E+02  0.7941092156788578E+02  0.7941092156788578E+02  0.7941092156788578E+02  0.7941092156788578E+02
  0.7941092156788578E+02  0.7941092156788578E+02  0.7941092156788578E+02  0.7941092156788578E+02  0.7941092156788578E+02
  0.7941092156788578E+02  0.7941092156788578E+02  0.7941092156788578E+02  0.7941092156788578E+02  0.7941092156788578E+02
  0.7941092156788578E+02  0.7941092156788578E+02  0.7941092156788578E+02  0.7941092156788578E+02  0.7941092156788578E+02
  0.7941092156788578E+02  0.7941092156788578E+02  0.7941092156788578E+02  0.7941092156788578E+02  0.7941092156788578E+02
  0.7941092156788578E+02  0.7941092156788578E+02  0.7941092156788578E+02  0.7941092156788578E+02  0.7941092156788578E+02
  0.7941092156788578E+02  0.7941092156788578E+02  0.7941092156788578E+02  0.7941092156788578E+02  0.7941092156788578E+02
  0.7941092156788578E+02  0.7941092156788578E+02  0.7941092156788578E+02  0.7941092156788578E+02  0.7941092156788578E+02
  0.7941092156788578E+02  0.7941092156788578E+02  0.7941092156788578E+02  0.7941092156788578E+02  0.7941092156788578E+02
  0.7941092156788578E+02  0.7941092156788578E+02  0.7941092156788578E+02  0.7941092156788578E+02  0.7941092156788578E+02
  0.7941092156788578E+02  0.7941092156788578E+02  0.7941092156788578E+02  0.7941092156788578E+02  0.7941092156788578E+02
  0.7941092156788578E+02  0.7941092156788578E+02  0.7941092156788578E+02  0.7941092156788578E+02  0.7941092156788578E+02
  0.7941092156788578E+02  0.7941092156788578E+02  0.7941092156788578E+02  0.7941092156788578E+02  0.7916800261700706E+02
  0.7878376900255829E+02  0.7840076337924668E+02  0.7801900138570566E+02  0.7763849798765408E+02  0.7725926749542741E+02
  0.7688132358116992E+02  0.7650467929568970E+02  0.7612934708497784E+02  0.7575533880639553E+02  0.7538266574453037E+02
  0.7501133862672540E+02  0.7464136763828380E+02  0.7427276243735231E+02  0.7390553216948686E+02  0.7353968548190394E+02
  0.7317523053742130E+02  0.7281217502809211E+02  0.7245052618853616E+02  0.7209029080897200E+02  0.7173147524795466E+02
  0.7137408544482297E+02  0.7101812693186042E+02  0.7066360484617421E+02  0.7031052394129668E+02  0.6995888859851398E+02
  0.6960870283792599E+02  0.6925997032924165E+02  0.6891269440231575E+02  0.6856687805742935E+02  0.6822252397532057E+02
  0.6787963452696901E+02  0.6753821178313862E+02  0.6719825752368361E+02  0.6685977324662191E+02  0.6652276017698060E+02
  0.6618721927541769E+02  0.6585315124662499E+02  0.6552055654751582E+02  0.6518943539520271E+02  0.6485978777476919E+02
  0.6453161344683922E+02  0.6420491195494964E+02  0.6387968263272890E+02  0.6355592461088716E+02  0.6323363682402066E+02
  0.6291281801723564E+02  0.6259346675259454E+02  0.6227558141539010E+02  0.6195916022024923E+02  0.6164420121707237E+02
  0.6133070229681058E+02  0.6101866119708525E+02  0.6070807550765344E+02  0.6039894267572235E+02  0.6009126001111732E+02
  0.5978502469130564E+02  0.5948023376628048E+02  0.5917688416330790E+02  0.5887497269154053E+02  0.5857449604650098E+02
  0.5827545081443776E+02  0.5797783347655771E+02  0.5768164041313731E+02  0.5738686790751628E+02  0.5709351214997577E+02
  0.5680156924150502E+02  0.5651103519745828E+02  0.5622190595110573E+02  0.5593417735708026E+02  0.5564784519472313E+02
  0.5536290517133136E+02  0.5507935292530890E+02  0.5479718402922455E+02  0.5451639399277853E+02  0.5423697826568043E+02
  0.5395893224044114E+02  0.5368225125508017E+02  0.5340693059575159E+02  0.5313296549928999E+02  0.5286035115567900E+02
  0.5258908271044427E+02  0.5231915526697301E+02  0.5205056388876220E+02  0.5178330360159700E+02  0.5151736939566167E+02
  0.5125275622758454E+02  0.5098945902241916E+02  0.5072747267556318E+02  0.5046679205461627E+02  0.5020741200117973E+02
  0.4994932733259844E+02  0.4969253284364743E+02  0.4943702330816417E+02  0.4918279348062808E+02  0.4892983809768942E+02
  0.4867815187964799E+02  0.4842772953188400E+02  0.4817856574624138E+02  0.4793065520236618E+02  0.4768399256900025E+02
  0.4743857250523209E+02  0.4719438966170567E+02  0.4695143868178884E+02  0.4670971420270237E+02  0.4646921085661023E+02
  0.4622992327167344E+02  0.4599184607306702E+02  0.4575497388396242E+02  0.4551930132647549E+02  0.4528482302258185E+02
  0.4505153359499982E+02  0.4481942766804237E+02  0.4458849986843871E+02  0.4435874482612675E+02  0.4413015717501697E+02
  0.4390273155372869E+02  0.4367646260629954E+02  0.4345134498286895E+02  0.4322737334033641E+02  0.4300454234299532E+02
  0.4278284666314306E+02  0.4256228098166799E+02  0.4234283998861424E+02  0.4212451838372493E+02  0.4190731087696413E+02
  0.4169121218901886E+02  0.4147621705178099E+02  0.4126232020881028E+02  0.4104951641577884E+02  0.4083780044089752E+02
  0.4062716706532513E+02  0.4041761108356052E+02  0.4020912730381848E+02  0.4000171054838981E+02  0.3979535565398606E+02
  0.3959005747206935E+02  0.3938581086916766E+02  0.3918261072717664E+02  0.3898045194364748E+02  0.3877932943206189E+02
  0.3857923812209434E+02  0.3838017295986221E+02  0.3818212890816391E+02  0.3798510094670571E+02  0.3778908407231714E+02
  0.3759407329915602E+02  0.3740006365890287E+02  0.3720705020094515E+02  0.3701502799255218E+02  0.3682399211904011E+02
  0.3663393768392812E+02  0.3644485980908570E+02  0.3625675363487151E+02  0.3606961432026380E+02  0.3588343704298308E+02
  0.3569821699960685E+02  0.3551394940567723E+02  0.3533062949580101E+02  0.3514825252374309E+02  0.3496681376251289E+02
  0.3478630850444456E+02  0.3460673206127076E+02  0.3442807976419042E+02  0.3425034696393065E+02  0.3407352903080308E+02
  0.3389762135475458E+02  0.3372261934541302E+02  0.3354851843212755E+02  0.3337531406400446E+02  0.3320300170993785E+02
  0.3303157685863614E+02  0.3286103501864386E+02  0.3269137171835952E+02  0.3252258250604914E+02  0.3235466294985595E+02
  0.3218760863780627E+02  0.3202141517781187E+02  0.3185607819766863E+02  0.3169159334505187E+02  0.3152795628750837E+02
  0.3136516271244549E+02  0.3120320832711696E+02  0.3104208885860591E+02  0.3088180005380508E+02  0.3072233767939435E+02
  0.3056369752181576E+02  0.3040587538724579E+02  0.3024886710156564E+02  0.3009266851032883E+02  0.2993727547872687E+02
  0.2978268389155276E+02  0.2962888965316226E+02  0.2947588868743355E+02  0.2932367693772481E+02  0.2917225036682998E+02
  0.2902160495693296E+02  0.2887173670956017E+02  0.2872264164553131E+02  0.2857431580490882E+02  0.2842675524694595E+02
  0.2827995605003334E+02  0.2813391431164422E+02  0.2798862614827855E+02  0.2784408769540586E+02  0.2770029510740696E+02
  0.2755724455751457E+02  0.2741493223775285E+02  0.2727335435887615E+02  0.2713250715030657E+02  0.2699238686007081E+02
  0.2685298975473610E+02  0.2671431211934534E+02  0.2657635025735151E+02  0.2643910049055136E+02  0.2630255915901839E+02
  0.2616672262103519E+02  0.2603158725302524E+02  0.2589714944948411E+02  0.2576340562291007E+02  0.2563035220373429E+02
  0.2549798564025056E+02  0.2536630239854446E+02  0.2523529896242228E+02  0.2510497183333957E+02  0.2497531753032903E+02
  0.2484633258992856E+02  0.2471801356610856E+02  0.2459035703019932E+02  0.2446335957081785E+02  0.2433701779379475E+02
  0.2421132832210064E+02  0.2408628779577262E+02  0.2396189287184038E+02  0.2383814022425237E+02  0.2371502654380154E+02
  0.2359254853805136E+02  0.2347070293126146E+02  0.2334948646431323E+02  0.2322889589463560E+02  0.2310892799613043E+02
  0.2298957955909816E+02  0.2287084739016334E+02  0.2275272831220011E+02  0.2263521916425784E+02  0.2251831680148664E+02
  0.2240201809506303E+02  0.2228631993211567E+02  0.2217121921565102E+02  0.2205671286447930E+02  0.2194279781314021E+02
  0.2182947101182920E+02  0.2171672942632341E+02  0.2160457003790799E+02  0.2149298984330247E+02  0.2138198585458725E+02
  0.2127155509913021E+02  0.2116169461951368E+02  0.2105240147346113E+02  0.2094367273376451E+02  0.2083550548821150E+02
  0.2072789683951293E+02  0.2062084390523045E+02  0.2051434381770446E+02  0.2040839372398209E+02  0.2030299078574543E+02
  0.2019813217924009E+02  0.2009381509520381E+02  0.1999003673879531E+02  0.1988679432952345E+02  0.1978408510117661E+02
  0.1968190630175216E+02  0.1958025519338636E+02  0.1947912905228428E+02  0.1937852516865023E+02  0.1927844084661819E+02
  0.1917887340418255E+02  0.1907982017312924E+02  0.1898127849896692E+02  0.1888324574085853E+02  0.1878571927155313E+02
  0.1868869647731787E+02  0.1859217475787034E+02  0.1849615152631117E+02  0.1840062420905684E+02  0.1830559024577276E+02
  0.1821104708930674E+02  0.1811699220562259E+02  0.1802342307373403E+02  0.1793033718563890E+02  0.1783773204625367E+02
  0.1774560517334814E+02  0.1765395409748048E+02  0.1756277636193255E+02  0.1747206952264549E+02  0.1738183114815556E+02
  0.1729205881953026E+02  0.1720275013030485E+02  0.1711390268641898E+02  0.1702551410615364E+02  0.1693758202006856E+02
  0.1685010407093964E+02  0.1676307791369679E+02  0.1667650121536219E+02  0.1659037165498847E+02  0.1650468692359757E+02
  0.1641944472411963E+02  0.1633464277133226E+02  0.1625027879180001E+02  0.1616635052381426E+02  0.1608285571733328E+02
  0.1599979213392261E+02  0.1591715754669567E+02  0.1583494974025479E+02  0.1575316651063235E+02  0.1567180566523230E+02
  0.1559086502277195E+02  0.1551034241322400E+02  0.1543023567775888E+02  0.1535054266868741E+02  0.1527126124940361E+02
  0.1519238929432791E+02  0.1511392468885062E+02  0.1503586532927559E+02  0.1495820912276422E+02  0.1488095398727972E+02
  0.1480409785153170E+02  0.1472763865492092E+02  0.1465157434748435E+02  0.1457590288984062E+02  0.1450062225313557E+02
  0.1442573041898814E+02  0.1435122537943654E+02  0.1427710513688471E+02  0.1420336770404896E+02  0.1413001110390493E+02
  0.1405703336963488E+02  0.1398443254457506E+02  0.1391220668216359E+02  0.1384035384588834E+02  0.1376887210923530E+02
  0.1369775955563703E+02  0.1362701427842150E+02  0.1355663438076113E+02  0.1348661797562204E+02  0.1341696318571367E+02
  0.1334766814343856E+02  0.1327873099084239E+02  0.1321014987956434E+02  0.1314192297078762E+02  0.1307404843519033E+02
  0.1300652445289646E+02  0.1293934921342723E+02  0.1287252091565271E+02  0.1280603776774356E+02  0.1273989798712305E+02
  0.1267409980041946E+02  0.1260864144341851E+02  0.1254352116101621E+02  0.1247873720717186E+02  0.1241428784486127E+02
  0.1235017134603033E+02  0.1228638599154866E+02  0.1222293007116365E+02  0.1215980188345462E+02  0.1209699973578729E+02
  0.1203452194426840E+02  0.1197236683370069E+02  0.1191053273753796E+02  0.1184901799784048E+02  0.1178782096523054E+02
  0.1172693999884832E+02  0.1166637346630792E+02  0.1160611974365357E+02  0.1154617721531622E+02  0.1148654427407017E+02
  0.1142721932099009E+02  0.1136820076540810E+02  0.1130948702487122E+02  0.1125107652509893E+02  0.1119296769994099E+02
  0.1113515899133547E+02  0.1107764884926702E+02  0.1102043573172532E+02  0.1096351810466375E+02  0.1090689444195828E+02
  0.1085056322536658E+02  0.1079452294448733E+02  0.1073877209671974E+02  0.1068330918722326E+02  0.1062813272887754E+02
  0.1057324124224255E+02  0.1051863325551895E+02  0.1046430730450862E+02  0.1041026193257544E+02  0.1035649569060618E+02
  0.1030300713697178E+02  0.1024979483748855E+02  0.1019685736537987E+02  0.1014419330123786E+02  0.1009180123298535E+02
  0.1003967975583802E+02  0.9987827472266771E+01  0.9936242991960254E+01  0.9884924931787559E+01  0.9833871915761172E+01
  0.9783082575000101E+01  0.9732555547693137E+01  0.9682289479062382E+01  0.9632283021326909E+01  0.9582534833666639E+01
  0.9533043582186389E+01  0.9483807939880128E+01  0.9434826586595367E+01  0.9386098208997796E+01  0.9337621500536070E+01
  0.9289395161406770E+01  0.9241417898519552E+01  0.9193688425462502E+01  0.9146205462467622E+01  0.9098967736376535E+01
  0.9051973980606334E+01  0.9005222935115651E+01  0.8958713346370844E+01  0.8912443967312406E+01  0.8866413557321533E+01
  0.8820620882186843E+01  0.8775064714071311E+01  0.8729743831479324E+01  0.8684657019223952E+01  0.8639803068394349E+01
  0.8595180776323348E+01  0.8550788946555233E+01  0.8506626388813622E+01  0.8462691918969579E+01  0.8418984359009869E+01
  0.8375502537005369E+01  0.8332245287079628E+01  0.8289211449377623E+01  0.8246399870034679E+01  0.8203809401145492E+01
  0.8161438900733375E+01  0.8119287232719643E+01  0.8077353266893146E+01  0.8035635878879948E+01  0.7994133950113222E+01
  0.7952846367803208E+01  0.7911772024907412E+01  0.7870909820100920E+01  0.7830258657746846E+01  0.7789817447866976E+01
  0.7749585106112549E+01  0.7709560553735159E+01  0.7669742717557849E+01  0.7630130529946324E+01  0.7590722928780344E+01
  0.7551518857425220E+01  0.7512517264703508E+01  0.7473717104866806E+01  0.7435117337567722E+01  0.7396716927831983E+01
  0.7358514846030673E+01  0.7320510067852640E+01  0.7282701574277024E+01  0.7245088351545925E+01  0.7207669391137245E+01
  0.7170443689737621E+01  0.7133410249215550E+01  0.7096568076594590E+01  0.7059916184026779E+01  0.7023453588766114E+01
  0.6987179313142208E+01  0.6951092384534095E+01  0.6915191835344129E+01  0.6879476702972044E+01  0.6843946029789154E+01
  0.6808598863112675E+01  0.6773434255180158E+01  0.6738451263124118E+01  0.6703648948946710E+01  0.6669026379494603E+01
  0.6634582626433968E+01  0.6600316766225558E+01  0.6566227880099959E+01  0.6532315054032970E+01  0.6498577378721078E+01
  0.6465013949557076E+01  0.6431623866605809E+01  0.6398406234580063E+01  0.6365360162816530E+01  0.6332484765251950E+01
  0.6299779160399339E+01  0.6267242471324368E+01  0.6234873825621828E+01  0.6202672355392261E+01  0.6170637197218675E+01
  0.6138767492143404E+01  0.6107062385645056E+01  0.6075521027615634E+01  0.6044142572337708E+01  0.6012926178461761E+01
  0.5981871008983624E+01  0.5950976231222031E+01  0.5920241016796290E+01  0.5889664541604076E+01  0.5859245985799342E+01
  0.5828984533770322E+01  0.5798879374117666E+01  0.5768929699632692E+01  0.5739134707275736E+01  0.5709493598154617E+01
  0.5680005577503221E+01  0.5650669854660198E+01  0.5621485643047742E+01  0.5592452160150517E+01  0.5563568627494677E+01
  0.5534834270626984E+01  0.5506248319094038E+01  0.5477810006421642E+01  0.5449518570094220E+01  0.5421373251534390E+01
  0.5393373296082630E+01  0.5365517952977024E+01  0.5337806475333144E+01  0.5310238120124026E+01  0.5282812148160247E+01
  0.5255527824070090E+01  0.5228384416279843E+01  0.5201381196994183E+01  0.5174517442176650E+01  0.5147792431530241E+01
  0.5121205448478103E+01  0.5094755780144303E+01  0.5068442717334731E+01  0.5042265554518073E+01  0.5016223589806897E+01
  0.4990316124938834E+01  0.4964542465257854E+01  0.4938901919695637E+01  0.4913393800753066E+01  0.4888017424481748E+01
  0.4862772110465726E+01  0.4837657181803197E+01  0.4812671965088376E+01  0.4787815790393448E+01  0.4763087991250589E+01
  0.4738487904634117E+01  0.4714014870942689E+01  0.4689668233981635E+01  0.4665447340945356E+01  0.4641351542399818E+01
  0.4617380192265142E+01  0.4593532647798280E+01  0.4569808269575788E+01  0.4546206421476668E+01  0.4522726470665318E+01
  0.4499367787574565E+01  0.4476129745888789E+01  0.4453011722527112E+01  0.4430013097626719E+01  0.4407133254526210E+01
  0.4384371579749083E+01  0.4361727462987277E+01  0.4339200297084811E+01  0.4316789478021506E+01  0.4294494404896781E+01
  0.4272314479913559E+01  0.4250249108362216E+01  0.4228297698604647E+01  0.4206459662058402E+01  0.4184734413180903E+01
  0.4163121369453743E+01  0.4141619951367077E+01  0.4120229582404064E+01  0.4098949689025423E+01  0.4077779700654052E+01
  0.4056719049659726E+01  0.4035767171343885E+01  0.4014923503924478E+01  0.3994187488520923E+01  0.3973558569139097E+01
  0.3953036192656441E+01  0.3932619808807132E+01  0.3912308870167320E+01  0.3892102832140455E+01  0.3872001152942679E+01
  0.3852003293588318E+01  0.3832108717875403E+01  0.3812316892371306E+01  0.3792627286398447E+01  0.3773039372020047E+01
  0.3753552624025977E+01  0.3734166519918695E+01  0.3714880539899204E+01  0.3695694166853138E+01  0.3676606886336887E+01
  0.3657618186563806E+01  0.3638727558390499E+01  0.3619934495303149E+01  0.3601238493403962E+01  0.3582639051397631E+01
  0.3564135670577911E+01  0.3545727854814243E+01  0.3527415110538449E+01  0.3509196946731499E+01  0.3491072874910354E+01
  0.3473042409114849E+01  0.3455105065894683E+01  0.3437260364296443E+01  0.3419507825850714E+01  0.3401846974559250E+01
  0.3384277336882203E+01  0.3366798441725448E+01  0.3349409820427919E+01  0.3332111006749073E+01  0.3314901536856367E+01
  0.3297780949312836E+01  0.3280748785064711E+01  0.3263804587429111E+01  0.3246947902081814E+01  0.3230178277045050E+01
  0.3213495262675393E+01  0.3196898411651718E+01  0.3180387278963185E+01  0.3163961421897315E+01  0.3147620400028135E+01
  0.3131363775204342E+01  0.3115191111537575E+01  0.3099101975390718E+01  0.3083095935366273E+01  0.3067172562294807E+01
  0.3051331429223417E+01  0.3035572111404315E+01  0.3019894186283412E+01  0.3004297233489002E+01  0.2988780834820487E+01
  0.2973344574237162E+01  0.2957988037847067E+01  0.2942710813895881E+01  0.2927512492755888E+01  0.2912392666914985E+01
  0.2897350930965765E+01  0.2882386881594642E+01  0.2867500117571037E+01  0.2852690239736618E+01  0.2837956850994608E+01
  0.2823299556299122E+01  0.2808717962644588E+01  0.2794211679055197E+01  0.2779780316574431E+01  0.2765423488254628E+01
  0.2751140809146605E+01  0.2736931896289349E+01  0.2722796368699730E+01  0.2708733847362295E+01  0.2694743955219112E+01
  0.2680826317159647E+01  0.2666980560010713E+01  0.2653206312526469E+01  0.2639503205378455E+01  0.2625870871145695E+01
  0.2612308944304846E+01  0.2598817061220399E+01  0.2585394860134921E+01  0.2572041981159360E+01  0.2558758066263403E+01
  0.2545542759265861E+01  0.2532395705825130E+01  0.2519316553429684E+01  0.2506304951388626E+01  0.2493360550822288E+01
  0.2480483004652869E+01  0.2467671967595137E+01  0.2454927096147161E+01  0.2442248048581111E+01  0.2429634484934089E+01
  0.2417086066999012E+01  0.2404602458315553E+01  0.2392183324161112E+01  0.2379828331541838E+01  0.2367537149183711E+01
  0.2355309447523648E+01  0.2343144898700676E+01  0.2331043176547134E+01  0.2319003956579931E+01  0.2307026915991850E+01
  0.2295111733642879E+01  0.2283258090051618E+01  0.2271465667386697E+01  0.2259734149458265E+01  0.2248063221709502E+01
  0.2236452571208198E+01  0.2224901886638353E+01  0.2213410858291826E+01  0.2201979178060042E+01  0.2190606539425725E+01
  0.2179292637454676E+01  0.2168037168787602E+01  0.2156839831631983E+01  0.2145700325753975E+01  0.2134618352470361E+01
  0.2123593614640544E+01  0.2112625816658580E+01  0.2101714664445254E+01  0.2090859865440187E+01  0.2080061128594003E+01
  0.2069318164360512E+01  0.2058630684688958E+01  0.2047998403016291E+01  0.2037421034259477E+01  0.2026898294807869E+01
  0.2016429902515589E+01  0.2006015576693968E+01  0.1995655038104021E+01  0.1985348008948955E+01  0.1975094212866728E+01
  0.1964893374922632E+01  0.1954745221601923E+01  0.1944649480802492E+01  0.1934605881827563E+01  0.1924614155378436E+01
  0.1914674033547269E+01  0.1904785249809889E+01  0.1894947539018659E+01  0.1885160637395348E+01  0.1875424282524080E+01
  0.1865738213344279E+01  0.1856102170143683E+01  0.1846515894551371E+01  0.1836979129530842E+01  0.1827491619373118E+01
  0.1818053109689896E+01  0.1808663347406714E+01  0.1799322080756176E+01  0.1790029059271198E+01  0.1780784033778289E+01
  0.1771586756390876E+01  0.1762436980502657E+01  0.1753334460780980E+01  0.1744278953160272E+01  0.1735270214835501E+01
  0.1726308004255652E+01  0.1717392081117257E+01  0.1708522206357953E+01  0.1699698142150073E+01  0.1690919651894265E+01
  0.1682186500213148E+01  0.1673498452945006E+01  0.1664855277137504E+01  0.1656256741041444E+01  0.1647702614104551E+01
  0.1639192666965296E+01  0.1630726671446737E+01  0.1622304400550403E+01  0.1613925628450215E+01  0.1605590130486424E+01
  0.1597297683159590E+01  0.1589048064124585E+01  0.1580841052184639E+01  0.1572676427285403E+01  0.1564553970509048E+01
  0.1556473464068401E+01  0.1548434691301099E+01  0.1540437436663784E+01  0.1532481485726326E+01  0.1524566625166063E+01
  0.1516692642762093E+01  0.1508859327389575E+01  0.1501066469014076E+01  0.1493313858685931E+01  0.1485601288534647E+01
  0.1477928551763327E+01  0.1470295442643124E+01  0.1462701756507729E+01  0.1455147289747876E+01  0.1447631839805888E+01
  0.1440155205170246E+01  0.1432717185370185E+01  0.1425317580970317E+01  0.1417956193565285E+01  0.1410632825774442E+01
  0.1403347281236563E+01  0.1396099364604575E+01  0.1388888881540316E+01  0.1381715638709340E+01  0.1374579443775712E+01
  0.1367480105396866E+01  0.1360417433218466E+01  0.1353391237869312E+01  0.1346401330956250E+01  0.1339447525059130E+01
  0.1332529633725775E+01  0.1325647471466987E+01  0.1318800853751568E+01  0.1311989597001375E+01  0.1305213518586399E+01
  0.1298472436819863E+01  0.1291766170953360E+01  0.1285094541171997E+01  0.1278457368589575E+01  0.1271854475243800E+01
  0.1265285684091501E+01  0.1258750819003890E+01  0.1252249704761841E+01  0.1245782167051182E+01  0.1239348032458033E+01
  0.1232947128464147E+01  0.1226579283442291E+01  0.1220244326651637E+01  0.1213942088233191E+01  0.1207672399205238E+01
  0.1201435091458804E+01  0.1195229997753156E+01  0.1189056951711314E+01  0.1182915787815591E+01  0.1176806341403156E+01
  0.1170728448661616E+01  0.1164681946624629E+01  0.1158666673167527E+01  0.1152682467002976E+01  0.1146729167676644E+01
  0.1140806615562910E+01  0.1134914651860571E+01  0.1129053118588592E+01  0.1123221858581870E+01  0.1117420715487015E+01
  0.1111649533758162E+01  0.1105908158652800E+01  0.1100196436227622E+01  0.1094514213334395E+01  0.1088861337615859E+01
  0.1083237657501639E+01  0.1077643022204177E+01  0.1072077281714696E+01  0.1066540286799175E+01  0.1061031888994344E+01
  0.1055551940603710E+01  0.1050100294693590E+01  0.1044676805089178E+01  0.1039281326370619E+01  0.1033913713869115E+01
  0.1028573823663042E+01  0.1023261512574095E+01  0.1017976638163447E+01  0.1012719058727927E+01  0.1007488633296227E+01
  0.1002285221625117E+01  0.9971086841956843E+00  0.9919588822095969E+00  0.9868356775853768E+00  0.9817389329547045E+00
  0.9766685116587273E+00  0.9716242777443999E+00  0.9666060959608410E+00  0.9616138317557019E+00  0.9566473512715605E+00
  0.9517065213423361E+00  0.9467912094897122E+00  0.9419012839195888E+00  0.9370366135185481E+00  0.9321970678503372E+00
  0.9273825171523729E+00  0.9225928323322596E+00  0.9178278849643332E+00  0.9130875472862109E+00  0.9083716921953695E+00
  0.9036801932457368E+00  0.8990129246443017E+00  0.8943697612477387E+00  0.8897505785590576E+00  0.8851552527242584E+00
  0.8805836605290183E+00  0.8760356793953801E+00  0.8715111873784711E+00  0.8670100631632310E+00  0.8625321860611592E+00
  0.8580774360070813E+00  0.8536456935559252E+00  0.8492368398795223E+00  0.8448507567634190E+00  0.8404873266037092E+00
  0.8361464324038790E+00  0.8318279577716698E+00  0.8275317869159606E+00  0.8232578046436588E+00  0.8190058963566127E+00
  0.8147759480485430E+00  0.8105678463019798E+00  0.8063814782852243E+00  0.8022167317493262E+00  0.7980734950250683E+00
  0.7939516570199767E+00  0.7898511072153405E+00  0.7857717356632485E+00  0.7817134329836414E+00  0.7776760903613779E+00
  0.7736595995433209E+00  0.7696638528354292E+00  0.7656887430998739E+00  0.7617341637521643E+00  0.7578000087582899E+00
  0.7538861726318797E+00  0.7499925504313690E+00  0.7461190377571916E+00  0.7422655307489744E+00  0.7384319260827574E+00
  0.7346181209682211E+00  0.7308240131459298E+00  0.7270495008845915E+00  0.7232944829783304E+00  0.7195588587439705E+00
  0.7158425280183381E+00  0.7121453911555763E+00  0.7084673490244723E+00  0.7048083030057991E+00  0.7011681549896726E+00
  0.6975468073729211E+00  0.6939441630564657E+00  0.6903601254427185E+00  0.6867945984329944E+00  0.6832474864249312E+00
  0.6797186943099265E+00  0.6762081274705916E+00  0.6727156917782086E+00  0.6692412935902110E+00  0.6657848397476707E+00
  0.6623462375728008E+00  0.6589253948664712E+00  0.6555222199057343E+00  0.6521366214413701E+00  0.6487685086954335E+00
  0.6454177913588254E+00  0.6420843795888681E+00  0.6387681840068977E+00  0.6354691156958686E+00  0.6321870861979658E+00
  0.6289220075122389E+00  0.6256737920922354E+00  0.6224423528436595E+00  0.6192276031220326E+00  0.6160294567303732E+00
  0.6128478279168833E+00  0.6096826313726514E+00  0.6065337822293630E+00  0.6034011960570258E+00  0.6002847888617063E+00
  0.5971844770832777E+00  0.5941001775931783E+00  0.5910318076921833E+00  0.5879792851081893E+00  0.5849425279940036E+00
  0.5819214549251553E+00  0.5789159848977070E+00  0.5759260373260866E+00  0.5729515320409241E+00  0.5699923892869028E+00
  0.5670485297206229E+00  0.5641198744084701E+00  0.5612063448245025E+00  0.5583078628483427E+00  0.5554243507630852E+00
  0.5525557312532106E+00  0.5497019274025152E+00  0.5468628626920460E+00  0.5440384609980495E+00  0.5412286465899316E+00
  0.5384333441282274E+00  0.5356524786625795E+00  0.5328859756297281E+00  0.5301337608515146E+00  0.5273957605328899E+00
  0.5246719012599367E+00  0.5219621099979005E+00  0.5192663140892323E+00  0.5165844412516396E+00  0.5139164195761501E+00
  0.5112621775251794E+00  0.5086216439306180E+00  0.5059947479919191E+00  0.5033814192742024E+00  0.5007815877063646E+00
  0.4981951835792005E+00  0.4956221375435360E+00  0.4930623806083640E+00  0.4905158441390002E+00  0.4879824598552379E+00
  0.4854621598295202E+00  0.4829548764851173E+00  0.4804605425943148E+00  0.4779790912766124E+00  0.4755104559969283E+00
  0.4730545705638165E+00  0.4706113691276923E+00  0.4681807861790657E+00  0.4657627565467853E+00  0.4633572153962919E+00
  0.4609640982278783E+00  0.4585833408749605E+00  0.4562148795023571E+00  0.4538586506045795E+00  0.4515145910041256E+00
  0.4491826378497879E+00  0.4468627286149696E+00  0.4445548010960046E+00  0.4422587934104924E+00  0.4399746439956376E+00
  0.4377022916065996E+00  0.4354416753148496E+00  0.4331927345065388E+00  0.4309554088808712E+00  0.4287296384484868E+00
  0.4265153635298545E+00  0.4243125247536707E+00  0.4221210630552668E+00  0.4199409196750282E+00  0.4177720361568152E+00
  0.4156143543463970E+00  0.4134678163898942E+00  0.4113323647322241E+00  0.4092079421155599E+00  0.4070944915777944E+00
  0.4049919564510124E+00  0.4029002803599731E+00  0.4008194072205951E+00  0.3987492812384554E+00  0.3966898469072920E+00
  0.3946410490075160E+00  0.3926028326047297E+00  0.3905751430482562E+00  0.3885579259696715E+00  0.3865511272813473E+00
  0.3845546931750001E+00  0.3825685701202507E+00  0.3805927048631858E+00  0.3786270444249312E+00  0.3766715361002321E+00
  0.3747261274560381E+00  0.3727907663300980E+00  0.3708654008295614E+00  0.3689499793295862E+00  0.3670444504719548E+00
  0.3651487631636979E+00  0.3632628665757219E+00  0.3613867101414482E+00  0.3595202435554556E+00  0.3576634167721321E+00
  0.3558161800043325E+00  0.3539784837220445E+00  0.3521502786510574E+00  0.3503315157716446E+00  0.3485221463172456E+00
  0.3467221217731602E+00  0.3449313938752467E+00  0.3431499146086277E+00  0.3413776362064022E+00  0.3396145111483655E+00
  0.3378604921597333E+00  0.3361155322098746E+00  0.3343795845110504E+00  0.3326526025171586E+00  0.3309345399224857E+00
  0.3292253506604657E+00  0.3275249889024429E+00  0.3258334090564436E+00  0.3241505657659543E+00  0.3224764139087030E+00
  0.3208109085954505E+00  0.3191540051687858E+00  0.3175056592019289E+00  0.3158658264975378E+00  0.3142344630865243E+00
  0.3126115252268736E+00  0.3109969694024720E+00  0.3093907523219379E+00  0.3077928309174628E+00  0.3062031623436536E+00
  0.3046217039763848E+00  0.3030484134116543E+00  0.3014832484644460E+00  0.2999261671675975E+00  0.2983771277706760E+00
  0.2968360887388551E+00  0.2953030087518038E+00  0.2937778467025749E+00  0.2922605616965036E+00  0.2907511130501101E+00
  0.2892494602900073E+00  0.2877555631518153E+00  0.2862693815790813E+00  0.2847908757222031E+00  0.2833200059373611E+00
  0.2818567327854539E+00  0.2804010170310400E+00  0.2789528196412839E+00  0.2775121017849099E+00  0.2760788248311587E+00
  0.2746529503487500E+00  0.2732344401048528E+00  0.2718232560640571E+00  0.2704193603873534E+00  0.2690227154311170E+00
  0.2676332837460977E+00  0.2662510280764134E+00  0.2648759113585500E+00  0.2635078967203666E+00  0.2621469474801045E+00
  0.2607930271454027E+00  0.2594460994123182E+00  0.2581061281643497E+00  0.2567730774714680E+00  0.2554469115891514E+00
  0.2541275949574244E+00  0.2528150921999036E+00  0.2515093681228455E+00  0.2502103877142023E+00  0.2489181161426810E+00
  0.2476325187568058E+00  0.2463535610839884E+00  0.2450812088296005E+00  0.2438154278760523E+00  0.2425561842818748E+00
  0.2413034442808084E+00  0.2400571742808933E+00  0.2388173408635672E+00  0.2375839107827662E+00  0.2363568509640307E+00
  0.2351361285036151E+00  0.2339217106676039E+00  0.2327135648910293E+00  0.2315116587769956E+00  0.2303159600958078E+00
  0.2291264367841030E+00  0.2279430569439878E+00  0.2267657888421793E+00  0.2255946009091514E+00  0.2244294617382830E+00
  0.2232703400850128E+00  0.2221172048659980E+00  0.2209700251582760E+00  0.2198287701984311E+00  0.2186934093817664E+00
  0.2175639122614768E+00  0.2164402485478295E+00  0.2153223881073466E+00  0.2142103009619920E+00  0.2131039572883634E+00
  0.2120033274168866E+00  0.2109083818310154E+00  0.2098190911664340E+00  0.2087354262102646E+00  0.2076573579002780E+00
  0.2065848573241091E+00  0.2055178957184745E+00  0.2044564444683960E+00  0.2034004751064270E+00  0.2023499593118817E+00
  0.2013048689100692E+00  0.2002651758715321E+00  0.1992308523112867E+00  0.1982018704880681E+00  0.1971782028035797E+00
  0.1961598218017443E+00  0.1951467001679612E+00  0.1941388107283644E+00  0.1931361264490864E+00  0.1921386204355245E+00
  0.1911462659316110E+00  0.1901590363190869E+00  0.1891769051167781E+00  0.1881998459798769E+00  0.1872278326992248E+00
  0.1862608392006003E+00  0.1852988395440097E+00  0.1843418079229801E+00  0.1833897186638580E+00  0.1824425462251079E+00
  0.1815002651966178E+00  0.1805628502990050E+00  0.1796302763829274E+00  0.1787025184283952E+00  0.1777795515440894E+00
  0.1768613509666798E+00  0.1759478920601488E+00  0.1750391503151163E+00  0.1741351013481695E+00  0.1732357209011944E+00
  0.1723409848407104E+00  0.1714508691572091E+00  0.1705653499644940E+00  0.1696844034990249E+00  0.1688080061192648E+00
  0.1679361343050287E+00  0.1670687646568365E+00  0.1662058738952683E+00  0.1653474388603219E+00  0.1644934365107743E+00
  0.1636438439235442E+00  0.1627986382930592E+00  0.1619577969306242E+00  0.1611212972637927E+00  0.1602891168357421E+00
  0.1594612333046493E+00  0.1586376244430708E+00  0.1578182681373244E+00  0.1570031423868735E+00  0.1561922253037149E+00
  0.1553854951117668E+00  0.1545829301462626E+00  0.1537845088531434E+00  0.1529902097884556E+00  0.1522000116177503E+00
  0.1514138931154836E+00  0.1506318331644212E+00  0.1498538107550442E+00  0.1490798049849573E+00  0.1483097950582986E+00
  0.1475437602851532E+00  0.1467816800809676E+00  0.1460235339659664E+00  0.1452693015645715E+00  0.1445189626048233E+00
  0.1437724969178037E+00  0.1430298844370611E+00  0.1422911051980377E+00  0.1415561393374988E+00  0.1408249670929629E+00
  0.1400975688021361E+00  0.1393739249023453E+00  0.1386540159299757E+00  0.1379378225199089E+00  0.1372253254049629E+00
  0.1365165054153339E+00  0.1358113434780405E+00  0.1351098206163684E+00  0.1344119179493171E+00  0.1337176166910485E+00
  0.1330268981503376E+00  0.1323397437300230E+00  0.1316561349264609E+00  0.1309760533289787E+00  0.1302994806193325E+00
  0.1296263985711626E+00  0.1289567890494535E+00  0.1282906340099942E+00  0.1276279154988382E+00  0.1269686156517676E+00
  0.1263127166937564E+00  0.1256602009384351E+00  0.1250110507875579E+00  0.1243652487304693E+00  0.1237227773435726E+00
  0.1230836192897998E+00  0.1224477573180817E+00  0.1218151742628194E+00  0.1211858530433566E+00  0.1205597766634529E+00
  0.1199369282107588E+00  0.1193172908562891E+00  0.1187008478538996E+00  0.1180875825397631E+00  0.1174774783318474E+00
  0.1168705187293923E+00  0.1162666873123879E+00  0.1156659677410546E+00  0.1150683437553218E+00  0.1144737991743081E+00
  0.1138823178958020E+00  0.1132938838957431E+00  0.1127084812277023E+00  0.1121260940223651E+00  0.1115467064870118E+00
  0.1109703029050008E+00  0.1103968676352502E+00  0.1098263851117210E+00  0.1092588398428990E+00  0.1086942164112779E+00
  0.1081324994728422E+00  0.1075736737565490E+00  0.1070177240638114E+00  0.1064646352679807E+00  0.1059143923138285E+00
  0.1053669802170290E+00  0.1048223840636408E+00  0.1042805890095886E+00  0.1037415802801440E+00  0.1032053431694062E+00
  0.1026718630397827E+00  0.1021411253214692E+00  0.1016131155119280E+00  0.1010878191753677E+00  0.1005652219422204E+00
  0.1000453095086198E+00  0.9952806763587684E-01  0.9901348214995601E-01  0.9850153894095019E-01  0.9799222396255436E-01
  0.9748552323153943E-01  0.9698142282722302E-01  0.9647990889094132E-01  0.9598096762551873E-01  0.9548458529473648E-01
  0.9499074822280000E-01  0.9449944279380530E-01  0.9401065545120375E-01  0.9352437269726538E-01  0.9304058109254107E-01
  0.9255926725532336E-01  0.9208041786110485E-01  0.9160401964203585E-01  0.9113005938638047E-01  0.9065852393797023E-01
  0.9018940019565638E-01  0.8972267511276050E-01  0.8925833569652281E-01  0.8879636900754913E-01  0.8833676215925537E-01
  0.8787950231731005E-01  0.8742457669907493E-01  0.8697197257304343E-01  0.8652167725827649E-01  0.8607367812383672E-01
  0.8562796258822003E-01  0.8518451811878465E-01  0.8474333223117790E-01  0.8430439248876039E-01  0.8386768650202804E-01
  0.8343320192803125E-01  0.8300092646979111E-01  0.8257084787571344E-01  0.8214295393899992E-01  0.8171723249705631E-01
  0.8129367143089786E-01  0.8087225866455192E-01  0.8045298216445755E-01  0.8003582993886189E-01  0.7962079003721449E-01
  0.7920785054955659E-01  0.7879699960590936E-01  0.7838822537565775E-01  0.7798151606693139E-01  0.7757685992598232E-01
  0.7717424523655946E-01  0.7677366031927940E-01  0.7637509353099405E-01  0.7597853326415502E-01  0.7558396794617431E-01
  0.7519138603878142E-01  0.7480077603737731E-01  0.7441212647038437E-01  0.7402542589859362E-01  0.7364066291450694E-01
  0.7325782614167688E-01  0.7287690423404262E-01  0.7249788587526187E-01  0.7212075977803943E-01  0.7174551468345181E-01
  0.7137213936026882E-01  0.7100062260427045E-01  0.7063095323756101E-01  0.7026312010787897E-01  0.6989711208790354E-01
  0.6953291807455739E-01  0.6917052698830593E-01  0.6880992777245247E-01  0.6845110939243033E-01  0.6809406083509130E-01
  0.6773877110799041E-01  0.6738522923866729E-01  0.6703342427392416E-01  0.6668334527910048E-01  0.6633498133734406E-01
  0.6598832154887939E-01  0.6564335503027230E-01  0.6530007091369187E-01  0.6495845834616917E-01  0.6461850648885346E-01
  0.6428020451626519E-01  0.6394354161554647E-01  0.6360850698570922E-01  0.6327508983688059E-01  0.6294327938954657E-01
  0.6261306487379310E-01  0.6228443552854534E-01  0.6195738060080554E-01  0.6163188934488889E-01  0.6130795102165829E-01
  0.6098555489775792E-01  0.6066469024484618E-01  0.6034534633882752E-01  0.6002751245908404E-01  0.5971117788770718E-01
  0.5939633190872958E-01  0.5908296380735704E-01  0.5877106286920173E-01  0.5846061837951626E-01  0.5815161962242946E-01
  0.5784405588018397E-01  0.5753791643237600E-01  0.5723319055519811E-01  0.5692986752068480E-01  0.5662793659596178E-01
  0.5632738704250002E-01  0.5602820811537290E-01  0.5573038906252015E-01  0.5543391912401653E-01  0.5513878753134698E-01
  0.5484498350668906E-01  0.5455249626220218E-01  0.5426131499932582E-01  0.5397142890808625E-01  0.5368282716641291E-01
  0.5339549893946541E-01  0.5310943337897148E-01  0.5282461962257706E-01  0.5254104679320932E-01  0.5225870399845373E-01
  0.5197758032994499E-01  0.5169766486277472E-01  0.5141894665491520E-01  0.5114141474666114E-01  0.5086505816009025E-01
  0.5058986589854397E-01  0.5031582694612882E-01  0.5004293026724098E-01  0.4977116480611400E-01  0.4950051948639151E-01
  0.4923098321072658E-01  0.4896254486040852E-01  0.4869519329501945E-01  0.4842891735212069E-01  0.4816370584697234E-01
  0.4789954757228645E-01  0.4763643129801581E-01  0.4737434577117992E-01  0.4711327971573046E-01  0.4685322183245730E-01
  0.4659416079893756E-01  0.4633608526952963E-01  0.4607898387541362E-01  0.4582284522468105E-01  0.4556765790247527E-01
  0.4531341047118580E-01  0.4506009147069695E-01  0.4480768941869533E-01  0.4455619281103711E-01  0.4430559012217778E-01
  0.4405586980566729E-01  0.4380702029471276E-01  0.4355903000281132E-01  0.4331188732445637E-01  0.4306558063591915E-01
  0.4282009829610895E-01  0.4257542864751515E-01  0.4233156001723275E-01  0.4208848071807613E-01  0.4184617904978228E-01
  0.4160464330030824E-01  0.4136386174722431E-01  0.4112382265920760E-01  0.4088451429763818E-01  0.4064592491830151E-01
  0.4040804277320040E-01  0.4017085611247975E-01  0.3993435318646761E-01  0.3969852224783571E-01  0.3946335155388312E-01
  0.3922882936894621E-01  0.3899494396693876E-01  0.3876168363402516E-01  0.3852903667143034E-01  0.3829699139839024E-01
  0.3806553615524558E-01  0.3783465930668299E-01  0.3760434924512602E-01  0.3737459439428039E-01  0.3714538321283591E-01
  0.3691670419832861E-01  0.3668854589116623E-01  0.3646089687882003E-01  0.3623374580018579E-01  0.3600708135011711E-01
  0.3578089228413371E-01  0.3555516742330651E-01  0.3532989565932334E-01  0.3510506595973626E-01  0.3488066737339342E-01
  0.3465668903605672E-01  0.3443312017620752E-01  0.3420995012104112E-01  0.3398716830265212E-01  0.3376476426441054E-01
  0.3354272766753025E-01  0.3332104829782932E-01  0.3309971607268259E-01  0.3287872104816636E-01  0.3265805342639332E-01
  0.3243770356303820E-01  0.3221766197505135E-01  0.3199791934855845E-01  0.3177846654694447E-01  0.3155929461911808E-01
  0.3134039480795358E-01  0.3112175855890630E-01  0.3090337752879639E-01  0.3068524359475668E-01  0.3046734886333795E-01
  0.3024968567976603E-01  0.3003224663734321E-01  0.2981502458698596E-01  0.2959801264689143E-01  0.2938120421232287E-01
  0.2916459296550437E-01  0.2894817288561436E-01  0.2873193825886618E-01  0.2851588368866427E-01  0.2830000410582212E-01
  0.2808429477882896E-01  0.2786875132415030E-01  0.2765336971654672E-01  0.2743814629939524E-01  0.2722307779499588E-01
  0.2700816131484503E-01  0.2679339436985828E-01  0.2657877488052147E-01  0.2636430118695096E-01  0.2614997205884131E-01
  0.2593578670527855E-01  0.2572174478439654E-01  0.2550784641285260E-01  0.2529409217509888E-01  0.2508048313242406E-01
  0.2486702083174026E-01  0.2465370731408935E-01  0.2444054512284130E-01  0.2422753731155883E-01  0.2401468745149929E-01
  0.2380199963872726E-01  0.2358947850080923E-01  0.2337712920306146E-01  0.2316495745432341E-01  0.2295296951222745E-01
  0.2274117218793657E-01  0.2252957285032142E-01  0.2231817942954863E-01  0.2210700042005212E-01  0.2189604488286028E-01
  0.2168532244725139E-01  0.2147484331171164E-01  0.2126461824416888E-01  0.2105465858147870E-01  0.2084497622813796E-01
  0.2063558365420342E-01  0.2042649389239394E-01  0.2021772053435573E-01  0.2000927772607259E-01  0.1980118016240335E-01
  0.1959344308073135E-01  0.1938608225371244E-01  0.1917911398110956E-01  0.1897255508070438E-01  0.1876642287827919E-01
  0.1856073519666197E-01  0.1835551034383432E-01  0.1815076710009979E-01  0.1794652470431574E-01  0.1774280283919322E-01
  0.1753962161567216E-01  0.1733700155638238E-01  0.1713496357820252E-01  0.1693352897393376E-01  0.1673271939310583E-01
  0.1653255682193731E-01  0.1633306356247423E-01  0.1613426221093445E-01  0.1593617563528679E-01  0.1573882695209886E-01
  0.1554223950268803E-01  0.1534643682861422E-01  0.1515144264655453E-01  0.1495728082260360E-01  0.1476397534604463E-01
  0.1457155030263914E-01  0.1438002984748528E-01  0.1418943817749690E-01  0.1399979950355643E-01  0.1381113802239781E-01
  0.1362347788827596E-01  0.1343684318448088E-01  0.1325125789475579E-01  0.1306674587467989E-01  0.1288333082307600E-01
  0.1270103625350489E-01  0.1251988546590790E-01  0.1233990151845926E-01  0.1216110719968986E-01  0.1198352500094327E-01
  0.1180717708922459E-01  0.1163208528050146E-01  0.1145827101351587E-01  0.1128575532416334E-01  0.1111455882049587E-01
  0.1094470165840148E-01  0.1077620351801313E-01  0.1060908358089600E-01  0.1044336050806114E-01  0.1027905241885014E-01
  0.1011617687073319E-01  0.9954750840060209E-02  0.9794790703801525E-02  0.9636312222311838E-02  0.9479330523147825E-02
  0.9323860085966994E-02  0.9169914728530989E-02  0.9017507593835513E-02  0.8866651138381790E-02  0.8717357121606279E-02
  0.8569636596476235E-02  0.8423499901260846E-02  0.8278956652478964E-02  0.8136015739026312E-02  0.7994685317476770E-02
  0.7854972808553771E-02  0.7716884894760281E-02  0.7580427519156939E-02  0.7445605885271434E-02  0.7312424458121461E-02
  0.7180886966330814E-02  0.7050996405314028E-02  0.6922755041504441E-02  0.6796164417596826E-02  0.6671225358774853E-02
  0.6547937979889874E-02  0.6426301693558228E-02  0.6306315219139535E-02  0.6187976592560312E-02  0.6071283176942559E-02
  0.5956231673999020E-02  0.5842818136152876E-02  0.5731037979341576E-02  0.5620885996461456E-02  0.5512356371411082E-02
  0.5405442693689825E-02  0.5300137973509061E-02  0.5196434657371975E-02  0.5094324644079243E-02  0.4993799301118216E-02
  0.4894849481392007E-02  0.4797465540248018E-02  0.4701637352763118E-02  0.4607354331246471E-02  0.4514605442918843E-02
  0.4423379227731028E-02  0.4333663816282708E-02  0.4245446947805620E-02  0.4158715988175506E-02  0.4073457947919018E-02
  0.3989659500181978E-02  0.3907306998628447E-02  0.3826386495239714E-02  0.3746883757984780E-02  0.3668784288335422E-02
  0.3592073338599325E-02  0.3516735929047803E-02  0.3442756864814455E-02  0.3370120752544258E-02  0.3298812016772307E-02
  0.3228814916014888E-02  0.3160113558554599E-02  0.3092691917905445E-02  0.3026533847942469E-02  0.2961623097684294E-02
  0.2897943325716214E-02  0.2835478114244590E-02  0.2774210982773125E-02  0.2714125401393722E-02  0.2655204803685705E-02
  0.2597432599217656E-02  0.2540792185648459E-02  0.2485266960423692E-02  0.2430840332066188E-02  0.2377495731058651E-02
  0.2325216620319243E-02  0.2273986505269855E-02  0.2223788943499354E-02  0.2174607554023360E-02  0.2126426026144275E-02
  0.2079228127914500E-02  0.2032997714207794E-02  0.1987718734403151E-02  0.1943375239686791E-02  0.1899951389978296E-02
  0.1857431460486886E-02  0.1815799847905019E-02  0.1775041076246005E-02  0.1735139802333405E-02  0.1696080820949708E-02
  0.1657849069652555E-02  0.1620429633266345E-02  0.1583807748058018E-02  0.1547968805605196E-02  0.1512898356365725E-02
  0.1478582112956986E-02  0.1445005953154291E-02  0.1412155922616827E-02  0.1380018237350280E-02  0.1348579285915156E-02
  0.1317825631389437E-02  0.1287744013094582E-02  0.1258321348093783E-02  0.1229544732470967E-02  0.1201401442399318E-02
  0.1173878935007972E-02  0.1146964849055012E-02  0.1120647005415430E-02  0.1094913407391850E-02  0.1069752240856388E-02
  0.1045151874231159E-02  0.1021100858315487E-02  0.9975879259669852E-03  0.9746019916442650E-03  0.9521321508179979E-03
  0.9301676792578060E-03  0.9086980322013845E-03  0.8877128434127799E-03  0.8672019241360753E-03  0.8471552619507622E-03
  0.8275630195349945E-03  0.8084155333423142E-03  0.7897033121978237E-03  0.7714170358189999E-03  0.7535475532666915E-03
  0.7360858813311583E-03  0.7190232028583419E-03  0.7023508650207512E-03  0.6860603775379029E-03  0.6701434108503364E-03
  0.6545917942516682E-03  0.6393975139824936E-03  0.6245527112901765E-03  0.6100496804580701E-03  0.5958808668077447E-03
  0.5820388646776629E-03  0.5685164153813559E-03  0.5553064051483479E-03  0.5424018630505584E-03  0.5297959589171678E-03
  0.5174820012403209E-03  0.5054534350744514E-03  0.4937038399313587E-03  0.4822269276734540E-03  0.4710165404071658E-03
  0.4600666483786360E-03  0.4493713478734627E-03  0.4389248591224124E-03  0.4287215242146531E-03  0.4187558050201391E-03
  0.4090222811226528E-03  0.3995156477647818E-03  0.3902307138062629E-03  0.3811623996967205E-03  0.3723057354640961E-03
  0.3636558587196557E-03  0.3552080126806471E-03  0.3469575442113971E-03  0.3388999018837599E-03  0.3310306340575644E-03
  0.3233453869818476E-03  0.3158399029173890E-03  0.3085100182812163E-03  0.3013516618134976E-03  0.2943608527673247E-03
  0.2875336991217972E-03  0.2808663958187243E-03  0.2743552230232885E-03  0.2679965444089144E-03  0.2617868054666046E-03
  0.2557225318388690E-03  0.2498003276784745E-03  0.2440168740320481E-03  0.2383689272487016E-03  0.2328533174136432E-03
  0.2274669468068845E-03  0.2222067883869583E-03  0.2170698842996882E-03  0.2120533444118997E-03  0.2071543448700327E-03
  0.2023701266835336E-03  0.1976979943329366E-03  0.1931353144024692E-03  0.1886795142370402E-03  0.1843280806234609E-03
  0.1800785584956733E-03  0.1759285496638412E-03  0.1718757115670385E-03  0.1679177560493697E-03  0.1640524481592367E-03
  0.1602776049715626E-03  0.1565910944326696E-03  0.1529908342276134E-03  0.1494747906696342E-03  0.1460409776115347E-03
  0.1426874553786338E-03  0.1394123297230717E-03  0.1362137507991311E-03  0.1330899121593260E-03  0.1300390497709324E-03
  0.1270594410526739E-03  0.1241494039312787E-03  0.1213072959175739E-03  0.1185315132018527E-03  0.1158204897681722E-03
  0.1131726965273230E-03  0.1105866404681112E-03  0.1080608638267072E-03  0.1055939432737089E-03  0.1031844891186537E-03
  0.1008311445316458E-03  0.9853258478182999E-04  0.9628751649238214E-04  0.9409467691174920E-04  0.9195283320081947E-04
  0.2064395573651381E+03  0.2064395573651381E+03  0.2064395573651381E+03  0.2064395573651381E+03  0.2064395573651381E+03
  0.2064395573651381E+03  0.2064395573651381E+03  0.2064395573651381E+03  0.2064395573651381E+03  0.2064395573651381E+03
  0.2064395573651381E+03  0.2064395573651381E+03  0.2064395573651381E+03  0.2064395573651381E+03  0.2064395573651381E+03
  0.2064395573651381E+03  0.2064395573651381E+03  0.2064395573651381E+03  0.2064395573651381E+03  0.2064395573651381E+03
  0.2064395573651381E+03  0.2064395573651381E+03  0.2064395573651381E+03  0.2064395573651381E+03  0.2064395573651381E+03
  0.2064395573651381E+03  0.2064395573651381E+03  0.2064395573651381E+03  0.2064395573651381E+03  0.2064395573651381E+03
  0.2064395573651381E+03  0.2064395573651381E+03  0.2064395573651381E+03  0.2064395573651381E+03  0.2064395573651381E+03
  0.2064395573651381E+03  0.2064395573651381E+03  0.2064395573651381E+03  0.2064395573651381E+03  0.2064395573651381E+03
  0.2064395573651381E+03  0.2064395573651381E+03  0.2064395573651381E+03  0.2064395573651381E+03  0.2064395573651381E+03
  0.2064395573651381E+03  0.2064395573651381E+03  0.2064395573651381E+03  0.2064395573651381E+03  0.2064395573651381E+03
  0.2064395573651381E+03  0.2064395573651381E+03  0.2064395573651381E+03  0.2064395573651381E+03  0.2064395573651381E+03
  0.2064395573651381E+03  0.2064395573651381E+03  0.2064395573651381E+03  0.2064395573651381E+03  0.2064395573651381E+03
  0.2064395573651381E+03  0.2064395573651381E+03  0.2064395573651381E+03  0.2064395573651381E+03  0.2064395573651381E+03
  0.2064395573651381E+03  0.2064395573651381E+03  0.2064395573651381E+03  0.2064395573651381E+03  0.2064395573651381E+03
  0.2064395573651381E+03  0.2064395573651381E+03  0.2064395573651381E+03  0.2064395573651381E+03  0.2064395573651381E+03
  0.2064395573651381E+03  0.2064395573651381E+03  0.2064395573651381E+03  0.2064395573651381E+03  0.2064395573651381E+03
  0.2064395573651381E+03  0.2064395573651381E+03  0.2064395573651381E+03  0.2064395573651381E+03  0.2064395573651381E+03
  0.2064395573651381E+03  0.2064395573651381E+03  0.2064395573651381E+03  0.2064395573651381E+03  0.2064395573651381E+03
  0.2064395573651381E+03  0.2064395573651381E+03  0.2064395573651381E+03  0.2064395573651381E+03  0.2064395573651381E+03
  0.2064395573651381E+03  0.2064395573651381E+03  0.2064395573651381E+03  0.2064395573651381E+03  0.2064395573651381E+03
  0.2064395573651381E+03  0.2064395573651381E+03  0.2064395573651381E+03  0.2064395573651381E+03  0.2064395573651381E+03
  0.2064395573651381E+03  0.2064395573651381E+03  0.2064395573651381E+03  0.2064395573651381E+03  0.2064395573651381E+03
