  DATE: 2018-03-30 CONTRIBUTOR: Xiaowang Zhou xzhou@sandia.gov and Lucas Hale lucas.hale@nist.gov CITATION: X. W. Zhou, R. A. Johnson, H. N. G. Wadley, Phys. Rev. B, 69, 144113(2004)
  Generated from Zhou04_create_v2.f
  Fixes precision issues with older version
    3 Cu Ag Au                
 2000  0.5078566792244629E-01 2000  0.3234763723004291E-02  0.6466292682285578E+01
   29     63.546         3.6150    fcc     
  0.0000000000000000E+00 -0.1378126915024203E-01 -0.2750625848921862E-01 -0.4117507820551425E-01 -0.5478783848771474E-01
 -0.6834464952440411E-01 -0.8184562150416885E-01 -0.9529086461559455E-01 -0.1086804890472657E+00 -0.1220146049877685E+00
 -0.1352933226256869E+00 -0.1485167521496076E+00 -0.1616850037481158E+00 -0.1747981876097957E+00 -0.1878564139232339E+00
 -0.2008597928770149E+00 -0.2138084346597244E+00 -0.2267024494599481E+00 -0.2395419474662703E+00 -0.2523270388672774E+00
 -0.2650578338515539E+00 -0.2777344426076855E+00 -0.2903569753242581E+00 -0.3029255421898555E+00 -0.3154402533930647E+00
 -0.3279012191224699E+00 -0.3403085495666570E+00 -0.3526623549142115E+00 -0.3649627453537175E+00 -0.3772098310737624E+00
 -0.3894037222629294E+00 -0.4015445291098049E+00 -0.4136323618029746E+00 -0.4256673305310228E+00 -0.4376495454825359E+00
 -0.4495791168460983E+00 -0.4614561548102952E+00 -0.4732807695637138E+00 -0.4850530712949369E+00 -0.4967731701925520E+00
 -0.5084411764451428E+00 -0.5200572002412949E+00 -0.5316213517695950E+00 -0.5431337412186268E+00 -0.5545944787769768E+00
 -0.5660036746332290E+00 -0.5773614389759695E+00 -0.5886678819937844E+00 -0.5999231138752580E+00 -0.6111272448089760E+00
 -0.6222803849835231E+00 -0.6333826445874854E+00 -0.6444341338094484E+00 -0.6554349628379965E+00 -0.6663852418617161E+00
 -0.6772850810691915E+00 -0.6881345906490086E+00 -0.6989338807897529E+00 -0.7096830616800091E+00 -0.7203822435083633E+00
 -0.7310315364634000E+00 -0.7416310507337049E+00 -0.7521808965078640E+00 -0.7626811839744614E+00 -0.7731320233220835E+00
 -0.7835335247393149E+00 -0.7938857984147412E+00 -0.8041889545369478E+00 -0.8144431032945200E+00 -0.8246483548760433E+00
 -0.8348048194701024E+00 -0.8449126072652832E+00 -0.8549718284501708E+00 -0.8649825932133506E+00 -0.8749450117434086E+00
 -0.8848591942289288E+00 -0.8947252508584971E+00 -0.9045432918206990E+00 -0.9143134273041200E+00 -0.9240357674973454E+00
 -0.9337104225889599E+00 -0.9433375027675490E+00 -0.9529171182216984E+00 -0.9624493791399940E+00 -0.9719343957110200E+00
 -0.9813722781233617E+00 -0.9907631365656053E+00 -0.1000107081226336E+01 -0.1009404222294138E+01 -0.1018654669957599E+01
 -0.1027858534405301E+01 -0.1037015925825832E+01 -0.1046126954407776E+01 -0.1055191730339720E+01 -0.1064210363810247E+01
 -0.1073182965007943E+01 -0.1082109644121395E+01 -0.1090990511339187E+01 -0.1099825676849904E+01 -0.1108615250842132E+01
 -0.1117359343504456E+01 -0.1126058065025461E+01 -0.1134711525593734E+01 -0.1143319835397857E+01 -0.1151883104626419E+01
 -0.1160401443468003E+01 -0.1168874962111196E+01 -0.1177303770744581E+01 -0.1185687979556746E+01 -0.1194027698736275E+01
 -0.1202323038471753E+01 -0.1210574108951766E+01 -0.1218781020364899E+01 -0.1226943882899737E+01 -0.1235062806744866E+01
 -0.1243137902088871E+01 -0.1251169279120337E+01 -0.1259157048027850E+01 -0.1267101318999995E+01 -0.1275002202225357E+01
 -0.1282859807892522E+01 -0.1290674246190075E+01 -0.1298445627306602E+01 -0.1306174061430686E+01 -0.1313859658750916E+01
 -0.1321502529455874E+01 -0.1329102783734147E+01 -0.1336660531774319E+01 -0.1344175883764978E+01 -0.1351648949894707E+01
 -0.1359079840352092E+01 -0.1366468665325718E+01 -0.1373815535004171E+01 -0.1381120559576036E+01 -0.1388383849229899E+01
 -0.1395605514154343E+01 -0.1402785664537956E+01 -0.1409924410569321E+01 -0.1417021862437026E+01 -0.1424078130329655E+01
 -0.1431093324435793E+01 -0.1438067554944025E+01 -0.1445000932042937E+01 -0.1451893565921115E+01 -0.1458745566767143E+01
 -0.1465557044769607E+01 -0.1472328110117092E+01 -0.1479058872998184E+01 -0.1485749443601468E+01 -0.1492399932115529E+01
 -0.1499010448728953E+01 -0.1505581103630324E+01 -0.1512112007008229E+01 -0.1518603269051252E+01 -0.1525054999947979E+01
 -0.1531467309886995E+01 -0.1537840309056886E+01 -0.1544174107646237E+01 -0.1550468815843633E+01 -0.1556724543837659E+01
 -0.1562941401816901E+01 -0.1569119499969945E+01 -0.1575258948485375E+01 -0.1581359857551776E+01 -0.1587422337357735E+01
 -0.1593446498091837E+01 -0.1599432449942666E+01 -0.1605380303098808E+01 -0.1611290167748849E+01 -0.1617162154081374E+01
 -0.1622996372284968E+01 -0.1628792932548216E+01 -0.1634551945059704E+01 -0.1640273520008017E+01 -0.1645957767581741E+01
 -0.1651604797969461E+01 -0.1657214721359761E+01 -0.1662787647941228E+01 -0.1668323687902447E+01 -0.1673822951432004E+01
 -0.1679285548718482E+01 -0.1684711589950468E+01 -0.1690101185316547E+01 -0.1695454445005305E+01 -0.1700771479205326E+01
 -0.1706052398105197E+01 -0.1711297311893502E+01 -0.1716506330758826E+01 -0.1721679564889756E+01 -0.1726817124474876E+01
 -0.1731919119702772E+01 -0.1736985660762029E+01 -0.1742016857841232E+01 -0.1747012821128967E+01 -0.1751973660813819E+01
 -0.1756899487084374E+01 -0.1761790410129216E+01 -0.1766646540136931E+01 -0.1771467987296105E+01 -0.1776254861795322E+01
 -0.1781007273823168E+01 -0.1785725333568229E+01 -0.1790409151219089E+01 -0.1795058836964334E+01 -0.1799674500992550E+01
 -0.1804256253492321E+01 -0.1808804204652234E+01 -0.1813318464660872E+01 -0.1817799143706822E+01 -0.1822246351978669E+01
 -0.1826660199664999E+01 -0.1831040796954396E+01 -0.1835388254035446E+01 -0.1839702681096735E+01 -0.1843984188326847E+01
 -0.1848232885914368E+01 -0.1852448884047883E+01 -0.1856632292915978E+01 -0.1860783222707238E+01 -0.1864901783610248E+01
 -0.1868988085813594E+01 -0.1873042239505861E+01 -0.1877064354875634E+01 -0.1881054542111499E+01 -0.1885012911402040E+01
 -0.1888939572935844E+01 -0.1892834636901495E+01 -0.1896698213487579E+01 -0.1900530412882682E+01 -0.1904331345275388E+01
 -0.1908101120854283E+01 -0.1911839849807952E+01 -0.1915547642324981E+01 -0.1919224608593955E+01 -0.1922870858803458E+01
 -0.1926486503142077E+01 -0.1930071651798398E+01 -0.1933626414961004E+01 -0.1937150902818482E+01 -0.1940645225559417E+01
 -0.1944109493372394E+01 -0.1947543816445999E+01 -0.1950948304968816E+01 -0.1954323069129432E+01 -0.1957668219116431E+01
 -0.1960983865118398E+01 -0.1964270117323921E+01 -0.1967527085921582E+01 -0.1970754881099969E+01 -0.1973953613047665E+01
 -0.1977123391953257E+01 -0.1980264328005330E+01 -0.1983376531392470E+01 -0.1986460112303259E+01 -0.1989515180926287E+01
 -0.1992541847450136E+01 -0.1995540222063393E+01 -0.1998510414954643E+01 -0.2001452536312470E+01 -0.2004366696325462E+01
 -0.2007253005182202E+01 -0.2010111573071276E+01 -0.2012942510181269E+01 -0.2015745926700767E+01 -0.2018521932818356E+01
 -0.2021270638722620E+01 -0.2023992154602144E+01 -0.2026686590645515E+01 -0.2029354057041317E+01 -0.2031994663978136E+01
 -0.2034608521644556E+01 -0.2037195740229164E+01 -0.2039756429920545E+01 -0.2042290700907285E+01 -0.2044798663377966E+01
 -0.2047280427521178E+01 -0.2049736103525503E+01 -0.2052165801579527E+01 -0.2054569631871837E+01 -0.2056947704591015E+01
 -0.2059300129925650E+01 -0.2061627018064326E+01 -0.2063928479195627E+01 -0.2066204623508140E+01 -0.2068455561190449E+01
 -0.2070681402431140E+01 -0.2072882257418799E+01 -0.2075058236342010E+01 -0.2077209449389359E+01 -0.2079336006749432E+01
 -0.2081438018610814E+01 -0.2083515595162089E+01 -0.2085568846591843E+01 -0.2087597883088663E+01 -0.2089602814841132E+01
 -0.2091583752037836E+01 -0.2093540804867362E+01 -0.2095474083518292E+01 -0.2097383698179215E+01 -0.2099269759038714E+01
 -0.2101132376285375E+01 -0.2102971660107783E+01 -0.2104787720694524E+01 -0.2106580668234182E+01 -0.2108350612915344E+01
 -0.2110097664926595E+01 -0.2111821934456519E+01 -0.2113523531693703E+01 -0.2115202566826731E+01 -0.2116859150044190E+01
 -0.2118493391534663E+01 -0.2120105401486737E+01 -0.2121695290088998E+01 -0.2123263167530028E+01 -0.2124809143998416E+01
 -0.2126333329682745E+01 -0.2127835834771602E+01 -0.2129316769453571E+01 -0.2130776243917239E+01 -0.2132214368351189E+01
 -0.2133631252944008E+01 -0.2135027007884281E+01 -0.2136401743360593E+01 -0.2137755569561530E+01 -0.2139088596675676E+01
 -0.2140400934891617E+01 -0.2141692694397940E+01 -0.2142963985383227E+01 -0.2144214918036066E+01 -0.2145445602545041E+01
 -0.2146656149098739E+01 -0.2147846667885744E+01 -0.2149017269094640E+01 -0.2150168062914015E+01 -0.2151299159532453E+01
 -0.2152410669138539E+01 -0.2153502701920860E+01 -0.2154575368067999E+01 -0.2155628777768543E+01 -0.2156663041211076E+01
 -0.2157678268584185E+01 -0.2158674570076454E+01 -0.2159652055876469E+01 -0.2160610836172815E+01 -0.2161551021154077E+01
 -0.2162472721008841E+01 -0.2163376045925693E+01 -0.2164261106093216E+01 -0.2165128011699998E+01 -0.2165976872934622E+01
 -0.2166807799985675E+01 -0.2167620903041741E+01 -0.2168416292291407E+01 -0.2169194077923257E+01 -0.2169954370125877E+01
 -0.2170697598496766E+01 -0.2171423274956105E+01 -0.2172131889104220E+01 -0.2172823614798534E+01 -0.2173498625896468E+01
 -0.2174157096255446E+01 -0.2174799199732887E+01 -0.2175425110186215E+01 -0.2176035001472852E+01 -0.2176629047450219E+01
 -0.2177207421975740E+01 -0.2177770298906835E+01 -0.2178317852100927E+01 -0.2178850255415437E+01 -0.2179367682707788E+01
 -0.2179870307835402E+01 -0.2180358304655701E+01 -0.2180831847026107E+01 -0.2181291108804041E+01 -0.2181736263846926E+01
 -0.2182167486012185E+01 -0.2182584949157238E+01 -0.2182988827139509E+01 -0.2183379293816418E+01 -0.2183756523045388E+01
 -0.2184120688683841E+01 -0.2184471964589199E+01 -0.2184810524618885E+01 -0.2185136542630320E+01 -0.2185450192480925E+01
 -0.2185751648028124E+01 -0.2186041083129338E+01 -0.2186318671641990E+01 -0.2186584587423500E+01 -0.2186839004331292E+01
 -0.2187082096222787E+01 -0.2187314036955407E+01 -0.2187535000386574E+01 -0.2187745160373711E+01 -0.2187944690774239E+01
 -0.2188133765445581E+01 -0.2188312558245158E+01 -0.2188481243030393E+01 -0.2188639993658707E+01 -0.2188788983987522E+01
 -0.2188928387874261E+01 -0.2189058379176345E+01 -0.2189179131751197E+01 -0.2189290819456239E+01 -0.2189393616148891E+01
 -0.2189487695686578E+01 -0.2189573231926721E+01 -0.2189650398726741E+01 -0.2189719369944060E+01 -0.2189780319436102E+01
 -0.2189833421060287E+01 -0.2189878848674038E+01 -0.2189916776134777E+01 -0.2189947377299925E+01 -0.2189970826026905E+01
 -0.2189987296173139E+01 -0.2189996961596049E+01 -0.2189999996153057E+01 -0.2189996573701585E+01 -0.2189986868099055E+01
 -0.2189971053202888E+01 -0.2189949302870508E+01 -0.2189921790959335E+01 -0.2189888691326793E+01 -0.2189850177830303E+01
 -0.2189806424327287E+01 -0.2189757604675167E+01 -0.2189703892731365E+01 -0.2189645462353303E+01 -0.2189582487398403E+01
 -0.2189515141724088E+01 -0.2189443599187778E+01 -0.2189368033646897E+01 -0.2189288618958866E+01 -0.2189205528981108E+01
 -0.2189118937571044E+01 -0.2189029018586096E+01 -0.2188935945883686E+01 -0.2188839893321237E+01 -0.2188741034756171E+01
 -0.2188639544045908E+01 -0.2188535595047872E+01 -0.2188429361619485E+01 -0.2188321017618168E+01 -0.2188210736901344E+01
 -0.2188098693326433E+01 -0.2187985060750860E+01 -0.2187870013032046E+01 -0.2187753724027411E+01 -0.2187636367594380E+01
 -0.2187518117590373E+01 -0.2187399147872813E+01 -0.2187279632299121E+01 -0.2187159744726721E+01 -0.2187039659013032E+01
 -0.2186919549015479E+01 -0.2186799588591483E+01 -0.2186679951598465E+01 -0.2186560811893848E+01 -0.2186442343335054E+01
 -0.2186324719779505E+01 -0.2186208115084623E+01 -0.2186092703107830E+01 -0.2185978657706547E+01 -0.2185866152738198E+01
 -0.2185755362060203E+01 -0.2185646459529987E+01 -0.2185539619004968E+01 -0.2185435014342571E+01 -0.2185332819400216E+01
 -0.2185233208035327E+01 -0.2185136354105325E+01 -0.2185042431467633E+01 -0.2184951613979672E+01 -0.2184864075498863E+01
 -0.2184779989882630E+01 -0.2184699530988394E+01 -0.2184622872673577E+01 -0.2184550188795602E+01 -0.2184481653211890E+01
 -0.2184416477235434E+01 -0.2184351448011583E+01 -0.2184285560185450E+01 -0.2184218818123586E+01 -0.2184151226163501E+01
 -0.2184082788613909E+01 -0.2184013509754975E+01 -0.2183943393838553E+01 -0.2183872445088431E+01 -0.2183800667700567E+01
 -0.2183728065843320E+01 -0.2183654643657690E+01 -0.2183580405257537E+01 -0.2183505354729824E+01 -0.2183429496134827E+01
 -0.2183352833506369E+01 -0.2183275370852031E+01 -0.2183197112153384E+01 -0.2183118061366189E+01 -0.2183038222420626E+01
 -0.2182957599221496E+01 -0.2182876195648435E+01 -0.2182794015556117E+01 -0.2182711062774470E+01 -0.2182627341108865E+01
 -0.2182542854340330E+01 -0.2182457606225742E+01 -0.2182371600498025E+01 -0.2182284840866351E+01 -0.2182197331016325E+01
 -0.2182109074610181E+01 -0.2182020075286974E+01 -0.2181930336662761E+01 -0.2181839862330795E+01 -0.2181748655861700E+01
 -0.2181656720803662E+01 -0.2181564060682601E+01 -0.2181470679002357E+01 -0.2181376579244861E+01 -0.2181281764870314E+01
 -0.2181186239317357E+01 -0.2181090006003247E+01 -0.2180993068324022E+01 -0.2180895429654674E+01 -0.2180797093349310E+01
 -0.2180698062741324E+01 -0.2180598341143556E+01 -0.2180497931848455E+01 -0.2180396838128236E+01 -0.2180295063235046E+01
 -0.2180192610401115E+01 -0.2180089482838916E+01 -0.2179985683741312E+01 -0.2179881216281720E+01 -0.2179776083614253E+01
 -0.2179670288873874E+01 -0.2179563835176541E+01 -0.2179456725619359E+01 -0.2179348963280722E+01 -0.2179240551220459E+01
 -0.2179131492479975E+01 -0.2179021790082396E+01 -0.2178911447032703E+01 -0.2178800466317880E+01 -0.2178688850907040E+01
 -0.2178576603751573E+01 -0.2178463727785273E+01 -0.2178350225924476E+01 -0.2178236101068189E+01 -0.2178121356098224E+01
 -0.2178005993879327E+01 -0.2177890017259309E+01 -0.2177773429069169E+01 -0.2177656232123224E+01 -0.2177538429219235E+01
 -0.2177420023138527E+01 -0.2177301016646116E+01 -0.2177181412490831E+01 -0.2177061213405431E+01 -0.2176940422106728E+01
 -0.2176819041295705E+01 -0.2176697073657632E+01 -0.2176574521862185E+01 -0.2176451388563557E+01 -0.2176327676400578E+01
 -0.2176203387996825E+01 -0.2176078525960733E+01 -0.2175953092885710E+01 -0.2175827091350244E+01 -0.2175700523918014E+01
 -0.2175573393137996E+01 -0.2175445701544576E+01 -0.2175317451657648E+01 -0.2175188645982726E+01 -0.2175059287011047E+01
 -0.2174929377219672E+01 -0.2174798919071590E+01 -0.2174667915015824E+01 -0.2174536367487522E+01 -0.2174404278908069E+01
 -0.2174271651685174E+01 -0.2174138488212979E+01 -0.2174004790872147E+01 -0.2173870562029966E+01 -0.2173735804040439E+01
 -0.2173600519244384E+01 -0.2173464709969521E+01 -0.2173328378530573E+01 -0.2173191527229352E+01 -0.2173054158354852E+01
 -0.2172916274183345E+01 -0.2172777876978462E+01 -0.2172638968991288E+01 -0.2172499552460450E+01 -0.2172359629612202E+01
 -0.2172219202660517E+01 -0.2172078273807164E+01 -0.2171936845241804E+01 -0.2171794919142068E+01 -0.2171652497673641E+01
 -0.2171509582990349E+01 -0.2171366177234237E+01 -0.2171222282535656E+01 -0.2171077901013337E+01 -0.2170933034774478E+01
 -0.2170787685914823E+01 -0.2170641856518735E+01 -0.2170495548659281E+01 -0.2170348764398310E+01 -0.2170201505786521E+01
 -0.2170053774863550E+01 -0.2169905573658043E+01 -0.2169756904187726E+01 -0.2169607768459485E+01 -0.2169458168469441E+01
 -0.2169308106203014E+01 -0.2169157583635007E+01 -0.2169006602729673E+01 -0.2168855165440784E+01 -0.2168703273711707E+01
 -0.2168550929475471E+01 -0.2168398134654836E+01 -0.2168244891162366E+01 -0.2168091200900493E+01 -0.2167937065761590E+01
 -0.2167782487628032E+01 -0.2167627468372268E+01 -0.2167472009856888E+01 -0.2167316113934684E+01 -0.2167159782448719E+01
 -0.2167003017232388E+01 -0.2166845820109490E+01 -0.2166688192894281E+01 -0.2166530137391546E+01 -0.2166371655396659E+01
 -0.2166212748695641E+01 -0.2166053419065227E+01 -0.2165893668272926E+01 -0.2165733498077080E+01 -0.2165572910226925E+01
 -0.2165411906462651E+01 -0.2165250488515460E+01 -0.2165088658107628E+01 -0.2164926416952558E+01 -0.2164763766754843E+01
 -0.2164600709210319E+01 -0.2164437246006127E+01 -0.2164273378820764E+01 -0.2164109109324142E+01 -0.2163944439177642E+01
 -0.2163779370034171E+01 -0.2163613903538216E+01 -0.2163448041325899E+01 -0.2163281785025025E+01 -0.2163115136255146E+01
 -0.2162948096627603E+01 -0.2162780667745588E+01 -0.2162612851204190E+01 -0.2162444648590446E+01 -0.2162276061483398E+01
 -0.2162107091454141E+01 -0.2161937740065871E+01 -0.2161768008873938E+01 -0.2161597899425898E+01 -0.2161427413261555E+01
 -0.2161256551913018E+01 -0.2161085316904744E+01 -0.2160913709753590E+01 -0.2160741731968859E+01 -0.2160569385052345E+01
 -0.2160396670498388E+01 -0.2160223589793911E+01 -0.2160050144418474E+01 -0.2159876335844314E+01 -0.2159702165536398E+01
 -0.2159527634952459E+01 -0.2159352745543051E+01 -0.2159177498751587E+01 -0.2159001896014383E+01 -0.2158825938760707E+01
 -0.2158649628412819E+01 -0.2158472966386014E+01 -0.2158295954088668E+01 -0.2158118592922277E+01 -0.2157940884281503E+01
 -0.2157762829554212E+01 -0.2157584430121519E+01 -0.2157405687357829E+01 -0.2157226602630877E+01 -0.2157047177301768E+01
 -0.2156867412725020E+01 -0.2156687310248603E+01 -0.2156506871213979E+01 -0.2156326096956139E+01 -0.2156144988803647E+01
 -0.2155963548078676E+01 -0.2155781776097048E+01 -0.2155599674168270E+01 -0.2155417243595576E+01 -0.2155234485675962E+01
 -0.2155051401700224E+01 -0.2154867992952996E+01 -0.2154684260712786E+01 -0.2154500206252016E+01 -0.2154315830837054E+01
 -0.2154131135728252E+01 -0.2153946122179983E+01 -0.2153760791440675E+01 -0.2153575144752850E+01 -0.2153389183353152E+01
 -0.2153202908472391E+01 -0.2153016321335571E+01 -0.2152829423161925E+01 -0.2152642215164954E+01 -0.2152454698552456E+01
 -0.2152266874526561E+01 -0.2152078744283766E+01 -0.2151890309014966E+01 -0.2151701569905487E+01 -0.2151512528135123E+01
 -0.2151323184878161E+01 -0.2151133541303420E+01 -0.2150943598574281E+01 -0.2150753357848716E+01 -0.2150562820279323E+01
 -0.2150371987013358E+01 -0.2150180859192759E+01 -0.2149989437954189E+01 -0.2149797724429055E+01 -0.2149605719743545E+01
 -0.2149413425018657E+01 -0.2149220841370227E+01 -0.2149027969908963E+01 -0.2148834811740469E+01 -0.2148641367965282E+01
 -0.2148447639678891E+01 -0.2148253627971776E+01 -0.2148059333929431E+01 -0.2147864758632394E+01 -0.2147669903156275E+01
 -0.2147474768571787E+01 -0.2147279355944767E+01 -0.2147083666336215E+01 -0.2146887700802310E+01 -0.2146691460394442E+01
 -0.2146494946159245E+01 -0.2146298159138614E+01 -0.2146101100369737E+01 -0.2145903770885124E+01 -0.2145706171712628E+01
 -0.2145508303875477E+01 -0.2145310168392293E+01 -0.2145111766277125E+01 -0.2144913098539473E+01 -0.2144714166184309E+01
 -0.2144514970212109E+01 -0.2144315511618873E+01 -0.2144115791396153E+01 -0.2143915810531077E+01 -0.2143715570006374E+01
 -0.2143515070800398E+01 -0.2143314313887153E+01 -0.2143113300236317E+01 -0.2142912030813266E+01 -0.2142710506579097E+01
 -0.2142508728490653E+01 -0.2142306697500549E+01 -0.2142104414557188E+01 -0.2141901880604792E+01 -0.2141699096583420E+01
 -0.2141496063428996E+01 -0.2141292782073325E+01 -0.2141089253444121E+01 -0.2140885478465030E+01 -0.2140681458055646E+01
 -0.2140477193131540E+01 -0.2140272684604279E+01 -0.2140067933381449E+01 -0.2139862940366674E+01 -0.2139657706459642E+01
 -0.2139452232556121E+01 -0.2139246519547988E+01 -0.2139040568323241E+01 -0.2138834379766027E+01 -0.2138627954756661E+01
 -0.2138421294171644E+01 -0.2138214398883689E+01 -0.2138007269761736E+01 -0.2137799907670975E+01 -0.2137592313472867E+01
 -0.2137384488025163E+01 -0.2137176432181922E+01 -0.2136968146793536E+01 -0.2136759632706744E+01 -0.2136550890764654E+01
 -0.2136341921806765E+01 -0.2136132726668980E+01 -0.2135923306183635E+01 -0.2135713661179505E+01 -0.2135503792481835E+01
 -0.2135293700912352E+01 -0.2135083387289286E+01 -0.2134872852427387E+01 -0.2134662097137944E+01 -0.2134451122228809E+01
 -0.2134239928504404E+01 -0.2134028516765747E+01 -0.2133816887810470E+01 -0.2133605042432834E+01 -0.2133392981423746E+01
 -0.2133180705570781E+01 -0.2132968215658196E+01 -0.2132755512466948E+01 -0.2132542596774712E+01 -0.2132329469355897E+01
 -0.2132116130981666E+01 -0.2131902582419950E+01 -0.2131688824435464E+01 -0.2131474857789728E+01 -0.2131260683241080E+01
 -0.2131046301544694E+01 -0.2130831713452595E+01 -0.2130616919713680E+01 -0.2130401921073727E+01 -0.2130186718275416E+01
 -0.2129971312058345E+01 -0.2129755703159043E+01 -0.2129539892310991E+01 -0.2129323880244630E+01 -0.2129107667687384E+01
 -0.2128891255363673E+01 -0.2128674643994925E+01 -0.2128457834299598E+01 -0.2128240826993189E+01 -0.2128023622788252E+01
 -0.2127806222394415E+01 -0.2127588626518390E+01 -0.2127370835863993E+01 -0.2127152851132155E+01 -0.2126934673020939E+01
 -0.2126716302225552E+01 -0.2126497739438364E+01 -0.2126278985348917E+01 -0.2126060040643944E+01 -0.2125840906007380E+01
 -0.2125621582120378E+01 -0.2125402069661322E+01 -0.2125182369305841E+01 -0.2124962481726826E+01 -0.2124742407594436E+01
 -0.2124522147576123E+01 -0.2124301702336634E+01 -0.2124081072538034E+01 -0.2123860258839712E+01 -0.2123639261898402E+01
 -0.2123418082368189E+01 -0.2123196720900527E+01 -0.2122975178144250E+01 -0.2122753454745585E+01 -0.2122531551348168E+01
 -0.2122309468593051E+01 -0.2122087207118722E+01 -0.2121864767561112E+01 -0.2121642150553611E+01 -0.2121419356727078E+01
 -0.2121196386709857E+01 -0.2120973241127786E+01 -0.2120749920604210E+01 -0.2120526425759996E+01 -0.2120302757213542E+01
 -0.2120078915580793E+01 -0.2119854901475246E+01 -0.2119630715507971E+01 -0.2119406358287617E+01 -0.2119181830420423E+01
 -0.2118957132510237E+01 -0.2118732265158518E+01 -0.2118507228964357E+01 -0.2118282024524480E+01 -0.2118056652433267E+01
 -0.2117831113282759E+01 -0.2117605407662671E+01 -0.2117379536160401E+01 -0.2117153499361045E+01 -0.2116927297847405E+01
 -0.2116700932200004E+01 -0.2116474402997091E+01 -0.2116247710814657E+01 -0.2116020856226446E+01 -0.2115793839803960E+01
 -0.2115566662116479E+01 -0.2115339323731065E+01 -0.2115111825212571E+01 -0.2114884167123662E+01 -0.2114656350024811E+01
 -0.2114428374474322E+01 -0.2114200241028334E+01 -0.2113971950240834E+01 -0.2113743502663665E+01 -0.2113514898846536E+01
 -0.2113286139337037E+01 -0.2113057224680643E+01 -0.2112828155420729E+01 -0.2112598932098575E+01 -0.2112369555253382E+01
 -0.2112140025422276E+01 -0.2111910343140321E+01 -0.2111680508940530E+01 -0.2111450523353871E+01 -0.2111220386909279E+01
 -0.2110990100133667E+01 -0.2110759663551932E+01 -0.2110529077686967E+01 -0.2110298343059669E+01 -0.2110067460188950E+01
 -0.2109836429591747E+01 -0.2109605251783026E+01 -0.2109373927275798E+01 -0.2109142456581125E+01 -0.2108910840208128E+01
 -0.2108679078663998E+01 -0.2108447172454007E+01 -0.2108215122081510E+01 -0.2107982928047961E+01 -0.2107750590852920E+01
 -0.2107518110994058E+01 -0.2107285488967172E+01 -0.2107052725266188E+01 -0.2106819820383176E+01 -0.2106586774808350E+01
 -0.2106353589030086E+01 -0.2106120263534923E+01 -0.2105886798807573E+01 -0.2105653195330938E+01 -0.2105419453586103E+01
 -0.2105185574052358E+01 -0.2104951557207198E+01 -0.2104717403526335E+01 -0.2104483113483708E+01 -0.2104248687551485E+01
 -0.2104014126200075E+01 -0.2103779429898139E+01 -0.2103544599112590E+01 -0.2103309634308609E+01 -0.2103074535949650E+01
 -0.2102839304497445E+01 -0.2102603940412017E+01 -0.2102368444151683E+01 -0.2102132816173066E+01 -0.2101897056931099E+01
 -0.2101661166879035E+01 -0.2101425146468453E+01 -0.2101188996149271E+01 -0.2100952716369742E+01 -0.2100716307576475E+01
 -0.2100479770214431E+01 -0.2100243104726940E+01 -0.2100006311555703E+01 -0.2099769391140796E+01 -0.2099532343920687E+01
 -0.2099295170332234E+01 -0.2099057870810701E+01 -0.2098820445789753E+01 -0.2098582895701476E+01 -0.2098345220976378E+01
 -0.2098107422043394E+01 -0.2097869499329897E+01 -0.2097631453261704E+01 -0.2097393284263082E+01 -0.2097154992756755E+01
 -0.2096916579163914E+01 -0.2096678043904218E+01 -0.2096439387395804E+01 -0.2096200610055297E+01 -0.2095961712297810E+01
 -0.2095722694536958E+01 -0.2095483557184856E+01 -0.2095244300652133E+01 -0.2095004925347938E+01 -0.2094765431679942E+01
 -0.2094525820054347E+01 -0.2094286090875894E+01 -0.2094046244547870E+01 -0.2093806281472107E+01 -0.2093566202048998E+01
 -0.2093326006677501E+01 -0.2093085695755137E+01 -0.2092845269678009E+01 -0.2092604728840799E+01 -0.2092364073636780E+01
 -0.2092123304457815E+01 -0.2091882421694371E+01 -0.2091641425735523E+01 -0.2091400316968955E+01 -0.2091159095780972E+01
 -0.2090917762556504E+01 -0.2090676317679111E+01 -0.2090434761530992E+01 -0.2090193094492986E+01 -0.2089951316944582E+01
 -0.2089709429263924E+01 -0.2089467431827815E+01 -0.2089225325011725E+01 -0.2088983109189797E+01 -0.2088740784734850E+01
 -0.2088498352018388E+01 -0.2088255811410602E+01 -0.2088013163280379E+01 -0.2087770407995307E+01 -0.2087527545921679E+01
 -0.2087284577424499E+01 -0.2087041502867490E+01 -0.2086798322613095E+01 -0.2086555037022487E+01 -0.2086311646455573E+01
 -0.2086068151270998E+01 -0.2085824551826149E+01 -0.2085580848477167E+01 -0.2085337041578945E+01 -0.2085093131485137E+01
 -0.2084849118548163E+01 -0.2084605003119215E+01 -0.2084360785548258E+01 -0.2084116466184041E+01 -0.2083872045374100E+01
 -0.2083627523464759E+01 -0.2083382900801142E+01 -0.2083138177727173E+01 -0.2082893354585586E+01 -0.2082648431717924E+01
 -0.2082403409464546E+01 -0.2082158288164638E+01 -0.2081913068156207E+01 -0.2081667749776095E+01 -0.2081422333359982E+01
 -0.2081176819242387E+01 -0.2080931207756678E+01 -0.2080685499235072E+01 -0.2080439694008644E+01 -0.2080193792407329E+01
 -0.2079947794759930E+01 -0.2079701701394117E+01 -0.2079455512636437E+01 -0.2079209228812319E+01 -0.2078962850246073E+01
 -0.2078716377260901E+01 -0.2078469810178899E+01 -0.2078223149321059E+01 -0.2077976395007278E+01 -0.2077729547556362E+01
 -0.2077482607286026E+01 -0.2077235574512903E+01 -0.2076988449552550E+01 -0.2076741232719445E+01 -0.2076493924326999E+01
 -0.2076246524687558E+01 -0.2075999034112405E+01 -0.2075751452911768E+01 -0.2075503781394821E+01 -0.2075256019869693E+01
 -0.2075008168643464E+01 -0.2074760228022183E+01 -0.2074512198310855E+01 -0.2074264079813460E+01 -0.2074015872832949E+01
 -0.2073767577671252E+01 -0.2073519194629279E+01 -0.2073270724006929E+01 -0.2073022166103086E+01 -0.2072773521215634E+01
 -0.2072524789641453E+01 -0.2072275971676423E+01 -0.2072027067615434E+01 -0.2071778077752386E+01 -0.2071529002380191E+01
 -0.2071279841790783E+01 -0.2071030596275117E+01 -0.2070781266123173E+01 -0.2070531851623965E+01 -0.2070282353065539E+01
 -0.2070032770734979E+01 -0.2069783104918413E+01 -0.2069533355901014E+01 -0.2069283523967004E+01 -0.2069033609399662E+01
 -0.2068783612481321E+01 -0.2068533533493377E+01 -0.2068283372716291E+01 -0.2068033130429594E+01 -0.2067782806911888E+01
 -0.2067532402440853E+01 -0.2067281917293247E+01 -0.2067031351744913E+01 -0.2066780706070782E+01 -0.2066529980544876E+01
 -0.2066279175440311E+01 -0.2066028291029303E+01 -0.2065777327583166E+01 -0.2065526285372325E+01 -0.2065275164666309E+01
 -0.2065023965733765E+01 -0.2064772688842451E+01 -0.2064521334259248E+01 -0.2064269902250159E+01 -0.2064018393080314E+01
 -0.2063766807013974E+01 -0.2063515144314533E+01 -0.2063263405244520E+01 -0.2063011590065607E+01 -0.2062759699038610E+01
 -0.2062507732423491E+01 -0.2062255690479363E+01 -0.2062003573464493E+01 -0.2061751381636306E+01 -0.2061499115251385E+01
 -0.2061246774565481E+01 -0.2060994359833509E+01 -0.2060741871309556E+01 -0.2060489309246882E+01 -0.2060236673897924E+01
 -0.2059983965514301E+01 -0.2059731184346812E+01 -0.2059478330645446E+01 -0.2059225404659380E+01 -0.2058972406636984E+01
 -0.2058719336825825E+01 -0.2058466195472668E+01 -0.2058212982823482E+01 -0.2057959699123441E+01 -0.2057706344616925E+01
 -0.2057452919547529E+01 -0.2057199424158062E+01 -0.2056945858690551E+01 -0.2056692223386241E+01 -0.2056438518485605E+01
 -0.2056184744228339E+01 -0.2055930900853372E+01 -0.2055676988598865E+01 -0.2055423007702212E+01 -0.2055168958400049E+01
 -0.2054914840928253E+01 -0.2054660655521945E+01 -0.2054406402415494E+01 -0.2054152081842518E+01 -0.2053897694035890E+01
 -0.2053643239227739E+01 -0.2053388717649452E+01 -0.2053134129531678E+01 -0.2052879475104332E+01 -0.2052624754596595E+01
 -0.2052369968236919E+01 -0.2052115116253029E+01 -0.2051860198871926E+01 -0.2051605216319888E+01 -0.2051350168822478E+01
 -0.2051095056604540E+01 -0.2050839879890207E+01 -0.2050584638902898E+01 -0.2050329333865329E+01 -0.2050073964999508E+01
 -0.2049818532526742E+01 -0.2049563036667638E+01 -0.2049307477642103E+01 -0.2049051855669356E+01 -0.2048796170967919E+01
 -0.2048540423755625E+01 -0.2048284614249626E+01 -0.2048028742666382E+01 -0.2047772809221677E+01 -0.2047516814130616E+01
 -0.2047260757607626E+01 -0.2047004639866461E+01 -0.2046748461120204E+01 -0.2046492221581270E+01 -0.2046235921461407E+01
 -0.2045979560971699E+01 -0.2045723140322570E+01 -0.2045466659723786E+01 -0.2045210119384455E+01 -0.2044953519513032E+01
 -0.2044696860317322E+01 -0.2044440142004480E+01 -0.2044183364781013E+01 -0.2043926528852788E+01 -0.2043669634425028E+01
 -0.2043412681702316E+01 -0.2043155670888601E+01 -0.2042898602187195E+01 -0.2042641475800778E+01 -0.2042384291931404E+01
 -0.2042127050780495E+01 -0.2041869752548850E+01 -0.2041612397436645E+01 -0.2041354985643436E+01 -0.2041097517368161E+01
 -0.2040839992809142E+01 -0.2040582412164086E+01 -0.2040324775630092E+01 -0.2040067083403647E+01 -0.2039809335680632E+01
 -0.2039551532656324E+01 -0.2039293674525398E+01 -0.2039035761481928E+01 -0.2038777793719391E+01 -0.2038519771430667E+01
 -0.2038261694808045E+01 -0.2038003564043219E+01 -0.2037745379327298E+01 -0.2037487140850800E+01 -0.2037228848803662E+01
 -0.2036970503375236E+01 -0.2036712104754294E+01 -0.2036453653129029E+01 -0.2036195148687059E+01 -0.2035936591615427E+01
 -0.2035677982100603E+01 -0.2035419320328489E+01 -0.2035160606484418E+01 -0.2034901840753157E+01 -0.2034643023318909E+01
 -0.2034384154365316E+01 -0.2034125234075459E+01 -0.2033866262631864E+01 -0.2033607240216497E+01 -0.2033348167010774E+01
 -0.2033089043195559E+01 -0.2032829868951164E+01 -0.2032570644457356E+01 -0.2032311369893354E+01 -0.2032052045437836E+01
 -0.2031792671268935E+01 -0.2031533247564247E+01 -0.2031273774500829E+01 -0.2031014252255202E+01 -0.2030754681003352E+01
 -0.2030495060920736E+01 -0.2030235392182278E+01 -0.2029975674962374E+01 -0.2029715909434895E+01 -0.2029456095773188E+01
 -0.2029196234150075E+01 -0.2028936324737858E+01 -0.2028676367708323E+01 -0.2028416363232733E+01 -0.2028156311481843E+01
 -0.2027896212625891E+01 -0.2027636066834602E+01 -0.2027375874277194E+01 -0.2027115635122377E+01 -0.2026855349538354E+01
 -0.2026595017692824E+01 -0.2026334639752982E+01 -0.2026074215885527E+01 -0.2025813746256655E+01 -0.2025553231032065E+01
 -0.2025292670376963E+01 -0.2025032064456059E+01 -0.2024771413433573E+01 -0.2024510717473236E+01 -0.2024249976738286E+01
 -0.2023989191391478E+01 -0.2023728361595083E+01 -0.2023467487510885E+01 -0.2023206569300191E+01 -0.2022945607123823E+01
 -0.2022684601142131E+01 -0.2022423551514982E+01 -0.2022162458401775E+01 -0.2021901321961431E+01 -0.2021640142352400E+01
 -0.2021378919732665E+01 -0.2021117654259740E+01 -0.2020856346090669E+01 -0.2020594995382036E+01 -0.2020333602289960E+01
 -0.2020072166970097E+01 -0.2019810689577644E+01 -0.2019549170267342E+01 -0.2019287609193471E+01 -0.2019026006509859E+01
 -0.2018764362369878E+01 -0.2018502676926450E+01 -0.2018240950332046E+01 -0.2017979182738689E+01 -0.2017717374297952E+01
 -0.2017455525160965E+01 -0.2017193635478412E+01 -0.2016931705400536E+01 -0.2016669735077138E+01 -0.2016407724657579E+01
 -0.2016145674290782E+01 -0.2015883584125234E+01 -0.2015621454308987E+01 -0.2015359284989658E+01 -0.2015097076314435E+01
 -0.2014834828430073E+01 -0.2014572541482897E+01 -0.2014310215618808E+01 -0.2014047850983278E+01 -0.2013785447721355E+01
 -0.2013523005977663E+01 -0.2013260525896407E+01 -0.2012998007621369E+01 -0.2012735451295914E+01 -0.2012472857062988E+01
 -0.2012210225065121E+01 -0.2011947555444430E+01 -0.2011684848342618E+01 -0.2011422103900977E+01 -0.2011159322260387E+01
 -0.2010896503561320E+01 -0.2010633647943842E+01 -0.2010370755547610E+01 -0.2010107826511879E+01 -0.2009844860975498E+01
 -0.2009581859076916E+01 -0.2009318820954182E+01 -0.2009055746744944E+01 -0.2008792636586452E+01 -0.2008529490615560E+01
 -0.2008266308968729E+01 -0.2008003091782021E+01 -0.2007739839191111E+01 -0.2007476551331279E+01 -0.2007213228337419E+01
 -0.2006949870344031E+01 -0.2006686477485232E+01 -0.2006423049894753E+01 -0.2006159587705937E+01 -0.2005896091051749E+01
 -0.2005632560064766E+01 -0.2005368994877188E+01 -0.2005105395620836E+01 -0.2004841762427150E+01 -0.2004578095427195E+01
 -0.2004314394751662E+01 -0.2004050660530862E+01 -0.2003786892894741E+01 -0.2003523091972864E+01 -0.2003259257894433E+01
 -0.2002995390788278E+01 -0.2002731490782859E+01 -0.2002467558006271E+01 -0.2002203592586244E+01 -0.2001939594650141E+01
 -0.2001675564324965E+01 -0.2001411501737354E+01 -0.2001147407013587E+01 -0.2000883280279583E+01 -0.2000619121660901E+01
 -0.2000354931282746E+01 -0.2000090709269964E+01 -0.1999826455747049E+01 -0.1999562170838137E+01 -0.1999297854667017E+01
 -0.1999033507357121E+01 -0.1998769129031536E+01 -0.1998504719812997E+01 -0.1998240279823893E+01 -0.1997975809186262E+01
 -0.1997711308021803E+01 -0.1997446776451866E+01 -0.1997182214597458E+01 -0.1996917622579245E+01 -0.1996653000517554E+01
 -0.1996388348532367E+01 -0.1996123666743334E+01 -0.1995858955269760E+01 -0.1995594214230618E+01 -0.1995329443744546E+01
 -0.1995064643929846E+01 -0.1994799814904485E+01 -0.1994534956786103E+01 -0.1994270069692004E+01 -0.1994005153739166E+01
 -0.1993740209044234E+01 -0.1993475235723529E+01 -0.1993210233893043E+01 -0.1992945203668443E+01 -0.1992680145165072E+01
 -0.1992415058497949E+01 -0.1992149943781770E+01 -0.1991884801130909E+01 -0.1991619630659425E+01 -0.1991354432481049E+01
 -0.1991089206709200E+01 -0.1990823953456978E+01 -0.1990558672837167E+01 -0.1990293364962234E+01 -0.1990028029944336E+01
 -0.1989762667895312E+01 -0.1989497278926693E+01 -0.1989231863149696E+01 -0.1988966420675229E+01 -0.1988700951613891E+01
 -0.1988435456075974E+01 -0.1988169934171461E+01 -0.1987904386010029E+01 -0.1987638811701051E+01 -0.1987373211353595E+01
 -0.1987107585076427E+01 -0.1986841932978011E+01 -0.1986576255166508E+01 -0.1986310551749779E+01 -0.1986044822835387E+01
 -0.1985779068530597E+01 -0.1985513288942376E+01 -0.1985247484177393E+01 -0.1984981654342024E+01 -0.1984715799542351E+01
 -0.1984449919884160E+01 -0.1984184015472944E+01 -0.1983918086413909E+01 -0.1983652132811965E+01 -0.1983386154771734E+01
 -0.1983120152397552E+01 -0.1982854125793463E+01 -0.1982588075063226E+01 -0.1982322000310314E+01 -0.1982055901637914E+01
 -0.1981789779148929E+01 -0.1981523632945979E+01 -0.1981257463131401E+01 -0.1980991269807252E+01 -0.1980725053075305E+01
 -0.1980458813037058E+01 -0.1980192549793724E+01 -0.1979926263446245E+01 -0.1979659954095281E+01 -0.1979393621841216E+01
 -0.1979127266784161E+01 -0.1978860889023952E+01 -0.1978594488660149E+01 -0.1978328065792042E+01 -0.1978061620518648E+01
 -0.1977795152938713E+01 -0.1977528663150712E+01 -0.1977262151252853E+01 -0.1976995617343072E+01 -0.1976729061519042E+01
 -0.1976462483878167E+01 -0.1976195884517582E+01 -0.1975929263534161E+01 -0.1975662621024513E+01 -0.1975395957084983E+01
 -0.1975129271811653E+01 -0.1974862565300343E+01 -0.1974595837646614E+01 -0.1974329088945764E+01 -0.1974062319292835E+01
 -0.1973795528782608E+01 -0.1973528717509607E+01 -0.1973261885568099E+01 -0.1972995033052095E+01 -0.1972728160055350E+01
 -0.1972461266671368E+01 -0.1972194352993393E+01 -0.1971927419114423E+01 -0.1971660465127199E+01 -0.1971393491124212E+01
 -0.1971126497197704E+01 -0.1970859483439664E+01 -0.1970592449941837E+01 -0.1970325396795713E+01 -0.1970058324092541E+01
 -0.1969791231923321E+01 -0.1969524120378805E+01 -0.1969256989549503E+01 -0.1968989839525678E+01 -0.1968722670397353E+01
 -0.1968455482254303E+01 -0.1968188275186066E+01 -0.1967921049281934E+01 -0.1967653804630963E+01 -0.1967386541321965E+01
 -0.1967119259443517E+01 -0.1966851959083953E+01 -0.1966584640331373E+01 -0.1966317303273638E+01 -0.1966049947998374E+01
 -0.1965782574592971E+01 -0.1965515183144585E+01 -0.1965247773740136E+01 -0.1964980346466313E+01 -0.1964712901409571E+01
 -0.1964445438656135E+01 -0.1964177958291995E+01 -0.1963910460402915E+01 -0.1963642945074426E+01 -0.1963375412391832E+01
 -0.1963107862440208E+01 -0.1962840295304401E+01 -0.1962572711069031E+01 -0.1962305109818493E+01 -0.1962037491636955E+01
 -0.1961769856608360E+01 -0.1961502204816429E+01 -0.1961234536344657E+01 -0.1960966851276318E+01 -0.1960699149694463E+01
 -0.1960431431681920E+01 -0.1960163697321300E+01 -0.1959895946694991E+01 -0.1959628179885162E+01 -0.1959360396973765E+01
 -0.1959092598042531E+01 -0.1958824783172975E+01 -0.1958556952446396E+01 -0.1958289105943876E+01 -0.1958021243746282E+01
 -0.1957753365934266E+01 -0.1957485472588264E+01 -0.1957217563788501E+01 -0.1956949639614990E+01 -0.1956681700147529E+01
 -0.1956413745465704E+01 -0.1956145775648894E+01 -0.1955877790776263E+01 -0.1955609790926770E+01 -0.1955341776179161E+01
 -0.1955073746611975E+01 -0.1954805702303545E+01 -0.1954537643331993E+01 -0.1954269569775238E+01 -0.1954001481710992E+01
 -0.1953733379216760E+01 -0.1953465262369845E+01 -0.1953197131247345E+01 -0.1952928985926154E+01 -0.1952660826482963E+01
 -0.1952392652994261E+01 -0.1952124465536336E+01 -0.1951856264185275E+01 -0.1951588049016963E+01 -0.1951319820107088E+01
 -0.1951051577531136E+01 -0.1950783321364395E+01 -0.1950515051681956E+01 -0.1950246768558713E+01 -0.1949978472069361E+01
 -0.1949710162288400E+01 -0.1949441839290134E+01 -0.1949173503148672E+01 -0.1948905153937929E+01 -0.1948636791731627E+01
 -0.1948368416603291E+01 -0.1948100028626255E+01 -0.1947831627873664E+01 -0.1947563214418467E+01 -0.1947294788333423E+01
 -0.1947026349691103E+01 -0.1946757898563884E+01 -0.1946489435023957E+01 -0.1946220959143322E+01 -0.1945952470993793E+01
 -0.1945683970646993E+01 -0.1945415458174361E+01 -0.1945146933647148E+01 -0.1944878397136419E+01 -0.1944609848713053E+01
 -0.1944341288447746E+01 -0.1944072716411008E+01 -0.1943804132673164E+01 -0.1943535537304359E+01 -0.1943266930374552E+01
 -0.1942998311953521E+01 -0.1942729682110863E+01 -0.1942461040915994E+01 -0.1942192388438146E+01 -0.1941923724746376E+01
 -0.1941655049909557E+01 -0.1941386363996386E+01 -0.1941117667075380E+01 -0.1940848959214878E+01 -0.1940580240483042E+01
 -0.1940311510947856E+01 -0.1940042770677130E+01 -0.1939774019738495E+01 -0.1939505258199409E+01 -0.1939236486127153E+01
 -0.1938967703588836E+01 -0.1938698910651390E+01 -0.1938430107381578E+01 -0.1938161293845985E+01 -0.1937892470111028E+01
 -0.1937623636242949E+01 -0.1937354792307822E+01 -0.1937085938371546E+01 -0.1936817074499852E+01 -0.1936548200758302E+01
 -0.1936279317212287E+01 -0.1936010423927029E+01 -0.1935741520967583E+01 -0.1935472608398835E+01 -0.1935203686285504E+01
 -0.1934934754692141E+01 -0.1934665813683133E+01 -0.1934396863322698E+01 -0.1934127903674890E+01 -0.1933858934803599E+01
 -0.1933589956772549E+01 -0.1933320969645300E+01 -0.1933051973485249E+01 -0.1932782968355630E+01 -0.1932513954319514E+01
 -0.1932244931439808E+01 -0.1931975899779262E+01 -0.1931706859400460E+01 -0.1931437810365828E+01 -0.1931168752737629E+01
 -0.1930899686577970E+01 -0.1930630611948796E+01 -0.1930361528911892E+01 -0.1930092437528888E+01 -0.1929823337861253E+01
 -0.1929554229970300E+01 -0.1929285113917184E+01 -0.1929015989762903E+01 -0.1928746857568301E+01 -0.1928477717394063E+01
 -0.1928208569300722E+01 -0.1927939413348653E+01 -0.1927670249598078E+01 -0.1927401078109066E+01 -0.1927131898941531E+01
 -0.1926862712155234E+01 -0.1926593517809784E+01 -0.1926324315964637E+01 -0.1926055106679097E+01 -0.1925785890012319E+01
 -0.1925516666023303E+01 -0.1925247434770900E+01 -0.1924978196313815E+01 -0.1924708950710597E+01 -0.1924439698019650E+01
 -0.1924170438299227E+01 -0.1923901171607433E+01 -0.1923631898002227E+01 -0.1923362617541418E+01 -0.1923093330282668E+01
 -0.1922824036283493E+01 -0.1922554735601264E+01 -0.1922285428293204E+01 -0.1922016114416391E+01 -0.1921746794027758E+01
 -0.1921477467184094E+01 -0.1921208133942044E+01 -0.1920938794358107E+01 -0.1920669448488641E+01 -0.1920400096389860E+01
 -0.1920130738117834E+01 -0.1919861373728494E+01 -0.1919592003277625E+01 -0.1919322626820876E+01 -0.1919053244413748E+01
 -0.1918783856111608E+01 -0.1918514461969679E+01 -0.1918245062043045E+01 -0.1917975656386651E+01 -0.1917706245055302E+01
 -0.1917436828103666E+01 -0.1917167405586269E+01 -0.1916897977557504E+01 -0.1916628544071624E+01 -0.1916359105182745E+01
 -0.1916089660944845E+01 -0.1915820211411768E+01 -0.1915550756637221E+01 -0.1915281296674776E+01 -0.1915011831577868E+01
 -0.1914742361399798E+01 -0.1914472886193735E+01 -0.1914203406012710E+01 -0.1913933920909622E+01 -0.1913664430937237E+01
 -0.1913394936148188E+01 -0.1913125436594975E+01 -0.1912855932329966E+01 -0.1912586423405397E+01 -0.1912316909873372E+01
 -0.1912047391785864E+01 -0.1911777869194718E+01 -0.1911508342151644E+01 -0.1911238810708225E+01 -0.1910969274915913E+01
 -0.1910699734826032E+01 -0.1910430190489776E+01 -0.1910160641958209E+01 -0.1909891089282271E+01 -0.1909621532512770E+01
 -0.1909351971700388E+01 -0.1909082406895678E+01 -0.1908812838149071E+01 -0.1908543265510867E+01 -0.1908273689031241E+01
 -0.1908004108760243E+01 -0.1907734524747797E+01 -0.1907464937043700E+01 -0.1907195345697629E+01 -0.1906925750759132E+01
 -0.1906656152277635E+01 -0.1906386550302440E+01 -0.1906116944882726E+01 -0.1905847336067547E+01 -0.1905577723905839E+01
 -0.1905308108446409E+01 -0.1905038489737947E+01 -0.1904768867829019E+01 -0.1904499242768071E+01 -0.1904229614603427E+01
 -0.1903959983383291E+01 -0.1903690349155746E+01 -0.1903420711968754E+01 -0.1903151071870159E+01 -0.1902881428907687E+01
 -0.1902611783128942E+01 -0.1902342134581408E+01 -0.1902072483312456E+01 -0.1901802829369333E+01 -0.1901533172799172E+01
 -0.1901263513648989E+01 -0.1900993851965681E+01 -0.1900724187796027E+01 -0.1900454521186692E+01 -0.1900184852184225E+01
 -0.1899915180835056E+01 -0.1899645507185503E+01 -0.1899375831281767E+01 -0.1899106153169936E+01 -0.1898836472895979E+01
 -0.1898566790505756E+01 -0.1898297106045008E+01 -0.1898027419559368E+01 -0.1897757731094350E+01 -0.1897488040695359E+01
 -0.1897218348407684E+01 -0.1896948654276506E+01 -0.1896678958346889E+01 -0.1896409260663788E+01 -0.1896139561272046E+01
 -0.1895869860216394E+01 -0.1895600157541454E+01 -0.1895330453291734E+01 -0.1895060747511635E+01 -0.1894791040245446E+01
 -0.1894521331537347E+01 -0.1894251621431410E+01 -0.1893981909971594E+01 -0.1893712197201754E+01 -0.1893442483165631E+01
 -0.1893172767906863E+01 -0.1892903051468976E+01 -0.1892633333895391E+01 -0.1892363615229420E+01 -0.1892093895514269E+01
 -0.1891824174793036E+01 -0.1891554453108715E+01 -0.1891284730504189E+01 -0.1891015007022240E+01 -0.1890745282705541E+01
 -0.1890475557596662E+01 -0.1890205831738066E+01 -0.1889936105172113E+01 -0.1889666377941055E+01 -0.1889396650087044E+01
 -0.1889126921652127E+01 -0.1888857192678243E+01 -0.1888587463207234E+01 -0.1888317733280834E+01 -0.1888048002940677E+01
 -0.1887778272228293E+01 -0.1887508541185108E+01 -0.1887238809852452E+01 -0.1886969078271545E+01 -0.1886699346483512E+01
 -0.1886429614529373E+01 -0.1886159882450049E+01 -0.1885890150286360E+01 -0.1885620418079024E+01 -0.1885350685868660E+01
 -0.1885080953695788E+01 -0.1884811221600827E+01 -0.1884541489624097E+01 -0.1884271757805819E+01 -0.1884002026186115E+01
 -0.1883732294805008E+01 -0.1883462563702423E+01 -0.1883192832918188E+01 -0.1882923102492032E+01 -0.1882653372463586E+01
 -0.1882383642872385E+01 -0.1882113913757867E+01 -0.1881844185159370E+01 -0.1881574457116140E+01 -0.1881304729667325E+01
 -0.1881035002851975E+01 -0.1880765276709048E+01 -0.1880495551277403E+01 -0.1880225826595806E+01 -0.1879956102702926E+01
 -0.1879686379637340E+01 -0.1879416657437527E+01 -0.1879146936141875E+01 -0.1878877215788677E+01 -0.1878607496416131E+01
 -0.1878337778062341E+01 -0.1878068060765322E+01 -0.1877798344562990E+01 -0.1877528629493174E+01 -0.1877258915593605E+01
 -0.1876989202901927E+01 -0.1876719491455687E+01 -0.1876449781292344E+01 -0.1876180072449263E+01 -0.1875910364963719E+01
 -0.1875640658872896E+01 -0.1875370954213885E+01 -0.1875101251023689E+01 -0.1874831549339220E+01 -0.1874561849197300E+01
 -0.1874292150634658E+01 -0.1874022453687938E+01 -0.1873752758393691E+01 -0.1873483064788382E+01 -0.1873213372908385E+01
 -0.1872943682789983E+01 -0.1872673994469376E+01 -0.1872404307982670E+01 -0.1872134623365888E+01 -0.1871864940654961E+01
 -0.1871595259885735E+01 -0.1871325581093967E+01 -0.1871055904315329E+01 -0.1870786229585403E+01 -0.1870516556939688E+01
 -0.1870246886413592E+01 -0.1869977218042443E+01 -0.1869707551861475E+01 -0.1869437887905844E+01 -0.1869168226210615E+01
 -0.1868898566810770E+01 -0.1868628909741206E+01 -0.1868359255036733E+01 -0.1868089602732079E+01 -0.1867819952861887E+01
 -0.1867550305460714E+01 -0.1867280660563034E+01 -0.1867011018203238E+01 -0.1866741378415632E+01 -0.1866471741234439E+01
 -0.1866202106693800E+01 -0.1865932474827771E+01 -0.1865662845670328E+01 -0.1865393219255361E+01 -0.1865123595616680E+01
 -0.1864853974788013E+01 -0.1864584356803004E+01 -0.1864314741695219E+01 -0.1864045129498139E+01 -0.1863775520245165E+01
 -0.1863505913969617E+01 -0.1863236310704735E+01 -0.1862966710483676E+01 -0.1862697113339519E+01 -0.1862427519305262E+01
 -0.1862157928413823E+01 -0.1861888340698039E+01 -0.1861618756190669E+01 -0.1861349174924391E+01 -0.1861079596931806E+01
 -0.1860810022245435E+01 -0.1860540450897718E+01 -0.1860270882921021E+01 -0.1860001318347626E+01 -0.1859731757209741E+01
 -0.1859462199539496E+01 -0.1859192645368940E+01 -0.1858923094730048E+01 -0.1858653547654714E+01 -0.1858384004174758E+01
 -0.1858114464321922E+01 -0.1857844928127869E+01 -0.1857575395624189E+01 -0.1857305866842394E+01 -0.1857036341813918E+01
 -0.1856766820570122E+01 -0.1856497303142288E+01 -0.1856227789561626E+01 -0.1855958279859268E+01 -0.1855688774066271E+01
 -0.1855419272213616E+01 -0.1855149774332213E+01 -0.1854880280452893E+01 -0.1854610790606414E+01 -0.1854341304823460E+01
 -0.1854071823134642E+01 -0.1853802345570494E+01 -0.1853532872161479E+01 -0.1853263402937985E+01 -0.1852993937930327E+01
 -0.1852724477168747E+01 -0.1852455020683414E+01 -0.1852185568504424E+01 -0.1851916120661800E+01 -0.1851646677185494E+01
 -0.1851377238105382E+01 -0.1851107803451273E+01 -0.1850838373252901E+01 -0.1850568947539929E+01 -0.1850299526341948E+01
 -0.1850030109688477E+01 -0.1849760697608966E+01 -0.1849491290132794E+01 -0.1849221887289265E+01 -0.1848952489107617E+01
 -0.1848683095617014E+01 -0.1848413706846555E+01 -0.1848144322825262E+01 -0.1847874943582092E+01 -0.1847605569145929E+01
 -0.1847336199545591E+01 -0.1847066834809824E+01 -0.1846797474967305E+01 -0.1846528120046643E+01 -0.1846258770076376E+01
 -0.1845989425084975E+01 -0.1845720085100843E+01 -0.1845450750152313E+01 -0.1845181420267650E+01 -0.1844912095475052E+01
 -0.1844642775802650E+01 -0.1844373461278503E+01 -0.1844104151930607E+01 -0.1843834847786887E+01 -0.1843565548875206E+01
 -0.1843296255223354E+01 -0.1843026966859057E+01 -0.1842757683809976E+01 -0.1842488406103702E+01 -0.1842219133767762E+01
 -0.1841949866829615E+01 -0.1841680605316656E+01 -0.1841411349256213E+01 -0.1841142098675547E+01 -0.1840872853601856E+01
 -0.1840603614062271E+01 -0.1840334380083859E+01 -0.1840065151693621E+01 -0.1839795928918492E+01 -0.1839526711785345E+01
 -0.1839257500320987E+01 -0.1838988294552159E+01 -0.1838719094505540E+01 -0.1838449900207745E+01 -0.1838180711685324E+01
 -0.1837911528964763E+01 -0.1837642352072483E+01 -0.1837373181034848E+01 -0.1837104015878150E+01 -0.1836834856628623E+01
 -0.1836565703312437E+01 -0.1836296555955699E+01 -0.1836027414584454E+01 -0.1835758279224684E+01 -0.1835489149902307E+01
 -0.1835220026643182E+01 -0.1834950909473102E+01 -0.1834681798417802E+01 -0.1834412693502953E+01 -0.1834143594754165E+01
 -0.1833874502196986E+01 -0.1833605415856904E+01 -0.1833336335759344E+01 -0.1833067261929672E+01 -0.1832798194393190E+01
 -0.1832529133175144E+01 -0.1832260078300715E+01 -0.1831991029795026E+01 -0.1831721987683139E+01 -0.1831452951990057E+01
 -0.1831183922740721E+01 -0.1830914899960013E+01 -0.1830645883672756E+01 -0.1830376873903713E+01 -0.1830107870677588E+01
 -0.1829838874019025E+01 -0.1829569883952609E+01 -0.1829300900502867E+01 -0.1829031923694266E+01 -0.1828762953551216E+01
 -0.1828493990098066E+01 -0.1828225033359109E+01 -0.1827956083358579E+01 -0.1827687140120651E+01 -0.1827418203669443E+01
 -0.1827149274029014E+01 -0.1826880351223368E+01 -0.1826611435276449E+01 -0.1826342526212144E+01 -0.1826073624054284E+01
  0.5080361252664051E+02  0.5080361252664051E+02  0.5080361252664051E+02  0.5080361252664051E+02  0.5080361252664051E+02
  0.5080361252664051E+02  0.5080361252664051E+02  0.5080361252664051E+02  0.5080361252664051E+02  0.5080361252664051E+02
  0.5080361252664051E+02  0.5080361252664051E+02  0.5080361252664051E+02  0.5080361252664051E+02  0.5080361252664051E+02
  0.5080361252664051E+02  0.5080361252664051E+02  0.5080361252664051E+02  0.5080361252664051E+02  0.5080361252664051E+02
  0.5080361252664051E+02  0.5080361252664051E+02  0.5080361252664051E+02  0.5080361252664051E+02  0.5080361252664051E+02
  0.5080361252664051E+02  0.5080361252664051E+02  0.5080361252664051E+02  0.5080361252664051E+02  0.5080361252664051E+02
  0.5080361252664051E+02  0.5080361252664051E+02  0.5080361252664051E+02  0.5080361252664051E+02  0.5080361252664051E+02
  0.5080361252664051E+02  0.5080361252664051E+02  0.5080361252664051E+02  0.5080361252664051E+02  0.5080361252664051E+02
  0.5080361252664051E+02  0.5080361252664051E+02  0.5080361252664051E+02  0.5080361252664051E+02  0.5080361252664051E+02
  0.5080361252664051E+02  0.5080361252664051E+02  0.5080361252664051E+02  0.5080361252664051E+02  0.5080361252664051E+02
  0.5080361252664051E+02  0.5080361252664051E+02  0.5080361252664051E+02  0.5080361252664051E+02  0.5080361252664051E+02
  0.5080361252664051E+02  0.5080361252664051E+02  0.5080361252664051E+02  0.5080361252664051E+02  0.5080361252664051E+02
  0.5080361252664051E+02  0.5080361252664051E+02  0.5080361252664051E+02  0.5080361252664051E+02  0.5080361252664051E+02
  0.5080361252664051E+02  0.5080361252664051E+02  0.5080361252664051E+02  0.5080361252664051E+02  0.5080361252664051E+02
  0.5080361252664051E+02  0.5080361252664051E+02  0.5080361252664051E+02  0.5080361252664051E+02  0.5080361252664051E+02
  0.5080361252664051E+02  0.5080361252664051E+02  0.5080361252664051E+02  0.5080361252664051E+02  0.5080361252664051E+02
  0.5080361252664051E+02  0.5080361252664051E+02  0.5080361252664051E+02  0.5080361252664051E+02  0.5080361252664051E+02
  0.5080361252664051E+02  0.5080361252664051E+02  0.5080361252664051E+02  0.5080361252664051E+02  0.5080361252664051E+02
  0.5080361252664051E+02  0.5080361252664051E+02  0.5080361252664051E+02  0.5080361252664051E+02  0.5080361252664051E+02
  0.5080361252664051E+02  0.5080361252664051E+02  0.5080361252664051E+02  0.5080361252664051E+02  0.5080361252664051E+02
  0.5080361252664051E+02  0.5080361252664051E+02  0.5080361252664051E+02  0.5080361252664051E+02  0.5080361252664051E+02
  0.5080361252664051E+02  0.5080361252664051E+02  0.5080361252664051E+02  0.5080361252664051E+02  0.5080361252664051E+02
  0.5080361252664051E+02  0.5080361252664051E+02  0.5080361252664051E+02  0.5080361252664051E+02  0.5080361252664051E+02
  0.5080361252664051E+02  0.5080361252664051E+02  0.5080361252664051E+02  0.5080361252664051E+02  0.5080361252664051E+02
  0.5080361252664051E+02  0.5080361252664051E+02  0.5080361252664051E+02  0.5080361252664051E+02  0.5080361252664051E+02
  0.5080361252664051E+02  0.5080361252664051E+02  0.5080361252664051E+02  0.5080361252664051E+02  0.5080361252664051E+02
  0.5080361252664051E+02  0.5080361252664051E+02  0.5080361252664051E+02  0.5080361252664051E+02  0.5080361252664051E+02
  0.5080361252664051E+02  0.5080361252664051E+02  0.5080361252664051E+02  0.5080361252664051E+02  0.5080361252664051E+02
  0.5080361252664051E+02  0.5080361252664051E+02  0.5080361252664051E+02  0.5080361252664051E+02  0.5080361252664051E+02
  0.5080361252664051E+02  0.5080361252664051E+02  0.5080361252664051E+02  0.5080361252664051E+02  0.5080361252664051E+02
  0.5080361252664051E+02  0.5080361252664051E+02  0.5080361252664051E+02  0.5080361252664051E+02  0.5080361252664051E+02
  0.5068415017698756E+02  0.5040690413254249E+02  0.5013117377493772E+02  0.4985695085732681E+02  0.4958422717602871E+02
  0.4931299457037316E+02  0.4904324492254343E+02  0.4877497015741692E+02  0.4850816224240369E+02  0.4824281318728273E+02
  0.4797891504403661E+02  0.4771645990668425E+02  0.4745543991111193E+02  0.4719584723490305E+02  0.4693767409716611E+02
  0.4668091275836154E+02  0.4642555552012730E+02  0.4617159472510308E+02  0.4591902275675386E+02  0.4566783203919203E+02
  0.4541801503699893E+02  0.4516956425504551E+02  0.4492247223831197E+02  0.4467673157170722E+02  0.4443233487988724E+02
  0.4418927482707323E+02  0.4394754411686918E+02  0.4370713549207892E+02  0.4346804173452303E+02  0.4323025566485522E+02
  0.4299377014237862E+02  0.4275857806486182E+02  0.4252467236835473E+02  0.4229204602700449E+02  0.4206069205287098E+02
  0.4183060349574279E+02  0.4160177344295281E+02  0.4137419501919418E+02  0.4114786138633605E+02  0.4092276574323986E+02
  0.4069890132557541E+02  0.4047626140563735E+02  0.4025483929216202E+02  0.4003462833014419E+02  0.3981562190065455E+02
  0.3959781342065708E+02  0.3938119634282718E+02  0.3916576415536989E+02  0.3895151038183866E+02  0.3873842858095445E+02
  0.3852651234642533E+02  0.3831575530676656E+02  0.3810615112512107E+02  0.3789769349908055E+02  0.3769037616050694E+02
  0.3748419287535467E+02  0.3727913744349308E+02  0.3707520369852977E+02  0.3687238550763437E+02  0.3667067677136291E+02
  0.3647007142348276E+02  0.3627056343079838E+02  0.3607214679297729E+02  0.3587481554237721E+02  0.3567856374387338E+02
  0.3548338549468688E+02  0.3528927492421338E+02  0.3509622619385267E+02  0.3490423349683891E+02  0.3471329105807142E+02
  0.3452339313394634E+02  0.3433453401218894E+02  0.3414670801168656E+02  0.3395990948232228E+02  0.3377413280480943E+02
  0.3358937239052669E+02  0.3340562268135393E+02  0.3322287814950894E+02  0.3304113329738461E+02  0.3286038265738710E+02
  0.3268062079177461E+02  0.3250184229249695E+02  0.3232404178103583E+02  0.3214721390824590E+02  0.3197135335419662E+02
  0.3179645482801466E+02  0.3162251306772724E+02  0.3144952284010628E+02  0.3127747894051303E+02  0.3110637619274372E+02
  0.3093620944887583E+02  0.3076697358911511E+02  0.3059866352164345E+02  0.3043127418246733E+02  0.3026480053526721E+02
  0.3009923757124765E+02  0.2993458030898790E+02  0.2977082379429365E+02  0.2960796310004925E+02  0.2944599332607083E+02
  0.2928490959895997E+02  0.2912470707195842E+02  0.2896538092480322E+02  0.2880692636358281E+02  0.2864933862059380E+02
  0.2849261295419843E+02  0.2833674464868287E+02  0.2818172901411615E+02  0.2802756138620989E+02  0.2787423712617872E+02
  0.2772175162060145E+02  0.2757010028128298E+02  0.2741927854511686E+02  0.2726928187394871E+02  0.2712010575444020E+02
  0.2697174569793383E+02  0.2682419724031844E+02  0.2667745594189538E+02  0.2653151738724541E+02  0.2638637718509631E+02
  0.2624203096819119E+02  0.2609847439315748E+02  0.2595570314037664E+02  0.2581371291385460E+02  0.2567249944109279E+02
  0.2553205847295993E+02  0.2539238578356450E+02  0.2525347717012789E+02  0.2511532845285827E+02  0.2497793547482495E+02
  0.2484129410183375E+02  0.2470540022230263E+02  0.2457024974713840E+02  0.2443583860961374E+02  0.2430216276524515E+02
  0.2416921819167142E+02  0.2403700088853270E+02  0.2390550687735039E+02  0.2377473220140755E+02  0.2364467292563004E+02
  0.2351532513646823E+02  0.2338668494177934E+02  0.2325874847071054E+02  0.2313151187358252E+02  0.2300497132177382E+02
  0.2287912300760570E+02  0.2275396314422774E+02  0.2262948796550389E+02  0.2250569372589931E+02  0.2238257670036775E+02
  0.2226013318423944E+02  0.2213835949310992E+02  0.2201725196272901E+02  0.2189680694889073E+02  0.2177702082732376E+02
  0.2165788999358228E+02  0.2153941086293780E+02  0.2142157987027110E+02  0.2130439346996522E+02  0.2118784813579871E+02
  0.2107194036083956E+02  0.2095666665733976E+02  0.2084202355663036E+02  0.2072800760901723E+02  0.2061461538367710E+02
  0.2050184346855457E+02  0.2038968847025932E+02  0.2027814701396413E+02  0.2016721574330327E+02  0.2005689132027159E+02
  0.1994717042512412E+02  0.1983804975627615E+02  0.1972952603020389E+02  0.1962159598134576E+02  0.1951425636200410E+02
  0.1940750394224748E+02  0.1930133550981350E+02  0.1919574787001218E+02  0.1909073784562981E+02  0.1898630227683339E+02
  0.1888243802107557E+02  0.1877914195300005E+02  0.1867641096434761E+02  0.1857424196386253E+02  0.1847263187719962E+02
  0.1837157764683177E+02  0.1827107623195780E+02  0.1817112460841116E+02  0.1807171976856878E+02  0.1797285872126070E+02
  0.1787453849167996E+02  0.1777675612129319E+02  0.1767950866775153E+02  0.1758279320480209E+02  0.1748660682219998E+02
  0.1739094662562064E+02  0.1729580973657286E+02  0.1720119329231205E+02  0.1710709444575421E+02  0.1701351036539020E+02
  0.1692043823520056E+02  0.1682787525457078E+02  0.1673581863820699E+02  0.1664426561605227E+02  0.1655321343320314E+02
  0.1646265934982677E+02  0.1637260064107850E+02  0.1628303459701990E+02  0.1619395852253712E+02  0.1610536973725991E+02
  0.1601726557548093E+02  0.1592964338607550E+02  0.1584250053242186E+02  0.1575583439232182E+02  0.1566964235792189E+02
  0.1558392183563477E+02  0.1549867024606132E+02  0.1541388502391296E+02  0.1532956361793446E+02  0.1524570349082717E+02
  0.1516230211917269E+02  0.1507935699335695E+02  0.1499686561749462E+02  0.1491482550935412E+02  0.1483323420028282E+02
  0.1475208923513286E+02  0.1467138817218715E+02  0.1459112858308604E+02  0.1451130805275415E+02  0.1443192417932769E+02
  0.1435297457408227E+02  0.1427445686136095E+02  0.1419636867850280E+02  0.1411870767577173E+02  0.1404147151628591E+02
  0.1396465787594733E+02  0.1388826444337195E+02  0.1381228891982008E+02  0.1373672901912728E+02  0.1366158246763552E+02
  0.1358684700412478E+02  0.1351252037974498E+02  0.1343860035794839E+02  0.1336508471442222E+02  0.1329197123702177E+02
  0.1321925772570385E+02  0.1314694199246054E+02  0.1307502186125343E+02  0.1300349516794803E+02  0.1293235976024875E+02
  0.1286161349763409E+02  0.1279125425129224E+02  0.1272127990405701E+02  0.1265168835034414E+02  0.1258247749608793E+02
  0.1251364525867823E+02  0.1244518956689778E+02  0.1237710836085986E+02  0.1230939959194638E+02  0.1224206122274611E+02
  0.1217509122699349E+02  0.1210848758950761E+02  0.1204224830613154E+02  0.1197637138367210E+02  0.1191085483983983E+02
  0.1184569670318933E+02  0.1178089501305999E+02  0.1171644781951692E+02  0.1165235318329237E+02  0.1158860917572728E+02
  0.1152521387871330E+02  0.1146216538463507E+02  0.1139946179631281E+02  0.1133710122694520E+02  0.1127508180005268E+02
  0.1121340164942090E+02  0.1115205891904464E+02  0.1109105176307190E+02  0.1103037834574839E+02  0.1097003684136229E+02
  0.1091002543418932E+02  0.1085034231843805E+02  0.1079098569819563E+02  0.1073195378737373E+02  0.1067324480965476E+02
  0.1061485699843848E+02  0.1055678859678876E+02  0.1049903785738081E+02  0.1044160304244853E+02  0.1038448242373224E+02
  0.1032767428242667E+02  0.1027117690912926E+02  0.1021498860378869E+02  0.1015910767565378E+02  0.1010353244322254E+02
  0.1004826123419162E+02  0.9993292385405974E+01  0.9938624242808833E+01  0.9884255161391918E+01  0.9830183505145909E+01
  0.9776407647011290E+01  0.9722925968829328E+01  0.9669736861293389E+01  0.9616838723900550E+01  0.9564229964903395E+01
  0.9511909001262151E+01  0.9459874258597020E+01  0.9408124171140834E+01  0.9356657181691928E+01  0.9305471741567281E+01
  0.9254566310555916E+01  0.9203939356872562E+01  0.9153589357111548E+01  0.9103514796200965E+01  0.9053714167357093E+01
  0.9004185972039036E+01  0.8954928719903648E+01  0.8905940928760675E+01  0.8857221124528165E+01  0.8808767841188107E+01
  0.8760579620742320E+01  0.8712655013168565E+01  0.8664992576376944E+01  0.8617590876166480E+01  0.8570448486181961E+01
  0.8523563987871048E+01  0.8476935970441545E+01  0.8430563030818996E+01  0.8384443773604421E+01  0.8338576811032352E+01
  0.8292960762929082E+01  0.8247594256671109E+01  0.8202475927143841E+01  0.8157604416700540E+01  0.8112978375121438E+01
  0.8068596459573124E+01  0.8024457334568147E+01  0.7980559671924801E+01  0.7936902150727192E+01  0.7893483457285464E+01
  0.7850302285096280E+01  0.7807357334803522E+01  0.7764647314159151E+01  0.7722170937984380E+01  0.7679926928130959E+01
  0.7637914013442720E+01  0.7596130929717345E+01  0.7554576419668303E+01  0.7513249232887041E+01  0.7472148125805340E+01
  0.7431271861657896E+01  0.7390619210445114E+01  0.7350188948896100E+01  0.7309979860431819E+01  0.7269990735128538E+01
  0.7230220369681377E+01  0.7190667567368127E+01  0.7151331138013214E+01  0.7112209897951907E+01  0.7073302669994699E+01
  0.7034608283391870E+01  0.6996125573798268E+01  0.6957853383238284E+01  0.6919790560070981E+01  0.6881935958955459E+01
  0.6844288440816393E+01  0.6806846872809739E+01  0.6769610128288676E+01  0.6732577086769667E+01  0.6695746633898771E+01
  0.6659117661418103E+01  0.6622689067132484E+01  0.6586459754876265E+01  0.6550428634480374E+01  0.6514594621739477E+01
  0.6478956638379364E+01  0.6443513612024519E+01  0.6408264476165831E+01  0.6373208170128508E+01  0.6338343639040168E+01
  0.6303669833799088E+01  0.6269185711042642E+01  0.6234890233115891E+01  0.6200782368040384E+01  0.6166861089483088E+01
  0.6133125376725503E+01  0.6099574214632956E+01  0.6066206593624050E+01  0.6033021509640291E+01  0.6000017964115868E+01
  0.5967194963947602E+01  0.5934551521465076E+01  0.5902086654400915E+01  0.5869799385861200E+01  0.5837688744296115E+01
  0.5805753763470679E+01  0.5773993482435692E+01  0.5742406945498804E+01  0.5710993202195763E+01  0.5679751307261829E+01
  0.5648680320603305E+01  0.5617779307269262E+01  0.5587047337423413E+01  0.5556483486316115E+01  0.5526086834256557E+01
  0.5495856466585089E+01  0.5465791473645677E+01  0.5435890950758559E+01  0.5406153998193001E+01  0.5376579721140231E+01
  0.5347167229686519E+01  0.5317915638786392E+01  0.5288824068235997E+01  0.5259891642646634E+01  0.5231117491418392E+01
  0.5202500748713965E+01  0.5174040553432600E+01  0.5145736049184179E+01  0.5117586384263449E+01  0.5089590711624402E+01
  0.5061748188854778E+01  0.5034057978150726E+01  0.5006519246291569E+01  0.4979131164614772E+01  0.4951892908990976E+01
  0.4924803659799205E+01  0.4897862601902208E+01  0.4871068924621934E+01  0.4844421821715127E+01  0.4817920491349073E+01
  0.4791564136077468E+01  0.4765351962816434E+01  0.4739283182820639E+01  0.4713357011659567E+01  0.4687572669193921E+01
  0.4661929379552140E+01  0.4636426371107061E+01  0.4611062876452689E+01  0.4585838132381110E+01  0.4560751379859536E+01
  0.4535801864007446E+01  0.4510988834073880E+01  0.4486311543414858E+01  0.4461769249470895E+01  0.4437361213744667E+01
  0.4413086701778794E+01  0.4388944983133725E+01  0.4364935331365768E+01  0.4341057024005234E+01  0.4317309342534688E+01
  0.4293691572367338E+01  0.4270203002825522E+01  0.4246842927119327E+01  0.4223610642325332E+01  0.4200505449365439E+01
  0.4177526652985844E+01  0.4154673561736128E+01  0.4131945487948428E+01  0.4109341747716764E+01  0.4086861660876451E+01
  0.4064504550983632E+01  0.4042269745294931E+01  0.4020156574747192E+01  0.3998164373937368E+01  0.3976292481102489E+01
  0.3954540238099741E+01  0.3932906990386679E+01  0.3911392087001511E+01  0.3889994880543526E+01  0.3868714727153612E+01
  0.3847550986494870E+01  0.3826503021733361E+01  0.3805570199518933E+01  0.3784751889966160E+01  0.3764047466635406E+01
  0.3743456306513949E+01  0.3722977789997256E+01  0.3702611300870331E+01  0.3682356226289166E+01  0.3662211956762314E+01
  0.3642177886132538E+01  0.3622253411558572E+01  0.3602437933496981E+01  0.3582730855684131E+01  0.3563131585118230E+01
  0.3543639532041500E+01  0.3524254109922416E+01  0.3504974735438069E+01  0.3485800828456612E+01  0.3466731812019788E+01
  0.3447767112325588E+01  0.3428906158710982E+01  0.3410148383634732E+01  0.3391493222660336E+01  0.3372940114439026E+01
  0.3354488500692885E+01  0.3336137826198046E+01  0.3317887538767982E+01  0.3299737089236900E+01  0.3281685931443208E+01
  0.3263733522213075E+01  0.3245879321344103E+01  0.3228122791589054E+01  0.3210463398639701E+01  0.3192900611110734E+01
  0.3175433900523779E+01  0.3158062741291497E+01  0.3140786610701765E+01  0.3123604988901948E+01  0.3106517358883256E+01
  0.3089523206465188E+01  0.3072622020280054E+01  0.3055813291757601E+01  0.3039096515109696E+01  0.3022471187315110E+01
  0.3005936808104392E+01  0.2989492879944796E+01  0.2973138908025330E+01  0.2956874400241849E+01  0.2940698867182261E+01
  0.2924611822111795E+01  0.2908612780958352E+01  0.2892701262297944E+01  0.2876876787340203E+01  0.2861138879913977E+01
  0.2845487066453003E+01  0.2829920875981648E+01  0.2814439840100748E+01  0.2799043492973509E+01  0.2783731371311488E+01
  0.2768503014360657E+01  0.2753357963887530E+01  0.2738295764165386E+01  0.2723315961960542E+01  0.2708418106518732E+01
  0.2693601749551524E+01  0.2678866445222849E+01  0.2664211750135570E+01  0.2649637223318153E+01  0.2635142426211389E+01
  0.2620726922655194E+01  0.2606390278875501E+01  0.2592132063471191E+01  0.2577951847401118E+01  0.2563849203971201E+01
  0.2549823708821579E+01  0.2535874939913848E+01  0.2522002477518354E+01  0.2508205904201569E+01  0.2494484804813529E+01
  0.2480838766475344E+01  0.2467267378566765E+01  0.2453770232713838E+01  0.2440346922776612E+01  0.2426997044836920E+01
  0.2413720197186215E+01  0.2400515980313497E+01  0.2387383996893284E+01  0.2374323851773653E+01  0.2361335151964357E+01
  0.2348417506624994E+01  0.2335570527053249E+01  0.2322793826673192E+01  0.2310087021023658E+01  0.2297449727746663E+01
  0.2284881566575913E+01  0.2272382159325348E+01  0.2259951129877773E+01  0.2247588104173538E+01  0.2235292710199272E+01
  0.2223064577976703E+01  0.2210903339551521E+01  0.2198808628982298E+01  0.2186780082329488E+01  0.2174817337644467E+01
  0.2162920034958647E+01  0.2151087816272639E+01  0.2139320325545489E+01  0.2127617208683954E+01  0.2115978113531858E+01
  0.2104402689859482E+01  0.2092890589353041E+01  0.2081441465604188E+01  0.2070054974099605E+01  0.2058730772210620E+01
  0.2047468519182909E+01  0.2036267876126240E+01  0.2025128506004275E+01  0.2014050073624425E+01  0.2003032245627770E+01
  0.1992074690479023E+01  0.1981177078456551E+01  0.1970339081642465E+01  0.1959560373912741E+01  0.1948840630927414E+01
  0.1938179530120812E+01  0.1927576750691857E+01  0.1917031973594405E+01  0.1906544881527650E+01  0.1896115158926575E+01
  0.1885742491952456E+01  0.1875426568483417E+01  0.1865167078105042E+01  0.1854963712101034E+01  0.1844816163443919E+01
  0.1834724126785812E+01  0.1824687298449231E+01  0.1814705376417955E+01  0.1804778060327940E+01  0.1794905051458275E+01
  0.1785086052722202E+01  0.1775320768658165E+01  0.1765608905420932E+01  0.1755950170772741E+01  0.1746344274074515E+01
  0.1736790926277112E+01  0.1727289839912630E+01  0.1717840729085754E+01  0.1708443309465156E+01  0.1699097298274937E+01
  0.1689802414286117E+01  0.1680558377808179E+01  0.1671364910680645E+01  0.1662221736264710E+01  0.1653128579434918E+01
  0.1644085166570880E+01  0.1635091225549047E+01  0.1626146485734513E+01  0.1617250677972877E+01  0.1608403534582144E+01
  0.1599604789344669E+01  0.1590854177499144E+01  0.1582151435732638E+01  0.1573496302172663E+01  0.1564888516379303E+01
  0.1556327819337376E+01  0.1547813953448636E+01  0.1539346662524022E+01  0.1530925691775957E+01  0.1522550787810671E+01
  0.1514221698620578E+01  0.1505938173576704E+01  0.1497699963421127E+01  0.1489506820259490E+01  0.1481358497553540E+01
  0.1473254750113705E+01  0.1465195334091719E+01  0.1457180006973284E+01  0.1449208527570774E+01  0.1441280656015970E+01
  0.1433396153752856E+01  0.1425554783530428E+01  0.1417756309395558E+01  0.1410000496685899E+01  0.1402287112022820E+01
  0.1394615923304384E+01  0.1386986699698360E+01  0.1379399211635284E+01  0.1371853230801549E+01  0.1364348530132528E+01
  0.1356884883805753E+01  0.1349462067234111E+01  0.1342079857059090E+01  0.1334738031144055E+01  0.1327436368567567E+01
  0.1320174649616730E+01  0.1312952655780591E+01  0.1305770169743550E+01  0.1298626975378831E+01  0.1291522857741974E+01
  0.1284457603064372E+01  0.1277430998746830E+01  0.1270442833353175E+01  0.1263492896603894E+01  0.1256580979369800E+01
  0.1249706873665744E+01  0.1242870372644358E+01  0.1236071270589826E+01  0.1229309362911694E+01  0.1222584446138721E+01
  0.1215896317912746E+01  0.1209244776982606E+01  0.1202629623198080E+01  0.1196050657503861E+01  0.1189507681933569E+01
  0.1183000499603798E+01  0.1176528914708185E+01  0.1170092732511521E+01  0.1163691759343890E+01  0.1157325802594848E+01
  0.1150994670707614E+01  0.1144698173173316E+01  0.1138436120525259E+01  0.1132208324333214E+01  0.1126014597197755E+01
  0.1119854752744625E+01  0.1113728605619114E+01  0.1107635971480492E+01  0.1101576666996459E+01  0.1095550509837630E+01
  0.1089557318672040E+01  0.1083596913159702E+01  0.1077669113947165E+01  0.1071773742662129E+01  0.1065910621908068E+01
  0.1060079575258900E+01  0.1054280427253673E+01  0.1048513003391283E+01  0.1042777130125230E+01  0.1037072634858390E+01
  0.1031399345937821E+01  0.1025757092649603E+01  0.1020145705213693E+01  0.1014565014778821E+01  0.1009014853417408E+01
  0.1003495054120513E+01  0.9980054507928036E+00  0.9925458782475610E+00  0.9871161722017118E+00  0.9817161692708767E+00
  0.9763457069644571E+00  0.9710046236807514E+00  0.9656927587020779E+00  0.9604099521899510E+00  0.9551560451802672E+00
  0.9499308795785173E+00  0.9447342981550314E+00  0.9395661445402506E+00  0.9344262632200144E+00  0.9293144995308824E+00
  0.9242306996554844E+00  0.9191747106178864E+00  0.9141463802789861E+00  0.9091455573319364E+00  0.9041720912975932E+00
  0.8992258325199813E+00  0.8943066321617936E+00  0.8894143421999119E+00  0.8845488154209492E+00  0.8797099054168206E+00
  0.8748974665803381E+00  0.8701113541008239E+00  0.8653514239597542E+00  0.8606175329264248E+00  0.8559095385536388E+00
  0.8512272991734171E+00  0.8465706738927394E+00  0.8419395225892972E+00  0.8373337059072776E+00  0.8327530852531688E+00
  0.8281975227915920E+00  0.8236668814411413E+00  0.8191610248702670E+00  0.8146798174931695E+00  0.8102231244657121E+00
  0.8057908116813657E+00  0.8013827457671724E+00  0.7969987940797254E+00  0.7926388247011763E+00  0.7883027064352677E+00
  0.7839903088033766E+00  0.7797015020405880E+00  0.7754361570917894E+00  0.7711941456077802E+00  0.7669753399414092E+00
  0.7627796131437302E+00  0.7586068389601773E+00  0.7544568918267641E+00  0.7503296468662993E+00  0.7462249798846292E+00
  0.7421427673668921E+00  0.7380828864737997E+00  0.7340452150379375E+00  0.7300296315600822E+00  0.7260360152055420E+00
  0.7220642458005171E+00  0.7181142038284763E+00  0.7141857704265572E+00  0.7102788273819820E+00  0.7063932571284998E+00
  0.7025289427428348E+00  0.6986857679411720E+00  0.6948636170756438E+00  0.6910623751308473E+00  0.6872819277203760E+00
  0.6835221610833724E+00  0.6797829620810955E+00  0.6760642181935069E+00  0.6723658175158852E+00  0.6686876487554416E+00
  0.6650296012279674E+00  0.6613915648544957E+00  0.6577734301579766E+00  0.6541750882599763E+00  0.6505964308773903E+00
  0.6470373503191753E+00  0.6434977394830985E+00  0.6399774918525051E+00  0.6364765014931001E+00  0.6329946630497506E+00
  0.6295318717433027E+00  0.6260880233674196E+00  0.6226630142854277E+00  0.6192567414271892E+00  0.6158691022859878E+00
  0.6124999949154257E+00  0.6091493179263453E+00  0.6058169704837627E+00  0.6025028523038172E+00  0.5992068636507348E+00
  0.5959289053338180E+00  0.5926688787044366E+00  0.5894266856530442E+00  0.5862022286062082E+00  0.5829954105236553E+00
  0.5798061348953293E+00  0.5766343057384686E+00  0.5734798275946971E+00  0.5703426055271292E+00  0.5672225451174920E+00
  0.5641195524632604E+00  0.5610335341748076E+00  0.5579643973725693E+00  0.5549120496842264E+00  0.5518763992418956E+00
  0.5488573546793403E+00  0.5458548251291935E+00  0.5428687202201927E+00  0.5398989500744322E+00  0.5369454253046270E+00
  0.5340080570113939E+00  0.5310867567805383E+00  0.5281814366803669E+00  0.5252920092590008E+00  0.5224183875417117E+00
  0.5195604850282658E+00  0.5167182156902853E+00  0.5138914939686173E+00  0.5110802347707186E+00  0.5082843534680574E+00
  0.5055037658935190E+00  0.5027383883388299E+00  0.4999881375519963E+00  0.4972529307347462E+00  0.4945326855399933E+00
  0.4918273200693075E+00  0.4891367528703990E+00  0.4864609029346145E+00  0.4837996896944432E+00  0.4811530330210392E+00
  0.4785208532217480E+00  0.4759030710376522E+00  0.4732996076411223E+00  0.4707103846333829E+00  0.4681353240420870E+00
  0.4655743483189045E+00  0.4630273803371170E+00  0.4604943433892265E+00  0.4579751611845753E+00  0.4554697578469738E+00
  0.4529780579123373E+00  0.4504999863263410E+00  0.4480354684420741E+00  0.4455844300177122E+00  0.4431467972141937E+00
  0.4407224965929125E+00  0.4383114551134127E+00  0.4359136001310961E+00  0.4335288593949429E+00  0.4311571610452338E+00
  0.4287984336112866E+00  0.4264526060092000E+00  0.4241196075396066E+00  0.4217993678854323E+00  0.4194918171096676E+00
  0.4171968856531445E+00  0.4149145043323226E+00  0.4126446043370837E+00  0.4103871172285326E+00  0.4081419749368070E+00
  0.4059091097588947E+00  0.4036884543564578E+00  0.4014799417536642E+00  0.3992835053350270E+00  0.3970990788432505E+00
  0.3949265963770809E+00  0.3927659923891670E+00  0.3906172016839262E+00  0.3884801594154151E+00  0.3863548010852068E+00
  0.3842410625402783E+00  0.3821388799708969E+00  0.3800481899085168E+00  0.3779689292236810E+00  0.3759010351239259E+00
  0.3738444451516932E+00  0.3717990971822470E+00  0.3697649294215932E+00  0.3677418804044072E+00  0.3657298889919613E+00
  0.3637288943700621E+00  0.3617388360469855E+00  0.3597596538514211E+00  0.3577912879304165E+00  0.3558336787473277E+00
  0.3538867670797701E+00  0.3519504940175763E+00  0.3500248009607512E+00  0.3481096296174356E+00  0.3462049220018688E+00
  0.3443106204323535E+00  0.3424266675292250E+00  0.3405530062128198E+00  0.3386895797014465E+00  0.3368363315093584E+00
  0.3349932054447275E+00  0.3331601456076194E+00  0.3313370963879676E+00  0.3295240024635485E+00  0.3277208087979603E+00
  0.3259274606385961E+00  0.3241439035146204E+00  0.3223700832349461E+00  0.3206059458862061E+00  0.3188514378307286E+00
  0.3171065057045093E+00  0.3153710964151821E+00  0.3136451571399883E+00  0.3119286353237430E+00  0.3102214786768019E+00
  0.3085236351730212E+00  0.3068350530477186E+00  0.3051556807956298E+00  0.3034854671688609E+00  0.3018243611748385E+00
  0.3001723120742555E+00  0.2985292693790122E+00  0.2968951828501524E+00  0.2952700024957978E+00  0.2936536785690722E+00
  0.2920461615660250E+00  0.2904474022235482E+00  0.2888573515172839E+00  0.2872759606595295E+00  0.2857031810971346E+00
  0.2841389645093919E+00  0.2825832628059187E+00  0.2810360281245338E+00  0.2794972128291237E+00  0.2779667695075028E+00
  0.2764446509692634E+00  0.2749308102436183E+00  0.2734252005772325E+00  0.2719277754320462E+00  0.2704384884830883E+00
  0.2689572936162788E+00  0.2674841449262203E+00  0.2660189967139805E+00  0.2645618034848602E+00  0.2631125199461518E+00
  0.2616711010048853E+00  0.2602375017655618E+00  0.2588116775278733E+00  0.2573935837844104E+00  0.2559831762183562E+00
  0.2545804107011653E+00  0.2531852432902290E+00  0.2517976302265273E+00  0.2504175279322626E+00  0.2490448930084793E+00
  0.2476796822326698E+00  0.2463218525563602E+00  0.2449713611026814E+00  0.2436281651639242E+00  0.2422922221990735E+00
  0.2409634898313276E+00  0.2396419258455984E+00  0.2383274881859923E+00  0.2370201349532721E+00  0.2357198244023000E+00
  0.2344265149394605E+00  0.2331401651200617E+00  0.2318607336457179E+00  0.2305881793617096E+00  0.2293224612543228E+00
  0.2280635384481655E+00  0.2268113702034637E+00  0.2255659159133319E+00  0.2243271351010233E+00  0.2230949874171546E+00
  0.2218694326369083E+00  0.2206504306572096E+00  0.2194379414938808E+00  0.2182319252787672E+00  0.2170323422568417E+00
  0.2158391527832810E+00  0.2146523173205177E+00  0.2134717964352646E+00  0.2122975507955127E+00  0.2111295411675045E+00
  0.2099677284126768E+00  0.2088120734845776E+00  0.2076625374257569E+00  0.2065190813646261E+00  0.2053816665122925E+00
  0.2042502541593630E+00  0.2031248056727213E+00  0.2020052824922743E+00  0.2008916461276716E+00  0.1997838581549940E+00
  0.1986818802134140E+00  0.1975856740018277E+00  0.1964952012754554E+00  0.1954104238424155E+00  0.1943313035602663E+00
  0.1932578023325219E+00  0.1921898821051355E+00  0.1911275048629556E+00  0.1900706326261544E+00  0.1890192274466241E+00
  0.1879732514043485E+00  0.1869326666037445E+00  0.1858974351699755E+00  0.1848675192452389E+00  0.1838428809850252E+00
  0.1828234825543524E+00  0.1818092861239722E+00  0.1808002538665528E+00  0.1797963479528371E+00  0.1787975305477760E+00
  0.1778037638066398E+00  0.1768150098711080E+00  0.1758312308653364E+00  0.1748523888920062E+00  0.1738784460283535E+00
  0.1729093643221818E+00  0.1719451057878579E+00  0.1709856324022947E+00  0.1700309061009194E+00  0.1690808887736313E+00
  0.1681355422607506E+00  0.1671948283489596E+00  0.1662587087672382E+00  0.1653271451827974E+00  0.1644000991970105E+00
  0.1634775323413479E+00  0.1625594060733154E+00  0.1616456817724010E+00  0.1607363207360298E+00  0.1598312841755358E+00
  0.1589305332121483E+00  0.1580340288729999E+00  0.1571417320871586E+00  0.1562536036816883E+00  0.1553696043777423E+00
  0.1544896947866929E+00  0.1536138354063041E+00  0.1527419866169494E+00  0.1518741086778822E+00  0.1510101617235635E+00
  0.1501501057600520E+00  0.1492939006614636E+00  0.1484415061665050E+00  0.1475928818750906E+00  0.1467479872450468E+00
  0.1459067815889118E+00  0.1450692240708408E+00  0.1442352737036191E+00  0.1434048893457977E+00  0.1425780296989557E+00
  0.1417546533050984E+00  0.1409347185442044E+00  0.1401181836319268E+00  0.1393050066174610E+00  0.1384951453815898E+00
  0.1376885576349158E+00  0.1368852009162938E+00  0.1360850325914727E+00  0.1352880098519627E+00  0.1344940897141383E+00
  0.1337032290185896E+00  0.1329153844297380E+00  0.1321305124357304E+00  0.1313485693486227E+00  0.1305695113048744E+00
  0.1297932942661639E+00  0.1290198740205451E+00  0.1282492061839588E+00  0.1274812462021193E+00  0.1267159493527930E+00
  0.1259532707484840E+00  0.1251931653395527E+00  0.1244355879177797E+00  0.1236804931203995E+00  0.1229278354346215E+00
  0.1221775692026636E+00  0.1214296486273129E+00  0.1206840277780432E+00  0.1199406605977064E+00  0.1191995009098218E+00
  0.1184605024264892E+00  0.1177236187569446E+00  0.1169888034167892E+00  0.1162560098379078E+00  0.1155251913791106E+00
  0.1147963013375165E+00  0.1140692929607049E+00  0.1133441194596655E+00  0.1126207340225645E+00  0.1118990898293605E+00
  0.1111791400672901E+00  0.1104608379472528E+00  0.1097441367211194E+00  0.1090289896999877E+00  0.1083153502734167E+00
  0.1076031719296549E+00  0.1068924082768977E+00  0.1061830130655895E+00  0.1054749402117985E+00  0.1047681438216867E+00
  0.1040625782170937E+00  0.1033581979622602E+00  0.1026549578917047E+00  0.1019528131392802E+00  0.1012517191684185E+00
  0.1005516318035854E+00  0.9985250726295782E-01  0.9915430219233308E-01  0.9845697370028440E-01  0.9776047939456549E-01
  0.9706477741977627E-01  0.9636982649628342E-01  0.9567558596040555E-01  0.9498201580585312E-01  0.9428907672641824E-01
  0.9359673015990859E-01  0.9290493833330582E-01  0.9221366430913798E-01  0.9152287203303830E-01  0.9083252638247143E-01
  0.9014259321659221E-01  0.8945303942720295E-01  0.8876383299077364E-01  0.8807494302147366E-01  0.8738633982517133E-01
  0.8669799495433968E-01  0.8600988126381184E-01  0.8532197296731550E-01  0.8463424569471173E-01  0.8394667654986346E-01
  0.8325924416903840E-01  0.8257192877976345E-01  0.8188471226002132E-01  0.8119757819768959E-01  0.8051051195010428E-01
  0.7982350070363047E-01  0.7913653353311124E-01  0.7844960146105889E-01  0.7776269751645246E-01  0.7707581679298685E-01
  0.7638895650662521E-01  0.7570211605228837E-01  0.7501529705951848E-01  0.7432850344694057E-01  0.7364174147534214E-01
  0.7295501979919121E-01  0.7226834951639655E-01  0.7158174421612173E-01  0.7089522002445151E-01  0.7020879564770970E-01
  0.6952249241322614E-01  0.6883633430734133E-01  0.6815034801044545E-01  0.6746456292883797E-01  0.6677901122320345E-01
  0.6609372783349024E-01  0.6540875049998857E-01  0.6472411978040497E-01  0.6403987906272864E-01  0.6335607457369938E-01
  0.6267275538268281E-01  0.6198997340077466E-01  0.6130778337495429E-01  0.6062624287712499E-01  0.5994541228788659E-01
  0.5926535477488961E-01  0.5858613626564883E-01  0.5790782541468922E-01  0.5723049356492733E-01  0.5655421470319556E-01
  0.5587906540984342E-01  0.5520512480235890E-01  0.5453247447297681E-01  0.5386119842026224E-01  0.5319138297467045E-01
  0.5252311671811517E-01  0.5185649039758960E-01  0.5119159683291639E-01  0.5052853081871661E-01  0.4986738902071607E-01
  0.4920826986653185E-01  0.4855127343109859E-01  0.4789650131692622E-01  0.4724405652939533E-01  0.4659404334732734E-01
  0.4594656718908019E-01  0.4530173447445158E-01  0.4465965248268389E-01  0.4402042920688946E-01  0.4338417320523592E-01
  0.4275099344924180E-01  0.4212099916955812E-01  0.4149429969961803E-01  0.4087100431755863E-01  0.4025122208682329E-01
  0.3963506169586645E-01  0.3902263129739436E-01  0.3841403834757273E-01  0.3780938944564721E-01  0.3720879017441577E-01
  0.3661234494199845E-01  0.3602015682534677E-01  0.3543232741592672E-01  0.3484895666801186E-01  0.3427014275000515E-01
  0.3369598189920814E-01  0.3312656828043391E-01  0.3256199384885439E-01  0.3200234821745411E-01  0.3144771852944134E-01
  0.3089818933595611E-01  0.3035384247938486E-01  0.2981475698257982E-01  0.2928100894424653E-01  0.2875267144074847E-01
  0.2822981443454812E-01  0.2771250468947550E-01  0.2720080569299469E-01  0.2669477758560537E-01  0.2619447709749418E-01
  0.2569995749251812E-01  0.2521126851958076E-01  0.2472845637142857E-01  0.2425156365087050E-01  0.2378062934440033E-01
  0.2331568880316812E-01  0.2285677373122999E-01  0.2240391218097491E-01  0.2195712855560857E-01  0.2151644361854899E-01
  0.2108187450956822E-01  0.2065343476749842E-01  0.2023113435929522E-01  0.1981497971524250E-01  0.1940497377006022E-01
  0.1900111600966802E-01  0.1860340252334341E-01  0.1821182606099976E-01  0.1782637609530578E-01  0.1744703888835384E-01
  0.1707379756258486E-01  0.1670663217566637E-01  0.1634551979902252E-01  0.1599043459970861E-01  0.1564134792532661E-01
  0.1529822839167434E-01  0.1496104197282618E-01  0.1462975209334668E-01  0.1430431972233947E-01  0.1398470346904410E-01
  0.1367085967969471E-01  0.1336274253536690E-01  0.1306030415054252E-01  0.1276349467213350E-01  0.1247226237871560E-01
  0.1218655377973031E-01  0.1190631371442752E-01  0.1163148545032771E-01  0.1136201078099799E-01  0.1109783012294529E-01
  0.1083888261144142E-01  0.1058510619510846E-01  0.1033643772910189E-01  0.1009281306674420E-01  0.9854167149469215E-02
  0.9620434094952614E-02  0.9391547283314171E-02  0.9167439441287190E-02  0.8948042724264528E-02  0.8733288796137717E-02
  0.8523108906860455E-02  0.8317433967672318E-02  0.8116194623934345E-02  0.7919321325532207E-02  0.7726744394814465E-02
  0.7538394092042131E-02  0.7354200678331224E-02  0.7174094476081319E-02  0.6998005926886580E-02  0.6825865646936228E-02
  0.6657604479914438E-02  0.6493153547417514E-02  0.6332444296912062E-02  0.6175408547260582E-02  0.6021978531848764E-02
  0.5872086939349955E-02  0.5725666952168812E-02  0.5582652282607646E-02  0.5442977206802887E-02  0.5306576596482543E-02
  0.5173385948596164E-02  0.5043341412873358E-02  0.4916379817366039E-02  0.4792438692033650E-02  0.4671456290429638E-02
  0.4553371609550300E-02  0.4438124407906426E-02  0.4325655221879102E-02  0.4215905380422246E-02  0.4108817018172515E-02
  0.4004333087029433E-02  0.3902397366266283E-02  0.3802954471233471E-02  0.3705949860714397E-02  0.3611329842993345E-02
  0.3519041580695144E-02  0.3429033094453201E-02  0.3341253265464280E-02  0.3255651836984561E-02  0.3172179414822316E-02
  0.3090787466880450E-02  0.3011428321800460E-02  0.2934055166759173E-02  0.2858622044466800E-02  0.2785083849414795E-02
  0.2713396323419350E-02  0.2643516050505660E-02  0.2575400451176512E-02  0.2509007776106672E-02  0.2444297099303971E-02
  0.2381228310775598E-02  0.2319762108737531E-02  0.2259859991402423E-02  0.2201484248381180E-02  0.2144597951730835E-02
  0.2089164946680455E-02  0.2035149842065663E-02  0.1982518000500256E-02  0.1931235528312907E-02  0.1881269265274877E-02
  0.1832586774144088E-02  0.1785156330049067E-02  0.1738946909735316E-02  0.1693928180695768E-02  0.1650070490205163E-02
  0.1607344854277874E-02  0.1565722946566907E-02  0.1525177087221428E-02  0.1485680231718666E-02  0.1447205959685219E-02
  0.1409728463722233E-02  0.1373222538247238E-02  0.1337663568365587E-02  0.1303027518782606E-02  0.1269290922767565E-02
  0.1236430871179448E-02  0.1204425001563711E-02  0.1173251487328871E-02  0.1142889027010676E-02  0.1113316833631468E-02
  0.1084514624161173E-02  0.1056462609086369E-02  0.1029141482092846E-02  0.1002532409866937E-02  0.9766170220201617E-03
  0.9513774011412676E-03  0.9267960729795995E-03  0.9028559967628366E-03  0.8795405556522224E-03  0.8568335473376656E-03
  0.8347191747749711E-03  0.8131820370670860E-03  0.7922071204907559E-03  0.7717797896700138E-03  0.7518857788973185E-03
  0.7325111836032031E-03  0.7136424519747442E-03  0.6952663767232209E-03  0.6773700870009778E-03  0.6599410404672444E-03
  0.6429670155026921E-03  0.6264361035720866E-03  0.6103367017344908E-03  0.5946575053000790E-03  0.5793875006326739E-03
  0.5645159580969624E-03  0.5500324251490583E-03  0.5359267195693102E-03  0.5221889228357883E-03  0.5088093736370833E-03
  0.4957786615227868E-03  0.4830876206900933E-03  0.4707273239047738E-03  0.4586890765547732E-03  0.4469644108346986E-03
  0.4355450800592457E-03  0.4244230531037843E-03  0.4135905089700898E-03  0.4030398314753662E-03  0.3927636040625188E-03
  0.3827546047297012E-03  0.3730058010771759E-03  0.3635103454693996E-03  0.3542615703103756E-03  0.3452529834301882E-03
  0.3364782635807270E-03  0.3279312560385626E-03  0.3196059683129212E-03  0.3114965659567876E-03  0.3035973684790661E-03
  0.2959028453558698E-03  0.2884076121388819E-03  0.2811064266588644E-03  0.2739941853223540E-03  0.2670659194995742E-03
  0.2603167920016943E-03  0.2537420936454839E-03  0.2473372399035562E-03  0.2410977676382484E-03  0.2350193319174282E-03
  0.2290977029103053E-03  0.2233287628615487E-03  0.2177085031419150E-03  0.2122330213736719E-03  0.2068985186291070E-03
  0.2017012967004480E-03  0.1966377554395626E-03  0.1917043901657701E-03  0.1868977891402401E-03  0.1822146311053590E-03
  0.1776516828875277E-03  0.1732057970619399E-03  0.1688739096777751E-03  0.1646530380424219E-03  0.1605402785632721E-03
  0.1565328046456966E-03  0.1526278646458367E-03  0.1488227798768600E-03  0.1451149426673828E-03  0.1415018144707382E-03
  0.1379809240238834E-03  0.1345498655546497E-03  0.1312062970361702E-03  0.1279479384873009E-03  0.1247725703178470E-03
  0.1216780317175042E-03  0.1186622190873829E-03  0.1157230845130455E-03  0.1128586342779962E-03  0.1100669274165930E-03
  0.1073460743053748E-03  0.1046942352918103E-03  0.1021096193595220E-03  0.9959048282901810E-04  0.9713512809305321E-04
  0.9474190238567964E-04  0.9240919658414602E-04  0.9013544404277456E-04  0.8791911945798498E-04  0.8575873776365712E-04
  0.8365285305603098E-04  0.8160005754738078E-04  0.7959898054769014E-04  0.7764828747361670E-04  0.7574667888400841E-04
  0.7389288954127033E-04  0.7208568749792233E-04  0.7032387320764834E-04  0.6860627866021612E-04  0.6693176653962018E-04
  0.6529922940483509E-04  0.6370758889257860E-04  0.6215579494149692E-04  0.6064282503720677E-04  0.5916768347762487E-04
  0.5772940065806564E-04  0.5632703237555270E-04  0.5495965915185093E-04  0.5362638557470730E-04  0.5232633965681622E-04
  0.5105867221203252E-04  0.4982255624837111E-04  0.4861718637733989E-04  0.4744177823917018E-04  0.4629556794351598E-04
  0.4517781152520057E-04  0.4408778441461748E-04  0.4302478092237950E-04  0.4198811373783304E-04  0.4097711344107535E-04
  0.3999112802809244E-04  0.3902952244867901E-04  0.3809167815678645E-04  0.3717699267296704E-04  0.3628487915858554E-04
  0.3541476600148068E-04  0.3456609641276915E-04  0.3373832803448364E-04  0.3293093255776415E-04  0.3214339535130273E-04
  0.3137521509977401E-04  0.3062590345198013E-04  0.2989498467844045E-04  0.2918199533817860E-04  0.2848648395445222E-04
  0.2780801069918542E-04  0.2714614708586737E-04  0.2650047567068816E-04  0.2587058976168908E-04  0.2525609313570661E-04
  0.2465659976290701E-04  0.2407173353869512E-04  0.2350112802280689E-04  0.2294442618538521E-04  0.2240128015985257E-04
  0.2187135100239498E-04  0.2135430845787881E-04  0.2084983073202601E-04  0.2035760426967790E-04  0.1987732353898384E-04
  0.1940869082135077E-04  0.1895141600700361E-04  0.1850521639599912E-04  0.1806981650454657E-04  0.1764494787649583E-04
  0.1723034889984630E-04  0.1682576462814664E-04  0.1643094660664940E-04  0.1604565270309454E-04  0.1566964694299294E-04
  0.1530269934929327E-04  0.1494458578631001E-04  0.1459508780779705E-04  0.1425399250905955E-04  0.1392109238298869E-04
  0.1359618517991835E-04  0.1327907377119815E-04  0.1296956601638326E-04  0.1266747463394307E-04  0.1237261707539417E-04
  0.1208481540276532E-04  0.1180389616930416E-04  0.1152969030333920E-04  0.1126203299521073E-04  0.1100076358718919E-04
  0.1074572546630120E-04  0.1049676595998229E-04  0.1025373623448353E-04  0.1001649119595603E-04  0.9784889394141911E-05
  0.9558792928601936E-05  0.9338067357411252E-05  0.9122581608257447E-05  0.8912207891875969E-05  0.8706821617761142E-05
  0.8506301312089885E-05  0.8310528537801804E-05  0.8119387816774684E-05  0.7932766554041374E-05  0.7750554963993455E-05
  0.7572645998516721E-05  0.7398935277009044E-05  0.7229321018228826E-05  0.7063703973926068E-05  0.6901987364207161E-05
  0.6744076814589157E-05  0.6589880294696583E-05  0.6439308058557448E-05  0.6292272586457134E-05  0.6148688528306517E-05
  0.6008472648485776E-05  0.5871543772123788E-05  0.5737822732775206E-05  0.5607232321457728E-05  0.5479697237013975E-05
  0.5355144037762279E-05  0.5233501094402371E-05  0.5114698544143016E-05  0.4998668246018116E-05  0.4885343737361456E-05
  0.4774660191407938E-05  0.4666554375991991E-05  0.4560964613314389E-05  0.4457830740748928E-05  0.4357094072661471E-05
  0.4258697363214723E-05  0.4162584770132902E-05  0.4068701819400082E-05  0.3976995370869172E-05  0.3887413584756046E-05
  0.3799905888995860E-05  0.3714422947439859E-05  0.3630916628868905E-05  0.3549339976803590E-05  0.3469647180089438E-05
  0.3391793544236777E-05  0.3315735463495655E-05  0.3241430393646478E-05  0.3168836825487626E-05  0.3097914259001348E-05
  0.3028623178181202E-05  0.2960925026502388E-05  0.2894782183019118E-05  0.2830157939072534E-05  0.2767016475592551E-05
  0.2705322840978896E-05  0.2645042929545793E-05  0.2586143460515688E-05  0.2528591957547719E-05  0.2472356728786936E-05
  0.2417406847420794E-05  0.2363712132729604E-05  0.2311243131618311E-05  0.2259971100616588E-05  0.2209867988335909E-05
  0.2160906418370775E-05  0.2113059672633323E-05  0.2066301675109675E-05  0.2020606976027252E-05  0.1975950736422313E-05
  0.1932308713097440E-05  0.1889657243958906E-05  0.1847973233723823E-05  0.1807234139988006E-05  0.1767417959644836E-05
  0.1728503215646056E-05  0.1690468944096100E-05  0.1653294681670786E-05  0.1616960453352446E-05  0.1581446760473165E-05
  0.1546734569058193E-05  0.1512805298461882E-05  0.1479640810288557E-05  0.1447223397591116E-05  0.1415535774339941E-05
  0.1384561065155709E-05  0.1354282795298710E-05  0.1324684880908596E-05  0.1295751619487884E-05  0.1267467680623080E-05
  0.1239818096937279E-05  0.1212788255268399E-05  0.1186363888067210E-05  0.1160531065009597E-05  0.1135276184817602E-05
  0.1110585967283795E-05  0.1086447445494022E-05  0.1062847958243292E-05  0.1039775142639836E-05  0.1017216926892881E-05
  0.9951615232790176E-06  0.9735974212829837E-06  0.9525133809082573E-06  0.9318984261532082E-06  0.9117418386485704E-06
  0.8920331514522032E-06  0.8727621429971343E-06  0.8539188311889021E-06  0.8354934676486795E-06  0.8174765320981711E-06
  0.7998587268829320E-06  0.7826309716305805E-06  0.7657843980403576E-06  0.7493103448009062E-06  0.7332003526329347E-06
  0.7174461594536264E-06  0.7020396956597578E-06  0.6869730795265269E-06  0.6722386127191909E-06  0.6578287759146147E-06
  0.6437362245301339E-06  0.6299537845568101E-06  0.6164744484946684E-06  0.6032913713872293E-06  0.5903978669529158E-06
  0.5777874038108714E-06  0.5654536017988553E-06  0.5533902283808911E-06  0.5415911951424397E-06  0.5300505543709257E-06
  0.5187624957194160E-06  0.5077213429514942E-06  0.4969215507652160E-06  0.4863577016941637E-06  0.4760245030838031E-06
  0.4659167841410986E-06  0.4560294930557103E-06  0.4463576941909087E-06  0.4368965653425153E-06  0.4276413950641641E-06
  0.4185875800572392E-06  0.4097306226239102E-06  0.4010661281816368E-06  0.3925898028377381E-06  0.3842974510223958E-06
  0.3761849731787646E-06  0.3682483635087214E-06  0.3604837077728899E-06  0.3528871811436037E-06  0.3454550461095056E-06
  0.3381836504305000E-06  0.3310694251418239E-06  0.3241088826060452E-06  0.3172986146117623E-06  0.3106352905178967E-06
  0.3041156554424766E-06  0.2977365284947399E-06  0.2914948010495780E-06  0.2853874350632384E-06  0.2794114614292782E-06
  0.2735639783737963E-06  0.2678421498889636E-06  0.2622432042039366E-06  0.2567644322922160E-06  0.2514031864145875E-06
  0.2461568786967317E-06  0.2410229797407281E-06  0.2359990172695422E-06  0.2310825748037501E-06  0.2262712903697153E-06
  0.2215628552383978E-06  0.2169550126941184E-06  0.2124455568325021E-06  0.2080323313869215E-06  0.2037132285827082E-06
  0.1994861880185154E-06  0.1953491955741276E-06  0.1913002823440742E-06  0.1873375235964745E-06  0.1834590377564295E-06
  0.1796629854134256E-06  0.1759475683521403E-06  0.1723110286060914E-06  0.1687516475335774E-06  0.1652677449153709E-06
  0.1618576780736433E-06  0.1585198410115995E-06  0.1552526635733409E-06  0.1520546106234447E-06  0.1489241812458048E-06
  0.1458599079612762E-06  0.1428603559636382E-06  0.1399241223734734E-06  0.1370498355095121E-06  0.1342361541770255E-06
  0.1314817669728630E-06  0.1287853916067354E-06  0.1261457742383398E-06  0.1235616888299755E-06  0.1210319365142555E-06
  0.1185553449765528E-06  0.1161307678518578E-06  0.1137570841356618E-06  0.1114331976085641E-06  0.1091580362742605E-06
  0.1069305518105976E-06  0.1047497190333803E-06  0.1026145353726302E-06  0.1005240203610026E-06  0.9847721513405572E-07
  0.9647318194212283E-07  0.9451100367347430E-07  0.9258978338852564E-07  0.9070864386483101E-07  0.8886672715258388E-07
  0.8706319414040225E-07  0.8529722413113759E-07  0.8356801442747784E-07  0.8187477992710927E-07  0.8021675272721450E-07
  0.7859318173808232E-07  0.7700333230561669E-07  0.7544648584253687E-07  0.7392193946805480E-07  0.7242900565584285E-07
  0.7096701189008655E-07  0.6953530032943541E-07  0.6813322747866705E-07  0.6676016386788112E-07  0.6541549373904709E-07
  0.6409861473973379E-07  0.6280893762385205E-07  0.6154588595924052E-07  0.6030889584194621E-07  0.5909741561703202E-07
  0.5791090560575716E-07  0.5674883783899724E-07  0.5561069579673538E-07  0.5449597415350128E-07  0.5340417852960886E-07
  0.5233482524806086E-07  0.5128744109698741E-07  0.5026156309748871E-07  0.4925673827675897E-07  0.4827252344636072E-07
  0.4730848498554316E-07  0.4636419862947107E-07  0.4543924926226161E-07  0.4453323071471620E-07  0.4364574556662982E-07
  0.4277640495358245E-07  0.4192482837810134E-07  0.4109064352509605E-07  0.4027348608146530E-07  0.3947299955978194E-07
  0.3868883512595561E-07  0.3792065143078983E-07  0.3716811444533651E-07  0.3643089729996064E-07  0.3570868012703443E-07
  0.3500114990717110E-07  0.3430800031892124E-07  0.3362893159184872E-07  0.3296365036291016E-07  0.3231186953606140E-07
  0.3167330814501573E-07  0.3104769121908431E-07  0.3043474965202175E-07  0.2983422007381728E-07  0.2924584472535374E-07
  0.2866937133587479E-07  0.2810455300319669E-07  0.2755114807659520E-07  0.2700892004231386E-07  0.2647763741162845E-07
  0.2595707361141270E-07  0.2544700687714313E-07  0.2494722014829423E-07  0.2445750096606343E-07  0.2397764137337359E-07
  0.2350743781710551E-07  0.2304669105250305E-07  0.2259520604970624E-07  0.2215279190236180E-07  0.2171926173826418E-07
   47     107.87         4.0896    fcc     
  0.0000000000000000E+00 -0.1535688001652125E-01 -0.3062707716004853E-01 -0.4581082210038645E-01 -0.6090834550733892E-01
 -0.7591987805071099E-01 -0.9084565040030657E-01 -0.1056858932259302E+00 -0.1204408371973861E+00 -0.1351107129844789E+00
 -0.1496957512570121E+00 -0.1641961826847915E+00 -0.1786122379376200E+00 -0.1929441476853032E+00 -0.2071921425976445E+00
 -0.2213564533444490E+00 -0.2354373105955201E+00 -0.2494349450206637E+00 -0.2633495872896824E+00 -0.2771814680723818E+00
 -0.2909308180385656E+00 -0.3045978678580387E+00 -0.3181828482006049E+00 -0.3316859897360693E+00 -0.3451075231342352E+00
 -0.3584476790649082E+00 -0.3717066881978914E+00 -0.3848847812029903E+00 -0.3979821887500082E+00 -0.4109991415087505E+00
 -0.4239358701490206E+00 -0.4367926053406239E+00 -0.4495695777533636E+00 -0.4622670180570450E+00 -0.4748851569214718E+00
 -0.4874242250164492E+00 -0.4998844530117804E+00 -0.5122660715772710E+00 -0.5245693113827242E+00 -0.5367944030979451E+00
 -0.5489415773927380E+00 -0.5610110649369071E+00 -0.5730030964002564E+00 -0.5849179024525912E+00 -0.5967557137637149E+00
 -0.6085167610034325E+00 -0.6202012748415480E+00 -0.6318094859478661E+00 -0.6433416249921906E+00 -0.6547979226443266E+00
 -0.6661786095740776E+00 -0.6774839164512489E+00 -0.6887140739456443E+00 -0.6998693127270681E+00 -0.7109498634653252E+00
 -0.7219559568302190E+00 -0.7328878234915546E+00 -0.7437456941191360E+00 -0.7545297993827683E+00 -0.7652403699522550E+00
 -0.7758776364974007E+00 -0.7864418296880100E+00 -0.7969331801938873E+00 -0.8073519186848362E+00 -0.8176982758306619E+00
 -0.8279724823011685E+00 -0.8381747687661607E+00 -0.8483053658954420E+00 -0.8583645043588173E+00 -0.8683524148260913E+00
 -0.8782693279670677E+00 -0.8881154744515509E+00 -0.8978910849493456E+00 -0.9075963901302564E+00 -0.9172316206640873E+00
 -0.9267970072206425E+00 -0.9362927804697263E+00 -0.9457191710811436E+00 -0.9550764097246986E+00 -0.9643647270701954E+00
 -0.9735843537874382E+00 -0.9827355205462321E+00 -0.9918184580163809E+00 -0.1000833396867689E+01 -0.1009780567769961E+01
 -0.1018660201393000E+01 -0.1027472528406613E+01 -0.1036217779480602E+01 -0.1044896185284772E+01 -0.1053507976488928E+01
 -0.1062053383762874E+01 -0.1070532637776414E+01 -0.1078945969199352E+01 -0.1087293608701494E+01 -0.1095575786952643E+01
 -0.1103792734622604E+01 -0.1111944682381180E+01 -0.1120031860898177E+01 -0.1128054500843399E+01 -0.1136012832886650E+01
 -0.1143907087697735E+01 -0.1151737495946457E+01 -0.1159504288302622E+01 -0.1167207695436033E+01 -0.1174847948016495E+01
 -0.1182425276713812E+01 -0.1189939912197790E+01 -0.1197392085138230E+01 -0.1204782026204940E+01 -0.1212109966067722E+01
